solver_type L2R_L2LOSS_SVC_DUAL
nr_class 2
label 2 1
nr_feature 5506
bias -1
w
-0.000148924457102761 
-0.003912060156127133 
0.003661827276032283 
-0.0006072403808791435 
-0.009594898096104908 
-8.152685518215626e-005 
-0.0009594898096104978 
-0.001065932324885876 
0.0002498660732448632 
0.001992148950743261 
2.496461014747574e-006 
-0.0008900770948542634 
-0.004973466193343711 
-0.001174925577171201 
0.002329801439232236 
-0.003687773886954441 
-0.001812794045372656 
-5.824165425999399e-005 
-0.0009698267490009827 
0.0001078936414454391 
-0.000136100246263591 
-0.0002415783725895775 
5.783050709114495e-005 
0.0001204512261201065 
0.0004948104687981003 
-0.0002276493452581146 
-0.0004983994350190718 
0.0007365051333789899 
0.0003367784633592462 
-0.0002936562679107405 
0.0005069737386394691 
9.783797821237934e-005 
-0.001170045124591194 
-0.0002800726533625159 
0.0006807130927131262 
-0.0009222750408225729 
-0.0008347406376105631 
-0.004425739243617714 
-0.001157050546312049 
0.003307087323627456 
0.0003304009508738547 
-0.001295530504155254 
1.895185549975991e-005 
0.0008816869596793447 
0.0002929260111568908 
-0.0001262157376870044 
-0.0003942218446654872 
-0.000156234183698243 
0.0004130680899879072 
0.0008883396933513337 
-0.0003230737447613599 
-0.0005274644499364632 
0.001056735570684742 
0.0005663137639257017 
-7.802073963940639e-005 
0.0003130464333316281 
0.0001035908475555568 
-0.0004744156832508008 
-0.0001656676757834058 
0.001439967139530776 
0.0007540447126169982 
-0.0003155022871910751 
-0.002773275283289731 
-0.002322102350599959 
-0.0006508532982717031 
-0.002014328230505899 
-0.0003875388318617915 
-0.001565126872641397 
0.00063929077946646 
0.0003909583285982769 
7.167370369649333e-006 
-0.0005512611593942155 
-0.0004680054401870252 
0.0005589784543724511 
0.001375235953205008 
-0.0002006121681017962 
7.955391882374647e-005 
0.001048040680823972 
0.00064424898770886 
0.0007265044384470414 
0.000113262862378895 
6.072251755899586e-005 
0.0001029348064309495 
-0.0001734434606202455 
0.0002971205216446245 
-0.001154441827747808 
0.0008879679288962796 
-0.001631858513068071 
-0.002216694772806505 
0.001182786584749538 
0.0007591845971494888 
0.0003061442963740592 
0.0003050934321970964 
-0.0002091497749270048 
0.000249432340971862 
-0.0001289245955968865 
-8.406613524736254e-005 
5.458527697626416e-005 
0.0006703847383541415 
0.001158765311945694 
0.0002243609964495543 
-0.0007631371261003223 
0.0002324924414289134 
0.0004404408376778208 
0.00105120953009745 
-3.544830484757438e-005 
-9.806190061932305e-005 
0.0002523628074554405 
0.0002323897150270538 
-0.0005723559486885238 
-0.002221451908295512 
0.001043449877336859 
0.0005057750977887988 
-0.001648159442088737 
0.003789700086359297 
0.001338033841298916 
0.0006076099180421488 
0.00343121054677115 
0.000141906582024305 
0.0001420116919456831 
-0.0002185206960540882 
8.35674043753912e-005 
5.477785159320699e-005 
-0.0001011117373639596 
0.0002301409264303348 
0.0003352469040288792 
-0.0009292697810694101 
0.0006630852178698182 
0.0001356295572872164 
0.0009892955677468362 
0.0001108685558902447 
-8.64267495132233e-005 
-0.0002862760607209871 
-0.001123723402161986 
0.001266551502246148 
0.0008384074789176515 
0.001837709842487855 
-0.0002714347286703822 
-0.0003722197227838955 
-0.002728895797277416 
-0.00018333762362 
0.0004090890099158811 
0.002776840866989182 
0.0009531333794217575 
8.611215471547661e-005 
-0.00036759193161288 
0.0001125890537500561 
-5.11288294608989e-007 
-0.0004763052213814693 
-0.000512212983105768 
-7.569292639019362e-005 
-0.0009891282529241995 
0.00039791099367804 
-0.0002710478012419802 
0.0003840783425808597 
0.0004256930568771015 
1.58732048121108e-005 
0.0004302548061241105 
-0.000783129819049085 
0.001373098491027628 
3.152168298642719e-005 
-0.001295934969528061 
-0.002302792054300445 
-0.001568110329185527 
-0.003341356331395892 
0.001772352183455765 
0.0002391390843272191 
0.002145481136977447 
0.0006124956738509827 
-2.491294704833016e-005 
-0.0003676955785002637 
5.688345403820755e-006 
-0.0001587089584799987 
-0.0003692473702632633 
-0.00107035758614418 
-1.91059039827297e-005 
-0.0002673727911151394 
0.00041640321177812 
-0.0004259827505279999 
0.0001192820250876571 
0.0004250396592966353 
9.421299607425204e-005 
0.0004445537729654523 
-0.00150364483981305 
-0.0001126519375448147 
-0.002283480742403874 
-0.0003238554741091651 
-0.002788654441940005 
-0.00263518740330814 
-0.0001973180666826053 
0.002531589594421498 
-0.0008648635909481069 
0.002868341999558575 
0.001684021188999148 
-9.17056163012637e-005 
-2.382215468477217e-005 
-0.0006221637682398485 
-0.0004856289312649668 
-0.0003319839385997478 
-0.0008651667632352705 
4.767208233988748e-005 
0.001176203954170945 
0.0001413331385780794 
8.570641979731583e-005 
0.0002582654760838373 
0.0002863556011426061 
0.0001022651527150066 
-0.0002376166565647332 
-0.001416129559365053 
0.0001456951071620698 
-0.001454054986023894 
0.0002779970965333936 
-0.003587422062298378 
-0.0006122135039183411 
0.001187043210398708 
0.00206258672724152 
-0.0008853191830604224 
0.003981859009163855 
0.001901666262718234 
-0.0002885150946819508 
3.963849080918018e-006 
-0.0006959307167903747 
-2.126860681721208e-005 
0.000264242724504748 
-4.549979388847411e-005 
0.0008156099080487068 
0.000416683116079634 
-0.0004753548620657156 
0.0009606531012717354 
0.0002013459855072254 
0.0001532205641349809 
-7.650976342563362e-005 
-0.0004108674694677078 
-0.0009263314533358818 
-0.001230569820148342 
-0.0008469498196938289 
-0.0006091755261104513 
-0.00395496467972821 
-0.000611809485271725 
0.0008879331349448177 
0.0003782171723556026 
0.00139985468219956 
0.003149976547056565 
0.001740331868971172 
-0.0002788588284040115 
0.0001150888652508563 
-0.0003053974122524715 
0.0004475201569122843 
0.0002161591001496324 
7.869205589047081e-005 
0.001394146720689937 
-0.0006698288817242139 
-0.0005231962712439608 
0.00170461908669252 
-8.643817201181655e-005 
-0.0001887762491290194 
-0.0001645272805586466 
-0.0005846063874567439 
-0.001051968912785312 
-0.001547604206576677 
-0.0007930802865015027 
0.0001679358852883285 
-0.001947131788852628 
0.001498249968973247 
-0.001800569950432584 
0.0004722664078061534 
0.003910052946913102 
0.003011401755547595 
0.001350437638073548 
-1.535123701668367e-005 
0.0004208809927712877 
-0.0002786519171886139 
4.90698490677604e-005 
-4.007919085055296e-005 
0.0003248496257489199 
0.0009875969243018253 
-0.0006415364526553615 
-0.0003134265174159825 
0.001190226503143835 
-0.0006215428215391036 
-0.0005202571564996008 
-0.0001743588511381294 
-0.0007762423617718283 
-0.001110282441265529 
-0.0007929935425967595 
-0.0003763643846304893 
0.0008119687070052818 
-0.003215327550826082 
0.003280321664586471 
-0.002052656299177297 
0.0007107738544547063 
0.005260546889190872 
0.002921394953211994 
0.001015754208720946 
6.02076977762009e-005 
0.0009092539314071647 
0.0001526232338496486 
4.5144775019957e-005 
-6.362115800676507e-005 
0.0003512867762797615 
0.0002890392338520131 
-0.0002877570514971344 
2.208777567242913e-005 
0.000588442010322545 
-0.000467704476615847 
-0.0004436063206184172 
-0.0001183149442545776 
-0.0001316861432003922 
0.0007802514622753716 
-0.001466348922141662 
-0.00144401451120142 
-0.0006329753053962434 
-0.002332977161700083 
0.002379705680425544 
-0.0005503471170724016 
0.0003291807716429788 
0.003135457030483363 
0.0009884407590748307 
-0.0003373402041521165 
-1.515413077764907e-005 
0.000953527510526446 
0.0003161586307766812 
-0.0001780646940351108 
-0.0001635295931350264 
0.0005916368822187463 
-0.0007596565978436505 
0.0003802285902793008 
-6.337128367656741e-005 
-0.0001735234112920994 
-0.0005041140121595261 
-0.0001291597638770891 
4.82982293278419e-005 
-0.0003362890015125776 
0.002703824906855297 
-0.0005080834492529447 
-0.0002957694845179113 
-0.0005268196931122055 
-0.002005607295119682 
0.0003926600922648405 
-0.001175960353170137 
0.0005601999485678834 
0.004729352125503621 
0.001822923377469479 
0.0003661861024095236 
-7.15431663401772e-005 
0.00042607790591657 
0.0003378478713664417 
-0.000237028291639272 
-0.0004744793252922244 
0.0003953146851287263 
-0.001855800856368614 
0.000735083245741589 
-0.0002213727069994697 
-0.000538758535769045 
-0.000512794104819834 
0.0005759442648035777 
0.0001922587408195253 
-0.0008803543522002527 
0.001808614264397017 
-0.0001092632548186365 
-0.001723711242710814 
1.969508116387201e-005 
0.0004062039112134726 
-0.0008561950800959532 
-0.000337780767403053 
0.0002307121087137777 
0.003308032176997213 
0.001040064589287928 
0.001029424618188495 
0.0002292745716801708 
-0.0003999713259955541 
0.0002936336054275152 
-4.766407820898243e-005 
-0.0004317919235342037 
-0.0001451325084846942 
-0.001762145435518754 
0.0002866229834013547 
0.0002291148147811269 
-0.0002241625428505301 
-0.0002655162465263144 
0.0005895658673986149 
0.0002701378029365347 
-0.0007596261448797576 
0.0005059319722109441 
0.0002177028589109518 
-0.001421653094737717 
-0.001886754415053885 
-0.002608337140450925 
-0.004380732686606666 
0.00151647396681335 
-0.0003468591106668595 
0.002480460149159063 
0.0003316006281035746 
0.003212107246115221 
0.0005031762289832778 
-0.0007161186979838601 
0.0001910983275404482 
-0.000256162305442547 
-0.0004721498917835998 
0.0002645365795447715 
-0.001128898427073267 
-0.0001491004785870598 
0.0006618518473308126 
9.043157837980991e-005 
-0.0003258967277063139 
-0.0001350978799370378 
0.0002439712695839836 
0.001226351818515308 
-0.0001206576559321105 
-0.0003610609928513271 
-0.001119380429967563 
-0.002111964348460444 
-0.002757271487006083 
-0.004044332117072593 
-0.0004634552206497785 
0.00192828740211302 
0.003139094452594234 
0.0004065161555094138 
0.001187525485203465 
0.0005026725321714336 
-0.0005931135064682732 
0.0001281435447169177 
-7.817869166819053e-006 
-6.056107211483345e-005 
0.0002184821028482259 
-0.0006034909935968175 
-0.0005881199140071514 
0.0005560449499129968 
0.0003715168148611257 
0.0002582330552695729 
-0.0006933735213174169 
0.0001084872465779991 
0.001126239543506845 
8.786832919617694e-005 
0.0005732971607551949 
-0.001878744464178388 
-0.00182174404295083 
0.0008988114161775179 
-0.003657765756710983 
-0.001858627616836023 
0.003020675377780883 
0.005265982724546815 
0.0005102109361408341 
-0.0003883532362589427 
0.0002502295888600283 
-0.0001296155223985494 
-9.179118512696705e-005 
-0.0002377999430354296 
0.0004268352816277978 
0.0006133547335731628 
0.0004161784579758237 
-0.0004510156865575048 
0.0003645891295107637 
4.4743300983997e-006 
0.0005722654802165174 
-0.001050458687342295 
6.01934255530372e-005 
0.0006900776785265678 
-0.0009479230461799862 
0.0003536549437594737 
-0.001534255416775349 
-0.0003156226703400864 
-0.000254961672921591 
-0.004235133631127302 
-0.001590831125455495 
0.001327162165135668 
0.003772860060892344 
0.002241931110462044 
-0.0006372177073645011 
-0.0001580140708992064 
0.0001157124975332528 
-0.000137016674736675 
-0.0006520475627145142 
0.000490604799955972 
0.0007102857947619148 
0.0006817454956521105 
7.67752888752164e-005 
-0.0004591685966229639 
-0.0009208450989736762 
9.912788081441911e-005 
-0.0008640938127046462 
3.295685421459662e-005 
0.0007596607555063078 
0.0002714915446693792 
-0.0005986104314285466 
-0.002403202070940988 
-0.000650748674780068 
-0.0007927202887680043 
-0.002204438231267556 
-0.0001749114132575593 
0.001776633698228831 
0.002185956693089474 
0.002275215698832126 
-0.001127823345223502 
-1.572018856196216e-005 
0.000203934330874036 
-6.096655924213441e-005 
-0.0004563754177831492 
0.0002816426440780491 
1.860933215629997e-005 
0.0004180320989626299 
-3.071073024462925e-005 
-0.0002612787699339567 
-0.0009780450626305805 
-0.0001777024234304243 
-0.0004128179546657546 
-1.405394535696136e-006 
0.0006195760741451082 
0.0003660985492767407 
-0.000460189586555529 
-0.004117391748732102 
-0.0002444381809932731 
0.001639921259185 
-0.001362261809912917 
-0.0009214312238948228 
0.0002544584965429003 
7.488295792124984e-005 
1.96483145497856e-005 
-0.002763213858205333 
0.0001264184877450582 
0.0002215550616328838 
7.020724772198762e-005 
-0.0003367267007646239 
4.489990959377764e-005 
0.0003243247598022042 
0.000922659886577445 
-0.0002142517597732713 
-0.0002726638737012193 
-0.0005891317602996022 
-0.0004997399123911933 
-5.584090190115303e-005 
-2.166906331857421e-006 
0.001082895408952779 
0.0004505302345681198 
0.0006753846915313339 
-0.002869058929330054 
-0.000449123481734513 
4.440780098125526e-005 
-0.00300404111211485 
-0.002346885096861674 
0.002250630881087915 
0.002224742440583026 
0.0007328461075796165 
-0.001389447721012309 
0.0001346995214468301 
0.000409982091875068 
0.0006370684710718175 
-1.357589874777712e-005 
0.0004681688743717667 
0.0003698155668213169 
0.0009093452005662485 
-0.0005914199098443691 
-0.0002636912385518112 
-0.0001722942400060548 
-0.0002682180552198648 
0.0001776047305393511 
-3.555358467200033e-005 
0.001160551357637443 
7.033648682220684e-005 
6.768613051209815e-005 
-0.002984969955455839 
-0.0001919358048462794 
0.0009480867663342459 
0.000777974296478151 
-0.001576105688695981 
-0.0002731490103406724 
0.0008078005494208141 
0.0005144229025587865 
-0.0007856065476433035 
7.080926022998409e-005 
0.0003875533184858731 
0.0004763505449141527 
0.0005223871747785483 
0.0008178229292728546 
5.258172371615895e-005 
0.0004861038996398026 
-0.0002808205167409016 
1.770679656483608e-005 
-0.0002074607427667931 
-0.0001395206267399075 
9.846577658154338e-005 
-5.70774732560574e-005 
0.001162671904702177 
0.002469277726017759 
0.002322787447160261 
-0.003037289342799787 
0.001663836719088869 
0.001402261584190334 
0.001272173695334654 
-0.00280467751902476 
0.0007219863409482308 
0.0009580257337588433 
0.0006867420240869213 
-0.001228604475920829 
5.489263016375127e-005 
0.0003707256049377594 
-0.0002491322295773394 
0.0005344800680204305 
0.001013074030280341 
0.0002027478310023272 
-0.0002333694337366008 
-4.771021695984678e-005 
-0.0002686023115147844 
-0.0005483857932489159 
-0.0006249108966906686 
-0.0003535195212304668 
-0.0001434894534629913 
0.0009337278350606285 
0.001294489417634915 
0.001097870399384815 
-0.00142132515563009 
0.002788205269647197 
0.001223902601940809 
-0.001069855680165762 
-0.002096629350119618 
0.001107310499322516 
-0.0003290582613941798 
-0.0006548981050491602 
-0.002351313729072109 
6.961993395372534e-005 
6.897462460628916e-005 
-0.0004624062408591374 
0.000889425221238878 
0.0006832231345682382 
-4.922864824811791e-005 
-0.0008116284624046583 
0.0002646828027466646 
0.0003768314494435355 
-0.0003455185033053953 
-0.0006282548378330027 
-0.0005186910792859007 
-0.0002129973299380379 
0.001470770753452587 
0.00169208302358409 
-0.001085367028427329 
-0.0009784677298190997 
0.003126184944474122 
0.0009202541868135743 
-0.00324696921947214 
-0.002325173641197291 
0.000217390062030499 
5.12437318766456e-005 
-0.001807044498810147 
-0.002374193765466755 
-4.047728341223991e-005 
-0.0004969328574640533 
-0.0008889364616219739 
0.0006968298607758836 
-0.0002129527173513951 
-0.0001101468805247138 
-0.0003269968472760764 
0.0005741244196354169 
0.0008680878151444436 
9.348317092743106e-005 
-0.0008873681587494059 
-0.0003115843374521814 
-0.0001270764790239651 
0.001354602463951605 
0.0008038102218936658 
-0.0005402781160955477 
0.0004327501247716715 
0.00249301506002162 
0.0009429475271023231 
-0.001020597960994084 
-0.0004924444200220689 
0.001863304407377969 
-0.00046640358364077 
-0.0013799547054241 
-0.002806265276666691 
-0.0001128933497209021 
-0.00041255026776289 
-0.0002541956840005051 
0.0003547653641189994 
-0.000511981408279811 
0.0003307327209264209 
0.0009456836117280916 
0.0009189436789542407 
0.001125877072551782 
0.0005774758735904091 
-0.0002113948685998074 
0.0003612740523766853 
-2.78540215612726e-005 
0.0007498464388725429 
0.0002299541347282206 
-0.0013028201391689 
-0.0004801814022417201 
0.0007466826408934245 
0.0009919984581897279 
-0.000387433857046127 
-0.0007361515109266567 
0.00468442846908582 
0.001494117722172084 
-0.003387578178585066 
-0.002559050445404191 
-2.488703414815586e-005 
-0.0002765706198097284 
0.0001945563858922124 
0.000535674414835435 
-0.0006402253581203795 
0.0006870029169024736 
0.001566287588685004 
0.000756965552706808 
0.0003206918348613312 
0.0003576698165955521 
-0.0004637747749926247 
0.0007560370480836784 
-2.995857057270372e-005 
0.0007297194223286385 
-3.720039870699963e-005 
-6.438903577403437e-005 
0.0001033310885250002 
0.001418048046900153 
0.002841691074407667 
0.002228796626441397 
0.001703569460485594 
0.004503177846401399 
0.001836888824987846 
-0.0009216137354334583 
-0.0004525088838654799 
0.000116358467442258 
0.0001313031162786649 
0.0004620329731787132 
0.000338698840563221 
-0.0006510345986502799 
0.0003385280716291033 
0.0008899776301475931 
0.0006656207694433668 
-0.0004932757382035014 
-3.126653434414903e-005 
-0.0005700415040193319 
0.0008733507741978076 
-2.831426578606891e-005 
0.001658779509662471 
0.0007297367830611126 
-0.0003505277834048988 
0.001864595929728768 
0.0004625384600892752 
0.00340590560067731 
0.002959774729131758 
0.0003616439665330911 
0.0005009235283560288 
0.0006879424927438661 
-0.004355082805170276 
0.0002291065307780516 
-0.0001661716191095619 
0.0003200274161271791 
0.0004547275617141127 
0.0001622757171623147 
-0.0006043526033762759 
-0.0001778086206775342 
0.0007344741085614955 
0.0008471469088322851 
-0.0009662402101792588 
-0.0002594356815040218 
0.0003455223504998766 
0.0008788796544561378 
3.138874404608673e-005 
0.001481920270288476 
0.001210434725004878 
0.001293738261245568 
0.0009538621241311741 
-0.0006200983910472957 
0.001428647655160373 
0.001755687271079608 
0.002286777153700943 
0.001488683653506959 
-0.0002196487279839861 
-0.003746399840942115 
0.0001664111139552728 
-0.000453272272097772 
0.0002462811304146849 
0.0001773611084923397 
0.0001100187255510716 
-0.0007228612127920928 
-0.0006698056138420082 
0.0006572939751875846 
0.0004932782993137332 
-0.0006717075601471791 
-0.0003084734153527228 
0.0004014334849839079 
0.0005700787421696556 
0.0001324874388446683 
-0.0004571180447388642 
0.001206274125067767 
0.0002917655007451871 
-9.405086320081501e-005 
-0.001256022482185365 
0.0008094848940374743 
0.003521493946350952 
0.003207989643520409 
0.001360466023502682 
0.001225202323309093 
-0.0002475745787136437 
0.001525891054997179 
-0.0004689668484277533 
0.0001041180456838431 
-9.716706800485058e-005 
-0.0002758411331083472 
-0.0005157042630038229 
-0.0004790130811982094 
0.0001175336772504209 
0.000490076854666889 
1.582671284210612e-005 
-0.0004063754380690398 
0.0005656828270829105 
5.170102711369217e-005 
0.0001237043026464809 
-0.0004786964206624502 
0.0009559396963773845 
0.0005012896702662548 
0.001632744452854717 
-0.00133697523073086 
0.0007908633821719005 
0.00523441157196278 
0.002746786495117209 
0.000714872682612982 
2.588717529540046e-005 
-0.0009682059006463315 
0.001749492649883646 
-0.000235202723112487 
-1.782373469333304e-005 
-0.0003474167260439806 
-0.0003653375619994834 
-0.0002712950163692905 
-7.020522172804909e-005 
-0.0004485704993731501 
-0.0001673078928809427 
1.246193784928856e-005 
-0.0005099436349404771 
5.552799105830236e-005 
-0.0003723506233807062 
5.002490923799844e-005 
0.0002942520263930764 
0.001377570799319084 
-0.0004401337038292002 
0.0001459413458158737 
-0.001757544069853705 
0.001329729144852322 
0.001808081112824666 
0.002582013706559101 
0.0009669608760240932 
-0.001466699892352579 
-0.002915773592717739 
-0.0003039355980819741 
0.0001027891254800307 
2.937517029997028e-005 
-0.0003388968903396857 
-0.0005100347431573776 
-4.82205510235999e-005 
-6.456468937186377e-005 
-0.001466775728183062 
-0.000673045690956495 
-0.0001208337531964673 
-0.0002349208495395504 
0.0001483793482375757 
-0.0004597768380231746 
3.742867112003151e-005 
-6.977603411503085e-005 
0.001035665186325775 
-7.739827580858816e-005 
-0.0009928346054177289 
-0.001725809994504778 
0.0008174949470963128 
0.0003695327156288307 
0.001763213716959457 
0.001747747965229498 
-0.001423410207422987 
-0.002134659227246894 
-0.0007804329647482009 
0.0001348773695345283 
0.0001207737466752011 
-0.0003736057485338493 
-0.0003998963231019851 
0.0003172898395348271 
-0.0001665197145858383 
-0.002108067361937094 
-0.00055993078411268 
-0.0002236517969226219 
0.0001056995693997131 
0.0007552522104541524 
-0.0003409815860567743 
9.727400399012281e-005 
-0.0001476227885017973 
0.001313280270561651 
-0.00111339087273788 
-0.001331436412993752 
-0.001302709590052264 
0.0004733440039760823 
-0.001379948105544548 
0.000334552495725722 
0.0002398874429013817 
0.0007752502287615232 
0.001077552267890511 
0.0004919659772829478 
-0.000127547490244999 
-0.0003096685099194884 
-0.000234481681615324 
0.0001809180951598493 
0.0001637336971472044 
4.565811578138787e-005 
-0.001043522373169901 
-0.000512515780914727 
-0.0004175498678977669 
0.0003239584986526378 
0.001086587225289444 
0.0003606908845915003 
0.0001330000641927375 
0.0004166271307517816 
0.001591955904518598 
-0.001030114114214244 
0.0003719619429810411 
2.205617927159282e-005 
0.0003864414176094294 
-0.003711914008886171 
0.001070868353745149 
-3.984227907292741e-005 
-0.0005665921112237602 
0.000811393190383844 
-0.0003533634384219818 
-7.484121544021846e-005 
-0.0001969872928039063 
3.84333978208226e-006 
0.000334256817976158 
-0.0001767991573424668 
5.5600103852839e-005 
-5.479734781640711e-005 
-0.0002385988882245537 
-0.0008300882730514525 
-0.000162872361670301 
5.082817180788243e-005 
0.0004890439497096399 
7.715590868709421e-005 
-0.0005866842235427018 
-0.0004489199249578654 
-0.001136176839124222 
0.000368128320298183 
-0.00181281221078172 
0.001773540686467723 
-0.001368810337888939 
0.0003656048821333054 
-0.0002269973831525806 
-0.0002753177193417951 
0.001044136920248124 
0.001285975392410822 
6.002052744610114e-005 
-0.000287503625969911 
0.0001522188701067247 
0.0003289164874695198 
-0.0005306975389191203 
-0.0001073341104934821 
0.0006125555294609539 
-0.000183999335046367 
-0.0008839260461307253 
-0.0004572045356856694 
-0.0009324661549303425 
-0.0003077758444123983 
2.806657250293142e-005 
-0.0002244586577684142 
0.0009318264069027319 
-4.67860324958579e-005 
-0.0001713375783266852 
-0.002354756809573205 
0.0004454045724856628 
8.997015666867667e-005 
0.000554700134772129 
-0.002169270721768538 
-0.001712483920260404 
-0.001863817454173575 
0.001267782988618979 
0.0002278028215538365 
-0.0003131877228363631 
6.281737184295764e-005 
-1.111229976138563e-005 
-0.0009441027774742933 
-7.813374820906044e-006 
0.0008124086696834562 
-0.0003662630478127093 
-0.0005636885017121501 
-0.0001248061601139494 
-0.0009802603382568066 
-0.0003765631116292165 
2.325169214808502e-005 
0.0004730257832989352 
0.0002058289298486177 
-0.0008439730623235697 
0.0005847843794328643 
-0.002767792330582873 
-9.280680865136879e-005 
-0.00021811101109576 
-0.0003273665196390229 
-0.003115046259886304 
-0.0009378266945445652 
-0.002247168490027806 
-0.001857480531028004 
0.0005048523493436471 
-8.27117378226878e-005 
-4.470437441645637e-005 
9.56160346809845e-006 
-0.0004967509503569542 
-4.352835654852048e-005 
0.0002550097248211567 
-0.0004059741345876935 
-6.178721447712434e-005 
6.06581019173732e-006 
-0.0009308272532957734 
-0.0005623195226616904 
9.240757735953352e-006 
0.001222484683435305 
-0.0005986155675370085 
-0.001433246287569877 
-0.0008568747822971276 
-0.003643225425812217 
0.0002243323893197736 
-0.0001876576248459961 
-0.001343939739269882 
-2.537875481565658e-005 
-0.0003250635230298609 
-0.0008214355669585313 
-0.001590953262344741 
0.0003104623381016776 
-0.0004125657303716376 
5.168080327400626e-005 
0.0003752606173057035 
-1.537466304627896e-005 
0.0003373304466776122 
-0.0001848038791636051 
-0.0002254707601706917 
-2.600433669777295e-005 
2.556954652986721e-005 
-0.0003009920481689131 
-0.0001863980835925461 
-5.431506047860885e-005 
0.00108042471973642 
0.000384340840802356 
-0.002080191353092609 
-0.0007253558774689515 
-0.002559431470654181 
0.001142109463898032 
0.0005566984686768214 
-0.001001460228432741 
0.0001913775044783554 
8.964044902218356e-006 
-0.0006203627853404081 
-0.00145748322107515 
0.0001378860199845091 
-3.584712871371538e-005 
0.0005763196301437158 
0.0007001662323435579 
0.0002401653383067036 
0.0002774213285308033 
-8.286003335023532e-005 
0.0003655948958678286 
-0.0001086809294942659 
-0.0005783186579912307 
-0.0002773751460889833 
0.0001699765649269767 
-0.0001854762804175178 
0.0006993411049391603 
-0.0003096122973028012 
-0.0007565725690542083 
0.0009563993654740503 
-0.001521455273248481 
0.001532574252601439 
-0.001007154759386874 
0.000170319462001544 
-0.002147444057318463 
-0.0007661546994164039 
-0.000112869223945861 
-0.001201836895017634 
-3.481857440689654e-007 
9.243881665102773e-005 
0.0004301677569397208 
0.0006631148722600779 
0.00054890281006087 
3.738488728711643e-005 
0.0002447983898611795 
0.0004118212227806473 
-0.0003457030346816577 
-0.0007832338312059536 
-0.000540981711018669 
0.0001275586061009875 
-0.0002680546161014233 
0.0008792366476741864 
0.0003719696503105881 
-0.0004630525444809523 
0.00174828031806442 
-0.001870781230481137 
0.00160955572402142 
0.0003375317130160202 
0.0008363473863594223 
-0.001097925912513355 
-0.002465596598598071 
-0.0008267039790950954 
-0.001349007439688131 
-0.0002894671203778838 
9.497570730564749e-005 
0.0002501565872071914 
0.0005391726533010405 
0.0005048298932919652 
0.0002436411351496255 
0.0006394830965327968 
-5.807313787797151e-005 
5.95099785491324e-006 
-0.000476589333926325 
-0.0002744197046518147 
0.0002774068327985642 
-0.0002234854905169226 
0.0008926139275967824 
0.0007972457856620287 
-0.0006480294036537996 
0.001335211217732857 
-0.001016758065360096 
0.001237541950439475 
0.001601220333796301 
0.0009047072223145097 
-0.001393295182091518 
-0.002857746660866314 
-0.002346589738375745 
-0.0009788673895421052 
-0.00057195781602454 
0.0001733858193524106 
-9.813651637550554e-006 
0.0001143805514265243 
0.00058319619821224 
0.0003453116482672031 
0.0007985238508408721 
-0.0005714176491286716 
0.0008515296460350059 
-0.0001436543893627007 
8.801380987973915e-005 
0.0004144337782218428 
-0.0001085334406018908 
0.0001499191936355387 
0.0002448940275938851 
-0.0006647315969181114 
0.001996252707640062 
-0.001919078010247069 
0.002201922841392882 
0.002459402419945337 
-0.002168836713993488 
-0.001228281124763369 
-0.002225596823179747 
-0.00100275353389914 
-0.0001353221438623579 
-0.000763573475214732 
-0.0001453173535424016 
-1.910647649081876e-005 
-0.0003205726285821696 
0.0008466800889758719 
0.0003486123552070529 
0.0002982702864060215 
-0.0005601315524836414 
0.0006422600481316481 
0.0001858101142705729 
0.0007216256692735138 
0.0004013281106869161 
8.783191143747639e-006 
-0.0008755943203375772 
0.0005295167108936068 
-0.0003763790805792507 
0.001727045994337401 
-0.001028504981468572 
0.002504076114124057 
0.001938735380533793 
-0.001948917792427852 
0.0005668761629750924 
-0.00295053375602181 
0.0002245107745337481 
0.0003334127210368959 
-0.0008645100437788131 
-0.00041250517559278 
8.824243995683083e-005 
-0.000462423223591044 
0.0008390138916980846 
-0.0002695221865397859 
0.0001446290131379997 
-0.0002282263121532106 
9.287449177872493e-005 
0.0002687732162935786 
0.0008545434714158023 
0.0003838481673516813 
5.763591455769588e-005 
-0.001677190276863251 
-0.0002924060655838398 
-0.0002390259770253122 
0.0009054011284877596 
0.0003053417281916806 
0.002020435586551054 
0.002515974064254364 
-0.0009709430437263363 
-0.0007697633750687726 
-0.002764798750686194 
0.0002575632781588422 
4.770207899207636e-005 
-0.0004946795364375855 
-0.0002142013177326255 
5.721674065079216e-005 
-0.000395748759092948 
0.0006822957314418645 
-0.0005584180772229397 
-8.185471363676545e-005 
0.0002444712536769009 
-0.0005381138773957288 
-5.24175420005634e-006 
0.0003093820931492699 
0.0003807717314730739 
-1.402638525530467e-005 
-0.001770076034785475 
-0.0005701445140434468 
0.000163864549768055 
-0.0005129733039636016 
0.001170208903754767 
0.000404482355694068 
0.00207099498915815 
-0.001327040898844399 
-0.002803694654154281 
-0.001903384242982551 
0.001373977924297313 
0.0004669397084430976 
-0.0001582162604896313 
-8.962496278347695e-005 
-3.671975668973415e-005 
-0.0002267339699449385 
0.0002973144896090086 
-0.000474707822829441 
-0.0002121200926638752 
0.0002095485167540433 
-0.0008824087516085592 
0.0001420137096135442 
-0.000133667071443849 
0.0002986932142152552 
-4.735633653129842e-005 
-0.001364891804378206 
0.0005577736389145942 
-0.0002401083860008293 
0.000640126504837486 
0.001672537782858835 
0.001551274709577233 
0.001839509457961003 
-0.001281696462415326 
-0.002408702082375099 
-0.002190093065343141 
3.102645842719424e-006 
0.0007187177387612063 
2.367877581516534e-005 
-7.888283619468936e-005 
-5.020071517855121e-005 
-8.562576459195147e-005 
4.360106301969721e-005 
-0.0001411273034412037 
0.0001707005871611131 
0.0003509277055507438 
-0.0002058939432943897 
3.53116438630122e-005 
-0.0003371973868644927 
0.0004314590832707471 
-0.0001089993575308815 
-0.001436087151544112 
0.0003322067447291865 
0.000684774048011882 
5.542940872982385e-005 
0.001349743945495814 
0.001394350554590823 
0.001093631739260754 
-0.0005235333233229771 
-0.002134170526921077 
-0.001778266442352518 
-0.0003657544425448158 
0.0007299744651537249 
1.791512873750367e-005 
-0.0001325637530839775 
-7.718347358702676e-005 
0.0001860145502877584 
-0.0001704829314226734 
1.578943259366473e-005 
0.0004363593120961968 
0.0003338427503813179 
0.0001353769269262541 
-7.765597138868125e-005 
-0.0005047825994027682 
0.0001041933249856722 
-0.0001748629779625979 
-0.001592657554089129 
-0.0009895911167237569 
0.0004950052784622284 
-0.0006817678559321957 
0.001027605815165242 
0.001433818823207958 
0.003198529784105615 
0.001227625950326739 
-0.001007297162209705 
-0.003259363979800711 
-0.0001675782988942767 
0.001549356026678423 
0.0002719244891301035 
-0.000111046067250388 
0.0001001180816573416 
0.0002677402124264758 
-0.0003569492357900325 
-0.0003776259520027833 
0.0001392800111875006 
8.454447531166215e-005 
-7.851857464397705e-005 
0.0001211811359601324 
-0.0004112842764900102 
-4.332319708062372e-005 
-0.0002377738449005296 
-0.00123727776744724 
-0.0004257617100133355 
0.0002160727756891435 
0.0005556525082377673 
0.000271314718587387 
0.0006029699410542888 
0.003440326358878538 
0.0001165055033247071 
-0.001221874841503755 
-0.002604377898716079 
-0.0006444394832283919 
0.00125572704420514 
0.0003338368179298091 
-2.03433939506674e-005 
0.0002233946180073445 
0.0008424794606874098 
3.526717546624446e-005 
-0.000296579838063075 
-0.0002982568544832533 
-6.05461441175519e-005 
-0.0005045151790450176 
7.042297265108288e-005 
-0.0002532514229230245 
-0.0002149209967295027 
-0.00028655533751291 
0.0004517650106389064 
-2.644043918831902e-005 
0.0006676777829326894 
0.0005741821304205492 
0.000132232766003518 
-0.0004843593789747588 
0.001041795658668416 
-0.001903815612129889 
-0.0008418293281753768 
-0.001725377531495683 
-0.0007387306400381617 
0.0001479267909164048 
0.0002871458614400131 
0.0001313390332126833 
0.0003471670306817533 
0.001134860088988378 
0.0003853986796479441 
-8.189160355144635e-005 
-0.0009039651890661693 
-0.0002160407853177011 
-0.0008106050713967096 
0.0002828890607915092 
0.0001483469020072006 
-0.0003911078056548672 
-0.0002872435286118288 
5.943949208821826e-005 
-0.0004477922015663871 
0.0005405871274839269 
0.002224732525647531 
0.001833010653057165 
0.0003610840554705131 
0.001010766552816746 
-0.001043141381067378 
-0.001646272029162598 
-0.002268380253957533 
3.245250808267578e-005 
4.811130182131558e-005 
0.0001464025691163378 
0.0001827218419744722 
0.0003542002610469427 
0.001037450982454526 
0.0007499352876752232 
1.120959416587975e-005 
-0.0006441314507446518 
0.000202255216424126 
-0.0008719425115159185 
0.0004040115071175827 
0.0003294981052545474 
-0.0002045659293596431 
-0.0002502155559406572 
-0.0001361804427207466 
-0.0001049142872800655 
0.0008335523775948231 
0.003046688650691407 
0.002628504100004037 
0.0009226916833409793 
-0.0001100017773692298 
-0.001061960979768286 
-0.002535336314854612 
-0.001509582523090673 
0.0009291561572198016 
-0.0001164307790472593 
-0.0002158716705162832 
-0.0001314971686768291 
9.936443377589023e-005 
0.000883377671688599 
0.000583871057903653 
0.0001943510891719064 
-0.0002171776027114028 
0.0006062736797929429 
-0.0004618524412169172 
0.0006999583367891154 
0.0002148726280270021 
-5.95340149762602e-005 
-0.0001165689252385618 
-0.0003258898951989068 
0.0005114934500577619 
0.0009561892815759184 
0.003459314109868597 
0.003404267437075537 
0.0004157863446829917 
0.001004565434182303 
0.0004672131736672392 
-0.003204207876037412 
-0.0008636829028047802 
0.0004476798133747397 
0.000184618598928281 
-0.0002042691078266422 
-0.000224600116995458 
5.45706641918152e-005 
0.000715652068846587 
-3.311010060321848e-005 
-0.0002200069440785545 
-0.0001751606536538603 
0.0001767164007619249 
-0.0001096443836582951 
0.0007116059146949095 
-5.033481569146493e-005 
0.000256290558781763 
1.682959738960552e-006 
-0.0006124158486014102 
-0.001014286562578263 
-5.424527466690949e-005 
0.003668947036607276 
0.002932093051300517 
0.001132615298786797 
0.0006570950822017499 
0.0009399903782361521 
-0.001771565934494483 
0.0008850948395404528 
0.0001906197818346799 
0.0003385644895171864 
-0.0001329984232510485 
-0.0003694505609878351 
8.999545019977216e-005 
0.0004072196355931313 
-0.0005822902838373724 
-0.0004510927911410737 
5.658622292686617e-005 
-0.0001625243374624965 
-4.819653440124053e-005 
0.0002537200558595571 
-0.0002495037939418799 
0.000255855194527492 
0.0001080432573436991 
-0.00069101670568486 
-0.001297642038321812 
0.0002009795810562783 
0.00433580676148171 
0.001977947601565641 
-6.561287933942727e-006 
0.0008124237067841427 
-0.0008150275748547738 
-0.002365726960039699 
7.738317116085368e-005 
0.0004914385998414634 
0.001430068944438631 
-2.431217716884123e-005 
-0.0004131877837551243 
0.0002077959271395931 
9.144054690274756e-005 
-0.000749887357722564 
-0.0004550622074306513 
-0.0003896203858289132 
-0.0004422911483089462 
4.614631440902778e-005 
-0.0001517816742992131 
-0.0002311754749102594 
0.0001232153275915515 
5.889426555151818e-005 
0.0001805758492437541 
-0.0007523058806054721 
-5.530757921336575e-005 
0.001545363792223247 
9.030797327953932e-005 
-0.0002052894015015207 
0.0004466306796134375 
0.0003176680780801193 
-0.0007811153087472764 
-0.00168156607029179 
-3.648200343349172e-005 
0.000739849476558294 
0.0002176248199487901 
-0.0001956565081205655 
0.0001742038513881665 
6.247302651352155e-005 
-0.0004318978777497013 
-0.0003327082987913585 
-0.0003582298580331295 
-0.0001212593387565029 
0.0001901651150927995 
-0.0003473037031062525 
-0.0002816616613755257 
-0.0001804740320513689 
2.392444041012528e-005 
0.0002156315269946271 
-0.0007801550541178325 
0.0005239219394373394 
0.001226868926515258 
-3.875246752827607e-005 
-0.0007324742673658083 
-0.001100917334124097 
0.0006049813848202139 
0.0001415052576957685 
-0.001815021584093688 
1.33769660502208e-005 
0.0001977783538792143 
0.0001904191364516549 
-0.0001535339341031409 
0.0002865305030043512 
-1.937335558678274e-005 
-0.0004085736603554187 
-9.75352965431773e-005 
-0.0002859392257142293 
6.927680711767134e-005 
0.000115321887160209 
-3.846209475182357e-005 
-0.0002753428420178119 
-0.0003681409393722068 
-3.49679169761348e-005 
-3.881968776805246e-005 
-0.0009524651342204172 
0.0006157599062839985 
0.001828997372153397 
0.0001430527074528439 
-0.0007986121011393878 
-0.0008711040150156556 
0.0008880319241746341 
0.0006183476020764131 
-0.0008989931934632131 
-0.0003669848407288397 
-8.363900566304598e-005 
4.68829665744041e-005 
-0.0001966912465038891 
2.789728934818594e-005 
9.189391705972313e-005 
-6.584701738576098e-005 
-3.981608754990616e-005 
-5.31661538858113e-005 
-3.093236134982639e-005 
3.084139234968875e-005 
0.000143317013879442 
-0.0004493884394134128 
-0.0002294107102513489 
-4.928572280065181e-006 
0.0007210263594459377 
-0.001089754316588614 
0.0005903947186288312 
0.0008706209799888387 
-0.001313633834679393 
-0.0004953873475258348 
-0.001352164601421854 
0.0004553455581644966 
2.025517992568352e-005 
-0.001656349142389577 
-0.0005655269547216988 
-0.0006585835975493153 
-8.320833562238612e-005 
-0.0002585893705118275 
-5.548030722181308e-005 
-9.90274692235505e-005 
-0.000178098992385082 
4.549378762314319e-005 
0.0003760861288781144 
9.029513875846654e-005 
-0.0002248183415730406 
-4.006177791381676e-005 
-0.0006249216213877935 
-1.96776916348872e-005 
2.854898752205638e-005 
-0.0003055088659387847 
-0.001317690104020861 
-7.310151486911763e-005 
0.001280223509793945 
-5.55973845641082e-005 
-0.001019180502473997 
-0.0006688186138268621 
-6.037975411773281e-005 
-0.001052290300604137 
-0.0009827584584299934 
-0.001488483842648432 
0.0003957226380772992 
-0.0001221946983637011 
-0.0002892723450180015 
-8.209851669196578e-005 
-0.0001787176490971815 
-4.516920730225341e-005 
-8.353286264445115e-005 
0.0003469066406747946 
0.0001130170959320307 
-8.051443421984339e-005 
8.768550448161172e-005 
-0.0005120555303968228 
1.84137909227529e-005 
0.0001013014224507584 
-0.0004971744435381866 
-0.001598055162746034 
-0.0001911685604540278 
0.0006524591798186856 
-0.0007163200047975614 
-0.0007646901566270672 
0.0001749034963575747 
0.0006924839473133047 
-0.0009072952547422973 
-0.0009712131027651848 
-0.001701728037579304 
-0.0001355729924090829 
-0.0001201448223507335 
-0.0003002384628426386 
-1.49848777559784e-005 
-0.000169046718642532 
1.245530542753241e-005 
-0.0002495751655713748 
0.0002827705368867766 
0.0001863854679478874 
4.900017186302174e-005 
0.0001238408077440278 
-0.0001910043052375729 
5.824275617281888e-005 
6.425724377993678e-006 
0.0002153312444601231 
-0.0009991680329722058 
0.0001391426927146126 
0.0006706240884366415 
-0.000679201503458509 
-0.0003306465882820955 
0.0002145040964345174 
0.0005618903264517485 
-0.0002880381743758481 
-0.0004234247981691871 
-0.001497740873433069 
0.000148101236992753 
5.003015444429945e-005 
-0.0002166515931270826 
8.455077595773082e-005 
-5.433336659592527e-005 
-8.593832934675523e-005 
-1.733615532955556e-005 
0.0001100492641530901 
0.0001376708474769718 
5.402128329392188e-005 
0.0002156851283551573 
8.054884047616142e-005 
5.437207687235361e-005 
-2.697321728525265e-005 
0.0002251039259274234 
-0.0009909829835059642 
0.0004922644017867035 
0.0006223870453221446 
-6.178309017803973e-005 
-0.0005786342654156096 
0.0005719456043890603 
0.0003373402430569662 
-7.864163104742281e-005 
-0.0001141212716787583 
-0.0002877586248034467 
-2.053414944103437e-006 
0.0001018446131303507 
-0.0001002436989544535 
3.731475518400506e-005 
-2.066511403152022e-005 
-2.833259092821443e-005 
-8.696358569379021e-005 
-8.973532003932314e-005 
-0.0001454074893218115 
-4.882344646700325e-005 
0.0001469826195667846 
0.0001603394425709023 
4.900837580608757e-005 
-1.535551930590292e-005 
0.0002579332188780633 
-0.001013889418569095 
0.0004093397663602884 
0.0006805233025704148 
-7.445802178342768e-005 
-0.0003978394514030281 
1.368929456140342e-006 
-0.0004090513408470717 
-1.223886082386387e-005 
0.0004954985497534727 
-0.000334647802742754 
0.0001814552073698208 
8.8217683337351e-005 
2.902100408691463e-005 
-5.493826291687895e-005 
-2.163058775971462e-007 
-0.000106543153322107 
-0.0001304059440849467 
-0.0001337891821908597 
-0.0001358145191658486 
-0.0001370975012562105 
9.380550523337383e-005 
2.821396487375733e-005 
-0.0001078945148823092 
-5.449054902249965e-006 
-1.872338087708086e-005 
-0.0007449826491321089 
-0.0002712208178791661 
0.0006320012804671088 
-6.240216759972592e-005 
-0.000488349880592467 
0.0005202819397594212 
-9.505021693287757e-005 
0.0003244469021228446 
0.0005308422530900682 
-2.578851385695796e-006 
6.562879856238416e-006 
-5.730706569659228e-005 
0.0001378598346826896 
-0.0001346284762145552 
-3.674528886835067e-005 
1.403542112287752e-005 
-6.549577867938318e-005 
-6.298852909981611e-005 
3.704598510496944e-005 
1.999504976280889e-005 
0.0002023597476789918 
9.252952403616247e-006 
-0.0001329423557484445 
-1.203214493961392e-005 
6.7900735837012e-006 
-0.0004137014737176293 
-0.0001911154904919333 
0.0003261078088682849 
6.464719401579836e-005 
-0.0001272715564687734 
0.0002620824538974616 
5.69797242200413e-005 
-0.0004241828759734946 
5.422677661606047e-005 
-6.28302409230217e-006 
2.478623465329418e-005 
-6.34106214443873e-005 
0.0001636642184405436 
6.391489712750449e-005 
8.033399437272498e-005 
8.814972456084998e-005 
3.696146599318834e-006 
3.562139166242959e-006 
0.000226735096534203 
-4.427246862091464e-005 
0.0001120647610803469 
-8.8024497843318e-005 
-8.216637560201813e-005 
-1.828403901689056e-005 
-0.0003592236884048189 
-0.0002432170466075093 
-0.0001768969604447117 
0.0003382812275296236 
0.0005505880138615357 
-1.407403133259786e-005 
0.0004582420119898317 
0.000385519129007065 
9.428989078178975e-005 
0.000652562835584993 
0.0002321800534919827 
0.0001066978266607318 
-5.358060172830884e-005 
0.0001145617236916884 
0.0001251798489877149 
9.593438686663624e-005 
0.0001402053909536579 
0.000103623359901987 
-2.531695503432648e-005 
0.000157116329427873 
-2.739605317599584e-005 
4.707684745773767e-005 
-8.056577777867091e-005 
-4.970011491990806e-005 
-2.494867580113823e-005 
-1.790136173036829e-005 
-6.426321233944161e-005 
3.328887017628566e-005 
0.0003454483468600241 
0.0009094301524640882 
0.0002777899480455206 
6.547981840858529e-005 
0.0005289036098855165 
-2.579801171892268e-005 
0.0003264140349949087 
-0.0003489038172508957 
-4.946497998320867e-005 
-1.371962712894171e-005 
2.014969360978845e-005 
0.0001125089426733965 
0.0001183053451422339 
3.56945790662181e-005 
6.980792550951007e-005 
1.038018229066641e-005 
7.041198018680005e-005 
-7.805249819421042e-006 
1.086164613529149e-005 
-3.13792557517309e-005 
-2.353128638007915e-006 
-2.833481515650979e-005 
5.617802928231072e-005 
-0.0002159548641956658 
-0.0003566556159414454 
-0.000191688245783573 
0.000511589300520733 
0.0001892876872113129 
6.330264034625334e-005 
0.0001828285070421541 
0.0003981645762308295 
1.557048600985446e-005 
8.790165923615912e-007 
-0.0003352993811893737 
-3.285878535579689e-005 
4.65224072157323e-006 
7.386943239898315e-005 
4.220406800931774e-005 
-8.280773161805503e-005 
-4.962081228609456e-005 
1.212836415406835e-005 
5.108059674421325e-005 
-9.94038734322941e-005 
1.27570927696065e-005 
7.577426849365717e-005 
2.718676192292613e-005 
-2.499398659069486e-005 
3.331290335316621e-005 
-0.0002336175459233914 
-0.0003404188211053969 
-0.0002125467516275766 
0.0001430216808595665 
6.314935255115778e-005 
-8.435535497155739e-005 
0.0002260646941170855 
0.0003689245110757843 
0.0002150827730835945 
-8.39830777851003e-005 
-0.0001284581501671703 
-3.759050222392877e-005 
2.981617525754645e-005 
3.399682893543055e-005 
1.070773852546157e-006 
-8.730322962648074e-005 
2.524685593587159e-005 
-6.347328829722947e-006 
-3.061249726915298e-005 
-6.269828239354674e-005 
3.015980616056711e-005 
0.0001015493188843107 
4.682774896955594e-005 
-1.246170550920787e-005 
3.555521428734504e-005 
-5.539114623807693e-005 
-4.139724690326638e-005 
-0.0001460503766654339 
9.74377949452549e-005 
1.377415027438986e-005 
-0.0001172896162261314 
0.0002066285147743853 
6.301565693672344e-005 
0.0001633969960226733 
-1.589763090659447e-005 
-7.670089192743241e-005 
-1.282103793961821e-005 
4.9395049042231e-005 
3.749776989747142e-005 
-3.621161761365211e-005 
-8.08998977089909e-005 
1.383024628831392e-005 
-2.908639100214807e-005 
-3.945923436896152e-005 
-5.746461252145651e-005 
3.006532773250837e-005 
3.290746057609508e-005 
3.137480833998252e-005 
-4.338879005113312e-006 
7.746237415967858e-005 
0.0001028197421000421 
-5.389997240535429e-005 
-0.0001424862070409861 
0.0001327262367664924 
0.000316680563377106 
-8.428927570474787e-005 
0.0001440588607691497 
0.0002416496821686483 
0.0002047319872224352 
-7.565808391645026e-005 
-0.0001104741819186277 
-9.330458265831907e-006 
4.400300415966594e-005 
1.492180123946637e-005 
-4.195053611530564e-005 
2.281504473388357e-005 
1.155212538443625e-005 
-8.084574819733149e-006 
-1.161885809664817e-005 
-2.700530257512378e-005 
-2.22357271693892e-005 
7.069922979183996e-005 
-6.002475886307501e-006 
1.343132228975666e-006 
7.871237914058464e-005 
6.740509896625579e-005 
-9.172165337863246e-005 
-0.0002623193965268662 
9.255276110341904e-005 
8.473750729804331e-005 
-0.0001540027226891539 
6.679034175711792e-005 
0.0001022856249535582 
0.0001380443797499189 
-0.0001350919835343885 
-0.0001209214671212365 
-1.786025274494581e-005 
-1.173747999458889e-005 
1.900294440264456e-006 
-6.441671678185792e-005 
1.220409123899332e-005 
8.688802784986929e-006 
5.655472422367726e-006 
2.040724820926541e-005 
-3.453466302566456e-005 
-9.391150348028249e-006 
4.047928913075149e-005 
-6.431158619535142e-006 
1.778265202998884e-006 
5.24552441531758e-005 
8.749515848001077e-005 
-7.432233776934851e-005 
-0.0003334092377241767 
0.0002706856464049088 
0.0001531802159898035 
-0.0001465586165024964 
0.0002502585791041547 
0.0001819824418896889 
5.841473767591668e-005 
9.339383497791513e-005 
-0.0001267463726623876 
-4.404699586734699e-005 
-5.578354806910674e-005 
2.10399544516685e-005 
-1.791652574221378e-005 
1.817996226507822e-005 
-5.136918434309175e-005 
1.108467455145594e-005 
8.052150853932527e-005 
-4.426029128813875e-005 
4.56150277113221e-005 
8.927189108991599e-005 
4.314257476135188e-005 
4.970073318061636e-007 
-4.124249132788027e-005 
-0.0001064162467173931 
-2.168465779796329e-005 
-0.0003726729538279576 
8.947827868479566e-005 
0.0001389680892507528 
-5.787742887489369e-005 
0.0002555647179430316 
-7.982382851030572e-005 
0.000189599639622599 
0.0001019728201488953 
-0.0001007206393816731 
-6.368022182329202e-005 
-7.860514838904917e-005 
3.069952345196082e-005 
2.108195449187969e-005 
-2.658436855270529e-005 
-5.170896838139196e-005 
-6.544297432941282e-006 
7.825714636797152e-005 
-1.233556191204534e-005 
7.496249310246047e-005 
8.222783618475421e-005 
6.992949857437561e-005 
2.656953915687546e-006 
-8.279527318776031e-005 
-8.91865525657349e-005 
1.628127986619162e-005 
-0.0001768923362631464 
0.0002251628801632561 
3.272027983595933e-005 
-7.692833036709542e-005 
0.0004522783459448781 
0.000111401601719527 
0.0004070292664095142 
0.0002521687757505528 
9.51382581269719e-005 
-3.323002480514084e-005 
-3.449526772840407e-006 
7.955376857010804e-005 
5.956156637847611e-005 
-7.16078016520816e-005 
-6.026719252354751e-005 
7.475438210174584e-006 
1.138688040167759e-005 
-5.843652237024181e-005 
1.349304276535045e-005 
1.811892432174214e-005 
6.787595455580361e-005 
1.185424979836461e-005 
-0.0001720626403730712 
-0.0002372808848936315 
1.647444607012642e-005 
-0.0002351681742548715 
-1.760769853928064e-005 
-0.0001135767853729195 
-0.0002215395375991523 
0.0003570670238197183 
7.589776467720206e-005 
0.0003385486731083436 
0.0001966601629261277 
0.0001177841841408785 
-7.176507921924015e-006 
6.939390202173216e-005 
8.657461105495319e-005 
5.159121542061403e-005 
1.882239084524215e-005 
-5.670245833023327e-006 
-3.329479537021043e-005 
-7.92396447831551e-005 
-5.358605401657611e-005 
-0.0001008722757766811 
-8.615843327005059e-005 
-6.126003173779754e-006 
1.862149341994201e-005 
-4.828474799163438e-005 
0.0001356797880080705 
0.0003043672743536151 
-0.0001043547630795513 
-3.381109138010228e-005 
-2.18830493634924e-005 
-2.735022190416062e-005 
0.0002564419576532172 
-0.0001880616051264044 
5.140566916583283e-005 
0.0001366444054484456 
0.000103381033110955 
-1.749602788433899e-005 
9.214249391913847e-005 
8.560740639937095e-005 
6.284695478243302e-005 
9.046699765212936e-005 
5.384044335007085e-005 
-3.679114509101882e-005 
-0.0001369201152584169 
-0.0001361495781346052 
-0.0001324621628081329 
-7.409002970978524e-005 
-4.706827935669421e-005 
1.432965130885386e-005 
-9.438024380711847e-005 
0.0001281196063900527 
0.000267146051786342 
-0.0001509865959679851 
0.0003130774331973437 
0.0001379188230560298 
-0.0002491408336030943 
-4.271459400249321e-005 
-0.0001980222339108238 
-0.0001369489234493096 
-0.0002710574004291853 
-0.000135472187637399 
-2.523978264915474e-005 
5.600870710172083e-005 
2.615898490894384e-005 
0.0001055971971079249 
0.0001943928420834343 
9.091113134413648e-005 
4.033511975275116e-005 
-5.696846886857071e-005 
-7.113635631337799e-005 
-0.0001312868679562126 
-9.203362077737564e-005 
-5.914780337182813e-005 
1.790702991192202e-006 
-0.0002091161481842426 
0.0001888245242221554 
0.0003189825099546383 
9.525040188272611e-005 
0.0005121552528271461 
0.0001761756399416722 
-0.0002470843156072975 
-3.243165086929053e-005 
-0.0004323864504674263 
-1.753264650232122e-005 
0.0001155764911465162 
-1.357529612728303e-005 
-5.944734165919382e-005 
-4.951931196497225e-005 
-6.454228424068723e-005 
3.466845991551503e-005 
0.000128103880873006 
6.67011089109573e-005 
7.979845226771685e-005 
6.123358633557486e-005 
3.208021422643396e-005 
-4.343053037680242e-005 
-5.469156909872081e-005 
-1.703720405337087e-005 
-8.566953036879594e-006 
-0.0002178457257400812 
1.619089196362399e-005 
0.0001399615952630413 
0.0001930140511182411 
0.0006813714694988216 
0.0002419492972619878 
9.000301240108869e-005 
0.0002166605660053513 
-0.0001576215942191768 
-0.0002834175321321826 
-0.0002529730412127955 
-0.0001194777273336311 
-6.189745345265385e-005 
-5.38546291262149e-005 
-4.96262974359928e-005 
1.859909754255994e-006 
2.082883889385828e-005 
8.682844820458643e-006 
0.0001473012126644916 
0.0001196246683062566 
2.710337892087934e-005 
-2.032976156167934e-005 
2.478968660802211e-005 
5.547296362883804e-006 
-1.023733061436608e-005 
-0.0002837886479147837 
-5.59528086182786e-005 
4.524819398317746e-005 
-0.0001030124581550085 
0.0004225612941518411 
0.0002596065810991211 
0.000202069240744398 
0.0004329229976267457 
-4.786120985643782e-005 
-9.251156173019671e-005 
-0.0001458546273279184 
1.019752722075683e-005 
-4.421776244184921e-005 
-4.320697891507845e-005 
-2.265679017689912e-005 
-3.349039986066494e-005 
-1.658152323470218e-005 
1.583158210762663e-005 
9.169999969677587e-005 
0.0001004646834056321 
4.765609439254121e-005 
9.01685889845561e-006 
1.289464233774664e-005 
-6.436192624456272e-006 
-7.35080347445433e-006 
-0.000366531781237487 
-1.876436693674453e-005 
0.0001558826254063432 
-4.255528026297114e-005 
0.0004620186070042889 
0.0001396170792951524 
0.0002627885012719585 
0.000322731243576024 
-0.0002547683496483481 
-0.0002011077191623025 
-1.639320923807828e-005 
-0.0001196218490924209 
-3.713099350145965e-005 
-9.498927503509164e-006 
-1.06334964993713e-005 
-3.928426161703173e-005 
-2.993851429648049e-005 
7.021465605647958e-006 
-4.475180766982711e-006 
1.588451236282175e-005 
1.047165152590674e-006 
9.237859456986303e-005 
3.523004176549455e-005 
1.327412452058519e-005 
-4.917123427546865e-006 
-0.0003558622053417234 
-9.732657944426337e-006 
0.0001977380439984914 
4.558320208811623e-005 
0.0005389231998965808 
0.0003064993113641107 
0.0001250231258295059 
0.0004168577926623016 
-0.0001455328898974601 
-1.360286835103903e-005 
6.176002735780908e-005 
-4.568419531822811e-005 
-2.21113744402973e-005 
-2.53955650581197e-005 
-2.011502057699014e-005 
-6.571605481451605e-006 
2.63974220550529e-006 
1.372516979432736e-005 
-1.515237413167812e-005 
-1.689553065443408e-005 
3.054258043673808e-006 
4.921755439531737e-005 
-9.891510980244551e-006 
1.840988242757415e-005 
-9.76499713475795e-006 
-0.0003674638901669712 
-5.441383773028458e-005 
1.054902026154633e-005 
-7.77048156104564e-005 
0.0004734981248487973 
0.0002536103596146218 
0.0001061502012822238 
0.0003041162282684741 
-0.0001035497379954118 
0.0001390204554564237 
-0.0001806299073516767 
-2.516626943497003e-005 
-4.441890050337752e-005 
-3.289890450335892e-005 
1.661835998530128e-005 
5.670288042713969e-006 
-2.755383617078747e-005 
2.872271085368757e-005 
1.332496744513735e-005 
2.885923186331016e-006 
-3.579417345880547e-006 
2.231603041997219e-005 
-7.429820303402763e-005 
7.268214265984366e-005 
4.704029523050935e-006 
-0.0003938794775863543 
-0.0001651061195596983 
1.733995716506141e-005 
-0.0001182959970501602 
0.0004300199670954764 
0.0002712358091200542 
0.0002046265300265631 
0.0003577528917911055 
-0.000108199113799882 
-1.648895166468701e-005 
-0.0001131935883719252 
5.501936521860606e-005 
-6.643754031773806e-005 
1.227021271127927e-005 
2.811940435888004e-005 
3.136316954711749e-005 
-3.351208742663967e-005 
-3.526207262323539e-005 
3.722341670164166e-005 
2.466066963972376e-005 
6.161280489141211e-005 
-2.548380342112669e-005 
-4.491278285269616e-005 
5.1713223203351e-005 
1.953286492216244e-005 
-0.0005696183060945675 
-0.00010557217390561 
0.000329173288244201 
6.773567767064553e-005 
0.0003787014566616864 
0.0003008628627610343 
0.0002896115966163605 
0.0003667130613010534 
-0.00029133234736986 
-8.808498811380727e-005 
-0.0003004076987569267 
0.0001934376514174785 
-8.033782813579201e-005 
4.703780964323784e-005 
3.586484765025346e-005 
6.403354978720781e-005 
-2.424612591901824e-006 
-1.639379211531265e-005 
6.384071124738663e-005 
4.01114512471556e-005 
6.867204517981227e-005 
-8.686787929744186e-005 
7.53647016926367e-006 
3.244530734213122e-005 
3.371826355308021e-005 
-0.0005869729781282497 
7.719786822849396e-005 
0.0001790228361864816 
0.0001296787641795107 
0.0004187626218319147 
0.0001065633200936706 
0.0002194097311581493 
0.0005088601621614571 
0.0002564210527019846 
-2.746910625949978e-005 
-0.0001029151763293301 
0.0001035798585533368 
-6.142303261327078e-005 
5.975108396152759e-005 
-8.823363476048488e-006 
4.513953377023673e-005 
1.714308365096497e-005 
2.191841673777737e-006 
6.819057717584512e-005 
3.343717354450093e-005 
6.252177682691357e-005 
-8.358115059640674e-005 
8.577340444568616e-006 
-9.024985699115397e-007 
3.316190713090359e-005 
-0.00067260501337841 
5.962343844890655e-005 
0.0001090318082773011 
0.0001184757373883394 
0.0004670036847926243 
0.0002539776015064177 
0.0004179615482193003 
0.0004291186335278631 
5.750104322384891e-005 
-0.0002898289057782117 
-0.0001480869859924341 
0.0001127794722307369 
-1.311659087467666e-005 
2.563945725415929e-005 
-5.649707629632672e-005 
8.484761326028976e-007 
2.053812092511573e-005 
3.615450182719596e-006 
3.926252541887298e-005 
1.312376424125929e-005 
3.285077217183986e-005 
-8.134446187496114e-005 
2.164563396444601e-005 
-2.617477952588502e-005 
6.514217387701826e-006 
-0.0001128447811343626 
4.881592767583002e-005 
1.853597936698373e-005 
3.331984812937654e-005 
5.288888620520542e-005 
9.949269374989732e-005 
4.057940539095481e-005 
0.0001362430089039667 
-4.799560725313297e-006 
-6.632571085932845e-005 
9.14667216996042e-007 
1.164103106146838e-005 
1.847680251786822e-005 
-1.782526043626211e-006 
-1.294381685401295e-005 
-8.906871664242289e-006 
-1.011277650094923e-005 
-2.834789877789196e-005 
-2.37273306161974e-005 
4.313813278119797e-006 
-1.435769599187185e-005 
-1.460504527548572e-005 
1.633211415765504e-006 
-8.894966674596703e-006 
5.836806569196564e-007 
-6.728238667721424e-005 
3.346177311036443e-005 
2.979469814609918e-005 
4.708826205232507e-005 
3.628585148117931e-005 
1.325760333965903e-005 
-8.590021906406691e-005 
8.240192244089254e-005 
-4.86577912218912e-005 
-7.458471040117847e-005 
-2.302178344371767e-005 
-1.025838138684009e-005 
3.36747103102911e-005 
-7.765325380581854e-006 
-1.351738473443166e-005 
-9.900137671690461e-006 
-2.053287478974202e-005 
-4.308273529387472e-005 
-2.650794632640143e-005 
-1.270561760421185e-005 
-7.38766768064671e-006 
1.225279038736668e-006 
4.774557263350824e-007 
-1.175918584592082e-005 
-2.542118089735075e-006 
-3.158134170494116e-005 
3.753870991531035e-005 
3.435410032089268e-006 
2.611091442443647e-005 
1.876691826386825e-006 
-5.694175444294801e-005 
-9.806628304399046e-005 
5.093107733993011e-005 
-1.481460094117713e-005 
-6.18723297284964e-005 
-3.877505850582276e-005 
-2.115169555477847e-005 
2.96137860645175e-005 
-9.429040224286385e-006 
-1.105552835433728e-005 
-1.04088596603053e-005 
-2.312432349655482e-005 
-4.472158591526177e-005 
-3.217499987699235e-005 
-1.84440812012985e-005 
6.624326109812393e-006 
1.482076726831185e-005 
7.83085752492169e-006 
-4.016496853336783e-006 
-8.23460276691229e-007 
-8.209509793749518e-006 
2.419955192645018e-005 
-1.576302183725358e-005 
2.386676917495367e-005 
-2.885005661181498e-005 
-8.936370577599718e-005 
-8.608113114564868e-005 
5.075344733569439e-005 
-9.223323594520823e-006 
-1.873360020596277e-005 
2.152704585488249e-005 
-8.814406594288217e-006 
1.816918235935692e-005 
-7.500342390500431e-006 
-1.115309556271093e-005 
-1.182681653062426e-005 
-1.760814604698617e-005 
-1.524286230637274e-005 
2.674584720553464e-006 
-9.782768596663245e-006 
9.265672337971887e-006 
8.616159176906805e-006 
1.099476019499345e-005 
6.375186602191639e-006 
-3.256964481361465e-007 
5.688208030938616e-006 
6.301896820488772e-006 
-1.396285214147093e-005 
-7.113514765374645e-006 
-3.016477723107192e-005 
-7.280423316947132e-005 
-0.000120204590940325 
5.984649235096054e-005 
8.604840982907895e-006 
-2.014757880071096e-005 
1.779452825747768e-005 
-9.163470438558299e-006 
9.430243652646547e-006 
-7.880784883335113e-006 
-6.864245963797835e-006 
-5.230248838607083e-006 
-8.157553514795019e-006 
5.920429921694575e-006 
6.2904891152895e-006 
-1.461270345595951e-005 
-7.255767954097157e-006 
-2.816877692031709e-006 
7.818236445673349e-006 
7.105777019389452e-006 
-1.709624143791471e-006 
4.928824844297233e-006 
1.157847267811767e-005 
-1.727178284747593e-005 
4.566642636332451e-006 
-3.573426357328921e-005 
-5.502541910049823e-005 
-6.145789287090937e-005 
2.903047140895035e-005 
-1.403913557554081e-005 
-5.236624025209272e-005 
3.667065018576381e-006 
1.562338436471882e-005 
2.473920500762797e-006 
-4.141812533816683e-006 
-3.192297611958277e-006 
7.110620569896847e-007 
7.171567751641375e-006 
1.439936842847588e-005 
1.306585045714692e-006 
-1.743648345610654e-005 
-2.235512391494252e-005 
-2.383484351349807e-005 
-1.221927341568276e-005 
-4.834450202069124e-006 
-3.657159112405127e-006 
9.000719184957242e-006 
4.445255502978711e-006 
-3.013145917316661e-005 
9.609753392089549e-006 
-3.546891259271735e-005 
-4.450874817222451e-005 
-7.892540687646818e-005 
-1.127075306271706e-005 
-4.868553969399748e-005 
-5.914034843714525e-005 
9.246089276474659e-006 
2.158254279909503e-006 
4.210925126170223e-006 
7.130014663304466e-006 
7.705730812531409e-007 
1.197212304584739e-005 
1.646856900973328e-005 
6.820514769585902e-006 
1.388418174205855e-005 
-8.015320217450323e-006 
-1.801800788766681e-005 
-9.10104134916366e-007 
-6.756444641518333e-007 
-1.169613017812372e-006 
-4.445951701203603e-006 
2.503847078744068e-006 
4.41876018767723e-006 
-2.364020638119722e-005 
1.90604155441032e-005 
9.659899555659349e-006 
-3.151450667535184e-005 
-0.0001001878974058932 
-8.704665862667967e-007 
-9.235377769500338e-005 
-0.0001184113832267911 
-3.52951614071633e-005 
-3.864755477377902e-005 
-1.466133787481246e-006 
1.398294243310342e-005 
7.999705485834959e-006 
1.1344848445223e-005 
1.256190239921706e-005 
-7.228417309547975e-006 
2.135399086755314e-005 
2.06381001785894e-006 
-9.724556479373638e-006 
9.418378445756682e-006 
-4.448875733748141e-006 
1.718555372447895e-006 
-1.966909170643413e-006 
2.795534243594425e-005 
4.553176173525333e-005 
-6.925779941189079e-006 
4.549993553068695e-005 
2.948081220356383e-005 
-5.045716526255964e-005 
-3.141922697543138e-005 
3.472030058718407e-005 
-4.23279569612065e-005 
8.324452120678588e-006 
3.389739428536599e-005 
1.21239937157623e-005 
-6.678559951531194e-006 
2.134185712706219e-005 
1.639298177388822e-005 
4.586882113298851e-006 
4.203495696541812e-007 
-1.37823378874463e-005 
2.024614057797728e-005 
4.118738535506093e-006 
8.476064202681447e-006 
2.830224806571713e-005 
6.404874483638633e-006 
8.914887889517448e-006 
1.027290209267353e-006 
-1.187913085438014e-005 
6.094996653740863e-005 
1.112395469415484e-005 
4.334569930910404e-005 
-5.399594083966694e-006 
-8.819339655995989e-005 
2.155917043011659e-005 
1.63539946732945e-005 
-6.584065961035992e-005 
-3.90067930578215e-005 
-3.09029462632321e-005 
1.923337107454334e-005 
-1.598212536431486e-006 
6.763525972034331e-006 
3.092522460642849e-006 
-1.843164909013977e-005 
-1.547220989302879e-005 
-1.282904360379565e-005 
3.784453984981489e-006 
-1.827818710999651e-005 
9.590488592638006e-006 
4.057055372780977e-005 
3.586524829645754e-005 
1.986900005386629e-005 
4.535015345544693e-006 
-1.720057171475866e-005 
8.288916174142518e-005 
3.445146861548793e-005 
2.040149223901662e-005 
-2.583740797894467e-005 
-8.508099266715202e-005 
-3.856838708992038e-005 
7.107069958949986e-007 
-1.956167826602277e-005 
4.266869626384465e-005 
3.907432428563569e-005 
1.779224074902447e-005 
2.190756791322863e-006 
-1.502733922732515e-005 
-8.762022650709835e-006 
-3.916353711531052e-005 
-7.596467473979647e-006 
4.100786566992903e-006 
-2.344755838668159e-005 
-2.171671014271996e-005 
5.887509691346305e-007 
1.356025065370691e-005 
3.6593968924137e-005 
1.816480625622903e-005 
5.74039306073846e-006 
1.709067185211563e-005 
1.955769999045203e-005 
-2.886616862787665e-005 
-6.054855853231587e-005 
-4.004213927511969e-005 
-7.834796017736775e-005 
-7.76911468806302e-005 
-7.525654168819587e-005 
-5.578447407940517e-005 
6.726955673849859e-005 
0.0001414426150749897 
5.786352089270014e-005 
1.32629740116796e-005 
-2.356501697290924e-005 
-1.428568920404055e-005 
-4.232338194430005e-005 
1.71986820338625e-006 
2.159636730670356e-005 
-2.065759372888624e-005 
-5.938003954028553e-006 
1.523699434990581e-005 
1.43973792906905e-005 
2.852164996344621e-005 
1.091340445957079e-005 
3.819860637561534e-006 
2.442412558242138e-005 
-8.908821019272006e-006 
-3.074083153372248e-005 
-9.837042221137748e-005 
8.819747429241979e-006 
-3.487595061889122e-005 
-9.903181052502119e-005 
-2.805818085944912e-005 
-4.4412274989633e-005 
2.298737136003042e-005 
0.0001306943090516067 
8.363280090249515e-005 
1.251505820437101e-005 
-2.195013546183603e-005 
-8.982558356976565e-006 
-2.690915541771558e-005 
6.849884388987286e-006 
3.15060528397639e-005 
-1.061413867975805e-006 
7.916062241959052e-007 
3.169333016225888e-006 
-1.187087593257077e-005 
-5.845121165139516e-006 
-5.705871574472929e-006 
1.04490402435703e-006 
3.362329109853851e-005 
-1.097636067047854e-005 
-2.770829152299809e-005 
-0.0001088854023725335 
-1.412884568966215e-005 
-5.313902028171892e-006 
-5.149728541054277e-005 
1.048385015481477e-006 
2.276975968630815e-005 
4.282096476131665e-005 
6.589536089945812e-005 
4.088006356721739e-005 
9.417513170820038e-006 
-3.963178014999266e-006 
8.838325976157594e-006 
-2.22495006985381e-006 
5.12572959367349e-006 
3.877217425603399e-005 
1.286027306702632e-005 
1.203905753232593e-005 
1.576162944080378e-005 
-1.59418453241606e-005 
-3.085480912882553e-005 
-2.27117763198639e-005 
-1.840986803138972e-006 
3.71083599554402e-005 
-1.159428632351154e-005 
-1.104021199338971e-005 
-8.997576347256312e-005 
-4.544662663803855e-006 
3.593248115360387e-005 
-5.697238716484315e-005 
-3.348365362600378e-005 
-4.299213006774997e-005 
-4.461357573351502e-006 
4.762254446148224e-005 
-2.245388460598759e-006 
6.08926793691893e-006 
6.187670583162429e-006 
1.023729652631496e-005 
2.05111931878812e-005 
1.522247364407244e-006 
2.897407935273433e-005 
2.032302075338284e-005 
9.160417112057683e-006 
8.946823496661992e-006 
-3.82341124850847e-006 
-2.992279861947863e-005 
-2.195361645296054e-005 
-3.96166627028235e-006 
5.783617024815101e-005 
1.084587323175652e-006 
5.475131591367104e-006 
-7.587068797943657e-005 
-7.731301178762662e-006 
8.010844657433188e-005 
-3.441924458336453e-005 
-1.234846791484416e-005 
2.231374984900637e-005 
1.284694584386423e-006 
2.870465063970263e-005 
-1.275634061773943e-005 
9.897183802079184e-007 
7.056217651466312e-006 
9.257874917853135e-006 
2.759510958300914e-005 
7.762152705814143e-006 
1.287300354885289e-005 
1.263032873903466e-005 
1.048086644813661e-005 
5.173250095366573e-006 
-2.935917642798687e-006 
-2.97856475691756e-005 
-1.797384902883107e-005 
-4.662916905145576e-006 
4.27640754206545e-005 
1.59990330354907e-005 
3.85389478506965e-006 
-1.232171401163063e-005 
1.323224183289521e-005 
6.72834807029963e-005 
-5.955936031163903e-006 
2.444232619315777e-005 
5.498354775011509e-007 
2.463845517879774e-005 
-3.243428398731894e-007 
6.829983065444286e-007 
-2.453243413483614e-006 
8.697932631264405e-006 
7.069037644493196e-006 
2.64839772160873e-005 
2.312064359165194e-006 
-8.429220007835345e-006 
4.072878963863806e-006 
3.716614440810595e-006 
1.849858357661833e-005 
1.225597300782331e-005 
-2.055246779692812e-005 
-7.284869039897505e-006 
-4.651807570614143e-006 
3.574401034843767e-005 
1.050801817890727e-005 
1.113399983997112e-005 
-9.736909025020933e-006 
1.579345564537016e-005 
4.337583474655274e-005 
-1.385384739083127e-005 
2.448996604311797e-005 
2.68650960157691e-005 
1.359148011693763e-005 
-5.905929107239041e-005 
-5.045338590076746e-005 
-5.772259048060488e-006 
3.889659482451046e-006 
3.436006773424883e-006 
2.124041110000706e-005 
-1.764643694935502e-006 
-9.526696943860391e-006 
1.783013382383626e-006 
-1.421746177800149e-005 
-6.749661681670131e-006 
8.166464852073568e-006 
1.63951698254522e-006 
-3.605660335141254e-006 
-3.64986892242166e-006 
3.58882228378789e-005 
2.718365643210012e-005 
2.147552718624084e-005 
9.377143619465442e-006 
-4.746739171422135e-006 
1.215273675676132e-005 
-4.689074067023527e-005 
-3.331984812937656e-005 
4.722531364573885e-005 
5.066503016113333e-005 
-1.125792312400128e-005 
-1.982116129012764e-005 
-4.906397315766871e-006 
-4.229563347219391e-006 
5.542802058826236e-006 
6.497856729416937e-006 
-7.248308687401931e-006 
-7.342931971853177e-006 
1.514609075311317e-006 
-1.648766473247308e-005 
-5.292140860799651e-006 
-5.70729380798948e-006 
6.840973051708703e-006 
2.632494565014512e-006 
-1.39269482044445e-006 
3.241280129923632e-005 
1.494061281988192e-005 
1.384439898635065e-005 
1.948191384082843e-005 
-7.56506893403719e-006 
6.004033382814734e-005 
-5.036745514843825e-006 
-5.455488855736301e-005 
-3.477231654027204e-005 
2.910377113634209e-005 
4.236903265647492e-005 
-2.053247696218492e-005 
-5.087637605083163e-006 
-4.90637742438901e-006 
1.531248212886157e-006 
-3.912773263517341e-006 
-1.267876424410874e-007 
6.06811345657123e-006 
1.363384875176652e-005 
-1.155261388690755e-005 
-5.867389562647013e-006 
-5.705404127093365e-006 
1.58977859222141e-005 
1.97861524651047e-005 
1.424501133632926e-006 
1.989764363797603e-005 
-7.365001455582132e-006 
3.021271545169989e-005 
5.558148256840556e-006 
-1.133002936872182e-005 
2.223657130293298e-005 
-2.791416728378658e-006 
-1.847381881119016e-005 
4.907819549283479e-006 
-1.165415937085197e-005 
-1.683357579335329e-005 
-1.114991294225434e-006 
-6.037689594143646e-006 
-1.114036508088438e-005 
-1.109938884250522e-006 
-1.773475466702658e-005 
2.27910434606119e-006 
4.979886011248296e-006 
1.108287899888647e-005 
-1.9292249552991e-006 
6.423691727088489e-006 
-1.314302900322028e-005 
3.779202661228054e-006 
1.410726354469057e-005 
4.65117104652283e-006 
1.830106219452857e-005 
3.250440109425382e-006 
1.44216467716723e-005 
-2.739122296000617e-005 
1.845124209732591e-005 
6.867448475632311e-005 
3.226560510311709e-005 
-4.069626723584685e-005 
1.868685546800601e-005 
1.622400451901896e-005 
2.321731568802207e-005 
3.912445055782758e-005 
-4.746560149021455e-006 
-1.761550585679215e-005 
-4.312430827358946e-006 
-2.905036278680427e-005 
-2.301482146146889e-006 
6.309177064783288e-006 
1.251883756616325e-005 
-3.447503989824479e-006 
2.708499519794452e-005 
-9.00788008098466e-006 
-2.547389304866369e-006 
9.512643685406554e-006 
7.66147249680638e-006 
1.275564441951458e-005 
-2.267298813304866e-005 
1.563720887232733e-005 
-5.586016077213933e-005 
-6.359353065419879e-006 
3.273504162047032e-005 
-1.012729720678261e-005 
-4.989523383818546e-005 
5.261418627704226e-005 
-8.610062469594539e-006 
1.721389893792086e-005 
2.088654348798526e-005 
-4.325111580740848e-006 
-2.063471864435423e-005 
-1.114265258933758e-005 
-3.179069845685394e-005 
-6.415755067324761e-006 
2.078002515957732e-005 
2.071955537090131e-005 
-9.533808111443151e-006 
1.855706422750897e-005 
-3.622408875294277e-006 
-9.998003250731842e-007 
-1.26519108840062e-005 
9.347177258728475e-006 
1.225100016335978e-005 
-6.54828137227673e-005 
-4.29999871620026e-007 
-9.506059639336887e-005 
-2.155787749055611e-005 
8.633693426485059e-005 
6.122526320690733e-005 
-5.60817507214324e-005 
7.679951586832686e-005 
-1.745766777352099e-005 
1.260834876650602e-005 
1.602996412805358e-005 
-3.498585048153427e-006 
-2.668716764086546e-005 
-3.601572656992258e-006 
-2.215074000749325e-005 
-1.228133451458707e-006 
2.597813947726138e-005 
2.419338559931551e-005 
1.550473229582004e-006 
2.246482486380713e-005 
-6.935417313759264e-006 
-2.632484619325579e-005 
-2.419796061622193e-005 
8.736641252568173e-006 
1.297116749856225e-006 
-7.617214181081334e-005 
-1.807479777143988e-005 
-0.0001195611048667496 
-2.340429463984925e-005 
0.0001173054226181116 
8.632678966214508e-005 
-5.845011762561317e-005 
6.863669113840059e-005 
-1.292531787260877e-005 
-1.652814368640584e-005 
-5.282712347696872e-005 
-2.277184828098282e-006 
-2.075705061815607e-005 
-6.344633445807984e-007 
-1.667643390830704e-005 
6.891119215278511e-006 
2.496914933561958e-005 
1.995682048709157e-005 
7.911556844875189e-006 
1.495453678437969e-005 
-3.887252625730727e-006 
-2.666041373765191e-005 
-9.412082824665907e-006 
6.430773057604492e-006 
6.537420679968459e-006 
-0.0001034351648405507 
1.326973708014994e-005 
-0.0001062945504070562 
2.083303568155812e-005 
0.0001562795938162522 
0.0001050055891221199 
-2.866655865111229e-005 
0.0001230003240976978 
-1.62954145655146e-005 
-9.153584423764871e-005 
-4.500871795458368e-005 
-1.533873874762878e-006 
-1.451404222180393e-005 
-5.089268698067245e-007 
-9.115512326552381e-006 
-9.718439880683537e-007 
-4.546870606745627e-006 
-6.561628486816724e-006 
-2.23921218777509e-006 
7.574527284206744e-006 
-6.593176212093081e-006 
-1.90249094346339e-005 
-9.931217949587271e-006 
2.497014390451238e-006 
4.226529912096647e-006 
-0.0001074820656649371 
5.614967977680366e-006 
-0.0001336253035783864 
6.900826207671236e-006 
0.0001226094585228678 
6.776634390040092e-005 
-2.404509537741435e-005 
0.0001042865158126998 
-2.862747209362918e-005 
-6.401612297670611e-005 
4.345460460285439e-006 
3.206858100547364e-006 
-1.199479921660088e-005 
2.15693150328222e-006 
2.502265714204736e-007 
-1.952119931209001e-006 
-2.494189814795972e-005 
-1.703487653723527e-005 
4.245536123636104e-006 
8.483961079689424e-006 
-1.553297805237261e-006 
-6.783964362779285e-006 
1.340201474287866e-007 
1.057535049294274e-007 
3.116959018336431e-006 
-0.0001223976153487229 
-1.481957378564064e-005 
-0.0001336064067694248 
-4.156959818052461e-005 
6.095056327874439e-005 
3.769724419680653e-005 
-8.448037251285183e-005 
9.684704103843246e-005 
-4.257252145192095e-005 
-5.877245740373648e-005 
-6.221237283290973e-005 
4.787247962421704e-006 
-4.535562358435649e-006 
4.797322945304718e-006 
7.324671686983251e-006 
-9.289144163839558e-006 
-4.389320948453404e-005 
-3.089876907388275e-005 
5.397803859959848e-006 
-9.206117552677158e-006 
4.883979732925487e-006 
1.267936098544466e-005 
-3.217131997208938e-006 
-7.700946936157545e-007 
1.904161819203123e-005 
-0.0001266653104672888 
6.75445550373293e-006 
-0.0001046535117341052 
-1.963607201919656e-006 
4.026024823328827e-005 
3.480633079640224e-005 
-9.315520130873909e-006 
0.0001241331380664805 
-7.553253455591938e-006 
-6.68296589172583e-005 
-4.355515551790615e-005 
6.079342139369814e-006 
6.081818615912642e-007 
1.732539011079228e-005 
1.606288435840185e-005 
-7.856388108397236e-006 
-3.200353619989132e-005 
-1.438375369686053e-005 
2.814868662868464e-005 
-2.074083914520507e-005 
5.829406976634896e-006 
1.923854283278533e-005 
-6.474573871638889e-006 
-7.055282756707188e-007 
2.306614121633197e-005 
-0.0001165217023306655 
3.668666274493639e-005 
-8.415683925205744e-005 
-2.118053805266666e-005 
-2.201169927629403e-005 
-3.300805078151575e-005 
-9.042282218983086e-006 
6.70462760220879e-005 
-2.412665002661554e-006 
-2.673222161170468e-005 
-3.714406497868811e-005 
2.039363514476431e-006 
8.403500456270201e-006 
2.848365743174523e-005 
1.89067546501814e-005 
-5.794239020589107e-006 
-1.417071704004472e-005 
-1.150437729561172e-005 
3.212736002703205e-005 
-3.402450018985274e-005 
4.497818468957792e-006 
3.114691401261081e-005 
-1.910676245450369e-007 
1.593548008324732e-007 
2.464869923839247e-005 
-0.0001073796250689893 
6.648862124395238e-005 
-7.80355660881714e-005 
-4.257570407237749e-005 
4.072968475064135e-006 
3.120022290525942e-005 
7.897941196734157e-005 
1.548324960773775e-005 
-1.956038532646228e-005 
1.615637383431546e-005 
-4.05616026077755e-005 
-5.710904093069977e-006 
9.418269043178478e-006 
2.621355393416288e-005 
2.383633536683707e-005 
9.853203965644092e-007 
2.345859810139046e-006 
-1.567052693023265e-006 
2.007825734888994e-005 
-3.878391016896782e-005 
-9.705948095391269e-006 
1.782406695359082e-005 
-1.120172998156383e-005 
-2.079743011519957e-006 
1.051020623047121e-005 
-9.002350277941264e-005 
9.773171006848692e-005 
-5.238135769926176e-005 
-5.023477965815249e-005 
8.1908417356336e-006 
-1.802158833568057e-005 
3.200880741502257e-005 
-1.895041622457086e-005 
-1.407991290014143e-005 
5.546889736975215e-005 
-6.466448243785573e-005 
-4.537939378089203e-006 
9.442715546560989e-006 
2.01841789359622e-005 
1.693412670840497e-005 
7.556147651069692e-006 
8.645091185995377e-006 
6.428704354307681e-006 
1.937658899509174e-005 
-2.272868399103976e-005 
-7.401492188255217e-006 
-5.853226901615014e-006 
-1.681527572572765e-005 
-3.185584271932571e-006 
-3.234944726077144e-006 
-9.282301529857805e-005 
0.0001073000595575736 
-1.359814372851877e-006 
1.749009071942291e-005 
3.688826185948628e-005 
1.94779355652577e-005 
7.055044060172932e-005 
-2.678801692658501e-005 
-5.024939982087506e-005 
-1.880998309692198e-005 
-8.580384533836469e-005 
-1.68528704298716e-006 
7.502261908463334e-006 
1.208968108896421e-005 
9.49804341406175e-006 
9.508814595169668e-006 
-1.918354317301914e-007 
-2.938881458098922e-006 
8.619839081809796e-006 
-8.840116200164423e-006 
-1.902630183108366e-006 
-2.033266807164193e-005 
-1.500108260855794e-005 
-3.209881589981167e-006 
1.431821160683178e-005 
-7.658647921151105e-005 
0.000117201987453271 
-3.782405173062546e-005 
-1.343264746477381e-005 
4.806134825694033e-006 
4.996644497090264e-006 
9.20553075703048e-005 
-2.546175930817279e-005 
-2.407562864242008e-005 
-3.851517765416102e-005 
-9.859947142736551e-005 
2.516915713994119e-006 
4.311068267975954e-006 
4.884297994971147e-006 
-7.349595583434258e-007 
4.268142674567122e-006 
-3.885154085367138e-006 
3.155528399995242e-006 
1.415977678222502e-005 
-1.169622963501307e-006 
6.182280019763993e-007 
-2.076729467775078e-005 
-8.066550461113169e-006 
-1.621274000603934e-022 
-1.323488980084844e-023 
1.116693826946587e-023 
9.529120656610879e-022 
-1.429368098491632e-021 
3.838118042246048e-022 
6.088049308390284e-022 
-1.323488980084844e-022 
-1.058791184067875e-022 
-5.293955920339377e-023 
-1.323488980084844e-022 
-1.138200522872966e-021 
-5.161607022330893e-022 
-3.970466940254533e-022 
-2.249931266144235e-022 
5.955700410381799e-023 
-6.617444900424221e-022 
3.970466940254533e-023 
-4.334426409777865e-022 
1.852884572118782e-022 
3.705769144237564e-022 
-8.735027268559972e-022 
3.308722450212111e-022 
-1.389663429089087e-022 
-2.713152409173931e-022 
3.308722450212111e-024 
2.812414082680294e-023 
-7.940933880509066e-023 
-3.441071348220595e-022 
-4.764560328305439e-022 
-3.176373552203626e-022 
1.356576204586965e-022 
4.802817431636017e-023 
6.617444900424221e-023 
1.257314531080602e-022 
1.376428539288238e-021 
2.646977960169689e-023 
-1.058791184067875e-022 
-2.646977960169689e-022 
2.117582368135751e-022 
1.687448449608177e-022 
-4.499862532288471e-022 
3.970466940254533e-022 
1.78671012311454e-022 
-4.367513634279986e-022 
-3.441071348220595e-022 
-1.323488980084844e-022 
3.705769144237564e-022 
7.940933880509066e-023 
-3.308722450212111e-023 
-1.323488980084844e-022 
0 
5.823351512373315e-022 
-1.641126335305207e-021 
0 
-3.639594695233322e-022 
2.646977960169689e-023 
2.223461486542538e-021 
9.529120656610879e-022 
-3.441071348220595e-022 
3.388131789017201e-021 
9.132073962585426e-022 
-2.170521927339145e-021 
1.919059021123024e-022 
-9.926167350636332e-024 
-1.720535674110298e-022 
0 
-4.102815838263017e-022 
-3.143286327701505e-023 
3.57342024622908e-022 
1.058791184067875e-022 
3.705769144237564e-022 
1.985233470127266e-022 
-7.940933880509066e-023 
1.720535674110298e-022 
5.955700410381799e-023 
-7.146840492458159e-022 
-6.352747104407253e-022 
-5.029258124322408e-022 
-2.31080658934931e-022 
-9.26442286059391e-023 
-3.176373552203626e-022 
-1.005851624864482e-021 
4.235164736271502e-022 
-9.793818452627848e-022 
2.223461486542538e-021 
-6.28657265540301e-023 
4.235164736271502e-022 
1.852884572118782e-022 
-2.051407919131509e-022 
-3.308722450212111e-022 
9.793818452627848e-022 
-1.588186776101813e-022 
-6.948317145445433e-023 
8.602678370551488e-023 
6.617444900424221e-023 
-1.164670302474663e-021 
2.646977960169689e-023 
-1.171287747375087e-021 
5.293955920339377e-022 
3.970466940254533e-023 
1.240770918829542e-022 
-1.720535674110298e-022 
-6.121136532892405e-023 
7.411538288475128e-022 
-4.929996450816045e-022 
1.522012327097571e-022 
-1.111730743271269e-021 
-6.88214269644119e-022 
1.323488980084844e-021 
-9.793818452627848e-022 
5.823351512373315e-022 
3.970466940254533e-022 
2.117582368135751e-022 
6.352747104407253e-022 
5.823351512373315e-022 
-2.779326858178173e-022 
-2.08449514363363e-022 
-2.249931266144235e-022 
3.308722450212111e-023 
-2.38228016415272e-022 
9.26442286059391e-022 
2.514629062161204e-022 
-3.242548001207869e-022 
-9.26442286059391e-023 
9.098986738083304e-023 
-1.852884572118782e-022 
5.293955920339377e-023 
-2.646977960169689e-022 
9.529120656610879e-022 
1.257314531080602e-022 
1.323488980084844e-023 
4.764560328305439e-022 
-1.852884572118782e-022 
-1.058791184067875e-022 
1.588186776101813e-022 
1.058791184067875e-021 
9.926167350636332e-023 
-6.617444900424221e-023 
-5.293955920339377e-023 
-5.293955920339377e-023 
4.896909226313924e-022 
3.308722450212111e-023 
2.38228016415272e-022 
-1.323488980084844e-023 
-1.588186776101813e-022 
5.558653716356346e-022 
1.555099551599692e-022 
4.963083675318166e-024 
-2.812414082680294e-023 
-1.985233470127266e-023 
1.323488980084844e-022 
-1.654361225106055e-024 
-8.470329472543003e-022 
-1.217609861678057e-021 
4.963083675318166e-023 
1.058791184067875e-022 
1.058791184067875e-022 
1.323488980084844e-023 
7.411538288475128e-022 
1.588186776101813e-022 
1.19114008207636e-022 
4.367513634279986e-022 
-1.985233470127266e-023 
-1.158052857574239e-022 
-4.102815838263017e-022 
-1.985233470127266e-023 
-1.124965633072118e-022 
-7.940933880509066e-023 
1.19114008207636e-022 
-1.005851624864482e-021 
-3.970466940254533e-023 
3.308722450212111e-024 
-1.058791184067875e-022 
-3.57342024622908e-022 
-6.203854594147708e-025 
2.38228016415272e-022 
-1.257314531080602e-022 
-1.482307657695026e-021 
-4.235164736271502e-022 
2.38228016415272e-022 
3.705769144237564e-022 
-7.411538288475128e-022 
1.058791184067875e-022 
-5.293955920339377e-022 
-2.117582368135751e-021 
2.646977960169689e-023 
1.323488980084844e-023 
5.293955920339377e-023 
1.985233470127266e-023 
-1.985233470127266e-023 
-5.293955920339377e-023 
3.308722450212111e-023 
6.617444900424221e-024 
2.514629062161204e-022 
4.102815838263017e-022 
-1.985233470127266e-022 
4.301339185275744e-023 
-3.838118042246048e-022 
1.323488980084844e-022 
-7.610061635487855e-023 
-2.38228016415272e-022 
-2.117582368135751e-022 
1.058791184067875e-022 
1.058791184067875e-022 
-6.617444900424221e-023 
-3.705769144237564e-022 
1.323488980084844e-022 
-5.823351512373315e-022 
-1.376428539288238e-021 
0 
2.646977960169689e-023 
7.411538288475128e-022 
6.617444900424221e-023 
1.819797347616661e-023 
-1.323488980084844e-023 
7.237830359838992e-025 
2.911675756186657e-022 
1.323488980084844e-023 
-3.441071348220595e-022 
3.044024654195142e-022 
4.764560328305439e-022 
2.117582368135751e-022 
8.602678370551488e-023 
-2.249931266144235e-022 
-3.970466940254533e-023 
-3.176373552203626e-022 
1.985233470127266e-023 
1.19114008207636e-022 
1.005851624864482e-021 
-1.588186776101813e-022 
-3.970466940254533e-022 
-5.823351512373315e-022 
-2.064642808932357e-021 
1.270549420881451e-021 
2.646977960169689e-022 
1.389663429089087e-022 
-2.646977960169689e-022 
2.580803511165446e-022 
9.926167350636332e-023 
8.470329472543003e-022 
-3.308722450212111e-024 
3.639594695233322e-023 
5.293955920339377e-022 
9.512577044359818e-024 
8.602678370551488e-023 
-2.38228016415272e-022 
-1.323488980084844e-022 
-1.323488980084844e-022 
-2.779326858178173e-022 
-6.28657265540301e-023 
-5.823351512373315e-022 
-1.257314531080602e-022 
3.308722450212111e-023 
-8.470329472543003e-022 
8.470329472543003e-022 
6.617444900424221e-023 
7.543887186483612e-022 
3.176373552203626e-022 
6.88214269644119e-022 
-2.646977960169689e-023 
-6.617444900424221e-024 
1.588186776101813e-022 
5.624828165360588e-023 
-2.249931266144235e-022 
-2.38228016415272e-022 
7.940933880509066e-023 
-2.150669592637872e-023 
2.646977960169689e-022 
-2.38228016415272e-022 
-2.316105715148478e-023 
-5.558653716356346e-022 
1.290401755582723e-022 
1.323488980084844e-023 
5.293955920339377e-023 
-3.308722450212111e-024 
1.852884572118782e-021 
-7.676236084492097e-022 
-1.588186776101813e-022 
-3.176373552203626e-022 
-7.146840492458159e-022 
1.535247216898419e-021 
-8.205631676526035e-022 
2.170521927339145e-021 
2.170521927339145e-021 
-1.720535674110298e-022 
3.970466940254533e-023 
-1.111730743271269e-021 
-1.406207041340147e-023 
2.9778502051909e-023 
-1.19114008207636e-022 
5.293955920339377e-022 
8.999725064576941e-022 
-9.26442286059391e-023 
-7.411538288475128e-022 
-4.963083675318166e-023 
-4.764560328305439e-022 
-7.279189390466644e-023 
1.720535674110298e-022 
5.293955920339377e-023 
6.617444900424221e-024 
1.111730743271269e-021 
7.279189390466644e-023 
7.676236084492097e-022 
7.411538288475128e-022 
3.705769144237564e-022 
-9.529120656610879e-022 
-7.940933880509066e-023 
6.352747104407253e-022 
1.005851624864482e-021 
1.852884572118782e-022 
-4.235164736271502e-022 
2.752857078576476e-021 
3.970466940254533e-023 
-5.955700410381799e-023 
-4.16899028726726e-022 
7.411538288475128e-022 
-3.441071348220595e-022 
9.926167350636332e-024 
-1.654361225106055e-023 
-1.455837878093329e-022 
-1.058791184067875e-022 
6.88214269644119e-022 
5.955700410381799e-023 
4.632211430296955e-023 
-1.356576204586965e-022 
-8.999725064576941e-022 
1.852884572118782e-022 
-8.205631676526035e-022 
-3.838118042246048e-022 
7.676236084492097e-022 
2.117582368135751e-022 
-2.117582368135751e-022 
5.293955920339377e-023 
-3.970466940254533e-022 
1.058791184067875e-021 
-1.508777437296723e-021 
-2.699917519373082e-021 
1.323488980084844e-022 
2.481541837659083e-024 
-1.124965633072118e-022 
-5.293955920339377e-023 
-5.426304818347862e-022 
1.323488980084844e-022 
1.19114008207636e-022 
-5.955700410381799e-023 
7.411538288475128e-022 
2.249931266144235e-022 
-9.926167350636332e-024 
2.779326858178173e-022 
-1.422750653591208e-022 
-3.970466940254533e-022 
-5.823351512373315e-022 
-1.058791184067875e-022 
2.38228016415272e-022 
-9.26442286059391e-022 
-2.514629062161204e-022 
-2.067951531382569e-025 
-1.323488980084844e-022 
3.441071348220595e-022 
-1.058791184067875e-022 
5.955700410381799e-023 
7.411538288475128e-022 
-3.308722450212111e-023 
-7.610061635487855e-023 
-3.044024654195142e-022 
2.514629062161204e-022 
1.522012327097571e-022 
1.522012327097571e-022 
-5.293955920339377e-023 
9.26442286059391e-023 
1.323488980084844e-023 
-1.819797347616661e-023 
2.514629062161204e-022 
-2.646977960169689e-023 
3.970466940254533e-023 
5.029258124322408e-022 
-3.970466940254533e-022 
4.764560328305439e-022 
-2.38228016415272e-022 
-8.470329472543003e-022 
-1.819797347616661e-023 
-8.602678370551488e-022 
0 
1.482307657695026e-021 
-3.308722450212111e-022 
-1.852884572118782e-022 
-1.164670302474663e-021 
1.406207041340147e-023 
3.308722450212111e-023 
-1.19114008207636e-022 
2.051407919131509e-022 
3.308722450212111e-023 
8.106370003019671e-023 
-2.051407919131509e-022 
-2.646977960169689e-022 
3.060568266446202e-023 
2.646977960169689e-022 
-1.058791184067875e-022 
1.323488980084844e-023 
-2.150669592637872e-023 
4.235164736271502e-022 
3.176373552203626e-022 
1.588186776101813e-021 
8.470329472543003e-022 
-1.720535674110298e-022 
2.646977960169689e-023 
-6.88214269644119e-022 
7.940933880509066e-023 
1.257314531080602e-022 
-9.529120656610879e-022 
1.058791184067875e-022 
-2.117582368135751e-022 
1.240770918829542e-023 
3.308722450212111e-023 
-6.617444900424221e-023 
-4.632211430296955e-023 
6.617444900424221e-024 
6.28657265540301e-023 
1.158052857574239e-023 
1.985233470127266e-023 
1.058791184067875e-022 
-6.088049308390284e-022 
1.522012327097571e-022 
5.293955920339377e-023 
-2.729696021424991e-023 
-3.441071348220595e-022 
9.793818452627848e-022 
-1.588186776101813e-022 
-1.005851624864482e-021 
1.588186776101813e-022 
-2.646977960169689e-023 
-3.176373552203626e-022 
-4.764560328305439e-022 
-1.535247216898419e-021 
-6.617444900424221e-023 
-8.470329472543003e-022 
2.38228016415272e-022 
-5.624828165360588e-023 
3.308722450212111e-023 
-1.819797347616661e-023 
-1.985233470127266e-022 
1.323488980084844e-023 
6.617444900424221e-024 
1.530284133223101e-023 
4.135903062765138e-023 
3.308722450212111e-022 
-1.323488980084844e-023 
1.550963648536927e-025 
1.654361225106055e-024 
-3.226004388956808e-023 
2.646977960169689e-022 
-1.058791184067875e-022 
-1.164670302474663e-021 
2.011703249728963e-021 
-3.176373552203626e-022 
-2.779326858178173e-022 
-1.654361225106055e-023 
5.293955920339377e-023 
-3.705769144237564e-022 
6.617444900424221e-023 
-1.058791184067875e-022 
-2.646977960169689e-022 
-5.955700410381799e-023 
-1.323488980084844e-023 
1.158052857574239e-023 
1.985233470127266e-022 
-7.940933880509066e-023 
1.058791184067875e-022 
0 
9.926167350636332e-024 
-2.713152409173931e-022 
-7.940933880509066e-023 
9.926167350636332e-024 
-1.257314531080602e-022 
1.819797347616661e-023 
3.838118042246048e-022 
1.985233470127266e-022 
-2.964615315390051e-021 
2.435219723356114e-021 
-1.588186776101813e-022 
-3.044024654195142e-022 
-1.455837878093329e-022 
2.117582368135751e-022 
-1.164670302474663e-021 
2.646977960169689e-022 
2.646977960169689e-023 
1.720535674110298e-022 
5.955700410381799e-023 
-6.28657265540301e-023 
-6.617444900424221e-023 
-2.646977960169689e-023 
-1.124965633072118e-022 
-3.970466940254533e-022 
-3.308722450212111e-023 
3.970466940254533e-023 
3.308722450212111e-023 
2.316105715148478e-023 
-2.316105715148478e-023 
-6.617444900424221e-024 
2.481541837659083e-023 
-2.514629062161204e-022 
-1.058791184067875e-022 
1.588186776101813e-021 
2.117582368135751e-022 
1.058791184067875e-022 
-5.823351512373315e-022 
-9.098986738083304e-024 
3.308722450212111e-023 
4.499862532288471e-022 
-9.26442286059391e-022 
1.588186776101813e-022 
-5.029258124322408e-022 
-1.323488980084844e-023 
-6.121136532892405e-023 
-3.970466940254533e-022 
-6.28657265540301e-023 
3.970466940254533e-023 
2.779326858178173e-022 
1.654361225106055e-024 
-2.38228016415272e-022 
-3.970466940254533e-023 
-1.985233470127266e-022 
-1.985233470127266e-023 
8.602678370551488e-023 
-9.098986738083304e-024 
1.323488980084844e-023 
1.654361225106055e-024 
-7.146840492458159e-022 
-1.323488980084844e-021 
7.940933880509066e-022 
-5.293955920339377e-022 
3.044024654195142e-022 
-2.316105715148478e-023 
4.235164736271502e-022 
0 
7.146840492458159e-022 
-4.235164736271502e-022 
-2.481541837659083e-024 
-3.308722450212111e-023 
-5.823351512373315e-022 
-6.485096002415737e-022 
-1.058791184067875e-022 
2.117582368135751e-022 
7.940933880509066e-023 
-5.558653716356346e-022 
3.705769144237564e-022 
-4.963083675318166e-024 
-9.926167350636332e-024 
1.720535674110298e-022 
-6.617444900424221e-024 
7.940933880509066e-023 
-9.595295105615121e-023 
-9.26442286059391e-023 
8.735027268559972e-022 
-1.588186776101813e-022 
-1.429368098491632e-021 
1.985233470127266e-022 
-3.176373552203626e-022 
1.852884572118782e-022 
2.011703249728963e-021 
1.058791184067875e-022 
-2.646977960169689e-022 
-2.150669592637872e-023 
2.646977960169689e-023 
-4.632211430296955e-022 
-1.19114008207636e-022 
1.323488980084844e-022 
-4.632211430296955e-023 
-2.911675756186657e-022 
4.764560328305439e-022 
-2.249931266144235e-022 
0 
1.19114008207636e-022 
-2.249931266144235e-022 
-5.707546226615891e-023 
8.205631676526035e-022 
-4.632211430296955e-023 
-5.293955920339377e-023 
2.067951531382569e-025 
-5.293955920339377e-023 
-7.940933880509066e-022 
6.352747104407253e-022 
-1.588186776101813e-021 
5.029258124322408e-022 
1.058791184067875e-022 
-4.499862532288471e-022 
-1.270549420881451e-021 
7.940933880509066e-023 
-3.308722450212111e-024 
-1.025703959565754e-022 
1.323488980084844e-023 
-2.117582368135751e-022 
2.9778502051909e-023 
-8.735027268559972e-022 
-7.940933880509066e-023 
2.481541837659083e-023 
2.316105715148478e-023 
9.926167350636332e-023 
-5.293955920339377e-023 
3.143286327701505e-023 
-3.57342024622908e-022 
-5.955700410381799e-023 
6.617444900424221e-024 
0 
4.342698215903395e-024 
1.799945012915388e-021 
-1.270549420881451e-021 
-2.011703249728963e-021 
6.749793798432706e-022 
1.124965633072118e-022 
-3.044024654195142e-022 
3.705769144237564e-022 
-2.68833699079734e-023 
1.323488980084844e-023 
1.19114008207636e-022 
-2.117582368135751e-022 
9.926167350636332e-023 
-2.117582368135751e-022 
-1.240770918829542e-024 
2.646977960169689e-022 
-2.117582368135751e-022 
6.617444900424221e-023 
1.356576204586965e-022 
1.124965633072118e-022 
-7.279189390466644e-023 
-2.911675756186657e-022 
2.646977960169689e-022 
7.411538288475128e-022 
-1.270549420881451e-021 
-5.624828165360588e-023 
1.138200522872966e-021 
-7.940933880509066e-022 
-5.823351512373315e-022 
2.646977960169689e-023 
-1.138200522872966e-021 
-1.389663429089087e-022 
-1.852884572118782e-021 
-2.713152409173931e-022 
1.852884572118782e-022 
-1.323488980084844e-023 
-1.058791184067875e-022 
6.617444900424221e-023 
2.316105715148478e-022 
1.323488980084844e-023 
-6.617444900424221e-022 
-1.819797347616661e-023 
3.838118042246048e-022 
4.632211430296955e-023 
2.051407919131509e-022 
1.158052857574239e-022 
-9.926167350636332e-023 
1.561716996500116e-021 
-7.014491594449675e-022 
7.411538288475128e-022 
-2.646977960169689e-023 
-4.632211430296955e-023 
2.067951531382569e-024 
3.970466940254533e-023 
6.088049308390284e-022 
5.293955920339377e-023 
-2.911675756186657e-022 
-1.058791184067875e-022 
-2.514629062161204e-022 
-9.26442286059391e-023 
-1.588186776101813e-022 
1.058791184067875e-022 
4.764560328305439e-022 
-1.124965633072118e-022 
-2.646977960169689e-022 
-1.852884572118782e-022 
-1.389663429089087e-022 
-1.422750653591208e-022 
3.308722450212111e-024 
1.290401755582723e-022 
-1.158052857574239e-023 
1.654361225106055e-024 
1.323488980084844e-022 
3.970466940254533e-022 
1.217609861678057e-021 
1.641126335305207e-021 
6.88214269644119e-022 
6.220398206398768e-022 
5.293955920339377e-023 
1.852884572118782e-022 
7.411538288475128e-022 
1.323488980084844e-023 
7.940933880509066e-023 
-4.632211430296955e-023 
-1.292469707114106e-026 
1.158052857574239e-022 
3.474158572722716e-023 
5.293955920339377e-023 
-2.895132143935597e-024 
1.522012327097571e-022 
-5.459392042849983e-023 
2.779326858178173e-022 
-3.308722450212111e-024 
-7.279189390466644e-023 
9.26442286059391e-023 
-3.101927297073854e-025 
2.646977960169689e-023 
5.293955920339377e-022 
7.411538288475128e-022 
-1.694065894508601e-021 
1.508777437296723e-021 
7.146840492458159e-022 
-7.146840492458159e-022 
-7.146840492458159e-022 
-3.308722450212111e-023 
-1.852884572118782e-022 
-3.176373552203626e-022 
-6.352747104407253e-022 
-1.902515408871964e-023 
7.279189390466644e-023 
-2.646977960169689e-023 
-4.963083675318166e-023 
-3.308722450212111e-023 
1.654361225106055e-024 
1.19114008207636e-022 
6.617444900424221e-023 
-2.448454613156962e-022 
1.654361225106055e-022 
2.38228016415272e-022 
-1.19114008207636e-022 
2.605618929542037e-023 
-3.639594695233322e-023 
-3.970466940254533e-022 
9.529120656610879e-022 
-2.117582368135751e-022 
-6.88214269644119e-022 
5.69100261436483e-022 
6.617444900424221e-023 
1.535247216898419e-021 
-6.617444900424221e-023 
-1.588186776101813e-021 
-1.588186776101813e-022 
-6.352747104407253e-022 
-8.271806125530277e-025 
5.790264287871194e-024 
-1.78671012311454e-022 
-9.26442286059391e-023 
-6.617444900424221e-024 
-6.617444900424221e-023 
3.970466940254533e-023 
-2.646977960169689e-023 
-1.588186776101813e-022 
7.444625512977249e-024 
9.26442286059391e-023 
1.323488980084844e-023 
-1.447566071967798e-024 
-3.308722450212111e-024 
-9.26442286059391e-023 
5.955700410381799e-023 
-1.588186776101813e-022 
1.058791184067875e-022 
-7.940933880509066e-023 
-2.117582368135751e-022 
-8.470329472543003e-022 
7.940933880509066e-023 
-1.270549420881451e-021 
-1.852884572118782e-022 
1.164670302474663e-021 
-1.091878408569997e-022 
-1.588186776101813e-022 
-7.940933880509066e-023 
-4.102815838263017e-022 
-1.058791184067875e-022 
-7.940933880509066e-023 
9.26442286059391e-023 
-2.646977960169689e-023 
2.9778502051909e-023 
1.058791184067875e-022 
-7.940933880509066e-023 
-1.19114008207636e-022 
-8.602678370551488e-023 
-9.512577044359818e-024 
-1.588186776101813e-022 
-1.323488980084844e-023 
-1.376428539288238e-021 
-1.138200522872966e-021 
-5.293955920339377e-022 
-4.235164736271502e-022 
6.617444900424221e-023 
-7.940933880509066e-023 
3.705769144237564e-022 
5.558653716356346e-022 
1.058791184067875e-022 
2.646977960169689e-022 
1.323488980084844e-022 
-2.646977960169689e-023 
-8.205631676526035e-022 
-1.323488980084844e-022 
4.499862532288471e-022 
-5.293955920339377e-023 
-2.646977960169689e-022 
4.135903062765138e-024 
-6.617444900424221e-022 
3.970466940254533e-023 
1.058791184067875e-022 
-1.19114008207636e-022 
1.482307657695026e-021 
-2.646977960169689e-023 
1.376428539288238e-021 
3.308722450212111e-023 
-5.293955920339377e-023 
-3.176373552203626e-022 
1.005851624864482e-021 
-2.646977960169689e-023 
1.588186776101813e-022 
1.058791184067875e-022 
2.38228016415272e-022 
1.455837878093329e-022 
-1.323488980084844e-023 
-2.911675756186657e-022 
3.441071348220595e-022 
-1.111730743271269e-021 
-7.411538288475128e-022 
-2.051407919131509e-022 
-2.812414082680294e-023 
0 
-5.293955920339377e-023 
6.617444900424221e-023 
-2.150669592637872e-023 
-9.595295105615121e-023 
3.970466940254533e-023 
-7.940933880509066e-022 
4.301339185275744e-023 
3.705769144237564e-021 
5.293955920339377e-022 
0 
-1.058791184067875e-022 
7.940933880509066e-022 
1.323488980084844e-023 
4.764560328305439e-022 
1.641126335305207e-021 
5.293955920339377e-023 
2.646977960169689e-022 
-3.838118042246048e-022 
9.26442286059391e-023 
-2.514629062161204e-022 
1.641126335305207e-021 
1.852884572118782e-022 
-5.790264287871194e-024 
2.38228016415272e-022 
7.940933880509066e-023 
7.676236084492097e-022 
1.78671012311454e-022 
-1.058791184067875e-022 
9.926167350636332e-024 
-2.911675756186657e-022 
1.455837878093329e-022 
1.852884572118782e-022 
1.535247216898419e-021 
1.429368098491632e-021 
1.799945012915388e-021 
2.646977960169689e-022 
-1.323488980084844e-022 
3.705769144237564e-022 
-1.799945012915388e-021 
-2.117582368135751e-022 
-9.26442286059391e-023 
4.764560328305439e-022 
9.26442286059391e-022 
-8.602678370551488e-023 
-6.617444900424221e-023 
9.793818452627848e-022 
-2.646977960169689e-023 
2.316105715148478e-023 
-5.69100261436483e-022 
-2.911675756186657e-022 
-2.646977960169689e-023 
8.735027268559972e-022 
-2.38228016415272e-022 
-2.646977960169689e-023 
1.058791184067875e-022 
-1.111730743271269e-021 
-1.323488980084844e-022 
1.376428539288238e-021 
-2.964615315390051e-021 
-1.852884572118782e-022 
-6.352747104407253e-022 
-1.244079641279754e-021 
-1.852884572118782e-022 
-1.111730743271269e-021 
-7.940933880509066e-023 
-1.058791184067875e-022 
-1.058791184067875e-022 
5.293955920339377e-023 
-1.19114008207636e-022 
-5.293955920339377e-022 
1.058791184067875e-022 
-1.323488980084844e-022 
-2.481541837659083e-024 
-5.955700410381799e-023 
1.058791184067875e-022 
7.940933880509066e-022 
2.514629062161204e-022 
5.029258124322408e-022 
-7.279189390466644e-022 
1.013296250377459e-023 
-1.270549420881451e-021 
-1.058791184067875e-022 
-8.999725064576941e-022 
-7.411538288475128e-022 
-1.005851624864482e-021 
-5.293955920339377e-022 
-2.316105715148478e-023 
-1.058791184067875e-022 
-1.376428539288238e-021 
7.940933880509066e-022 
1.429368098491632e-021 
5.293955920339377e-023 
2.646977960169689e-023 
0 
1.323488980084844e-023 
1.058791184067875e-022 
1.852884572118782e-022 
-1.091878408569997e-022 
2.38228016415272e-022 
5.823351512373315e-022 
-1.389663429089087e-022 
8.271806125530277e-024 
3.242548001207869e-022 
-1.058791184067875e-022 
1.902515408871964e-023 
-2.646977960169689e-023 
5.955700410381799e-023 
1.588186776101813e-022 
-2.223461486542538e-021 
8.205631676526035e-022 
-5.293955920339377e-023 
-4.499862532288471e-022 
2.488159282559507e-021 
0 
2.117582368135751e-022 
1.694065894508601e-021 
-3.176373552203626e-022 
5.823351512373315e-022 
1.588186776101813e-022 
7.940933880509066e-023 
1.058791184067875e-022 
-7.676236084492097e-022 
2.183756817139993e-022 
-3.308722450212111e-023 
-2.911675756186657e-022 
7.676236084492097e-022 
2.514629062161204e-022 
-3.308722450212111e-023 
-2.9778502051909e-023 
-3.639594695233322e-023 
-8.470329472543003e-022 
-1.323488980084844e-022 
-7.610061635487855e-023 
6.617444900424221e-022 
-7.940933880509066e-023 
1.323488980084844e-022 
-2.117582368135751e-022 
1.588186776101813e-022 
-2.117582368135751e-022 
3.176373552203626e-022 
-8.470329472543003e-022 
4.714929491552258e-023 
2.329340604949326e-021 
-1.588186776101813e-022 
1.058791184067875e-022 
2.117582368135751e-022 
-8.999725064576941e-022 
9.26442286059391e-023 
3.838118042246048e-022 
5.293955920339377e-023 
-1.058791184067875e-022 
7.940933880509066e-023 
-7.411538288475128e-022 
6.088049308390284e-022 
9.926167350636332e-023 
2.329340604949326e-021 
1.058791184067875e-022 
2.895132143935597e-024 
4.235164736271502e-022 
-1.164670302474663e-021 
7.940933880509066e-022 
-4.764560328305439e-022 
7.940933880509066e-023 
3.176373552203626e-022 
2.38228016415272e-022 
-1.323488980084844e-022 
-1.005851624864482e-021 
-1.111730743271269e-021 
-4.235164736271502e-022 
-3.308722450212111e-024 
2.646977960169689e-022 
3.441071348220595e-022 
-1.058791184067875e-022 
-6.617444900424221e-024 
4.499862532288471e-022 
7.940933880509066e-022 
3.970466940254533e-023 
-2.779326858178173e-022 
-5.161607022330893e-022 
-1.919059021123024e-022 
8.470329472543003e-022 
2.064642808932357e-021 
4.632211430296955e-023 
-2.646977960169689e-022 
6.88214269644119e-022 
-4.499862532288471e-022 
-1.535247216898419e-021 
-1.323488980084844e-021 
-9.926167350636332e-024 
7.940933880509066e-023 
5.823351512373315e-022 
