solver_type L2R_L2LOSS_SVC_DUAL
nr_class 2
label 2 1
nr_feature 5506
bias -1
w
-0.000168982484702358 
-0.003375364533553709 
0.003929352630105723 
-0.0002793187483199355 
-0.007901714881326138 
-9.233020803715253e-005 
-0.0007901714881326224 
8.978944077452e-005 
0.0009417615664070565 
0.002395548815580826 
0.001429313632053189 
-0.0013717730518407 
-0.006032554037513563 
-0.002583504709823389 
0.001557507345364201 
-0.002887291468078628 
-0.002289339410021401 
0.001132865228315577 
-0.0008503968132652498 
0.0001513006763008217 
-0.0003540511997321952 
-0.0004945187645806163 
-0.0004468114439994481 
0.0003127989323557721 
0.0005813995899869353 
3.030136496331255e-005 
-0.0009489902013782287 
0.0005161230036841591 
0.000278251033851209 
-0.000323043469799498 
0.0006910305130090706 
0.000141365978311915 
0.0003424947449447278 
-0.0001223685296988682 
0.0006018525755310252 
-0.000662215228393218 
-0.001541960015572089 
-0.005540996339236983 
-0.00215774190588861 
0.001857615834252915 
0.0003334346277167886 
-0.002894329334119398 
0.001461990736177498 
0.002018711164488492 
0.0001481707287349218 
-0.0003409447003193526 
-0.000703258648173474 
-0.0005164501917335407 
0.0006534440023639199 
0.000942304706203204 
-4.381202261343906e-005 
-0.0007239901480643144 
0.00090914887188523 
0.0008283238224503449 
-8.385189193206547e-005 
0.0004459990559367631 
0.0001552237306267054 
0.000719930683685078 
-0.0002964279158413112 
0.0008197902633176732 
0.0002410441150537231 
0.0002772972707477925 
-0.003371338149405789 
-0.002644871447687242 
-0.003337514648489049 
-0.001917030656373678 
-0.0005955923988963078 
-0.0006469184712894538 
0.001170214255860814 
7.746476263416112e-005 
-6.0063581182993e-005 
-0.0008871292955891819 
-0.0006115231191963623 
0.000839519002042954 
0.001427290506819395 
-6.201208958540737e-005 
0.0001298325971711922 
0.0009512552086503577 
0.0009429666684540582 
0.0005752670312429159 
1.682520384902329e-005 
9.8303741140129e-005 
0.0005155680222154213 
-0.00014386132286798 
-0.0003328743179922113 
-0.000558786873627942 
0.00107090026611339 
-0.002651636702781591 
-0.002771870222532017 
0.0003850472149750298 
0.001173326557542662 
0.001005405417102488 
0.001603492878619614 
0.0003693008687169033 
-0.0001623371173938917 
2.338502945217497e-005 
-0.0002296435583313039 
0.0002990544728065338 
0.0008662292075549958 
0.001161019972647083 
0.0001844996409157267 
-0.0003708997891367345 
0.0004353812705319706 
0.0007675205710891187 
0.0006681995489041191 
-0.00035966754101351 
-9.344526622541132e-005 
0.0003905701143348029 
0.0006521923231293127 
-0.001572731205094832 
-0.001680013072140316 
0.001519376569165678 
-0.0003407791607388109 
-0.0025864963168493 
0.00294293553455979 
0.001449034114844084 
0.0004756284745246809 
0.003938454132342913 
5.843154560327061e-005 
-0.000125100374843518 
-8.123313331397457e-005 
6.749408511301238e-005 
0.0001264823265698864 
-0.0001053141192271413 
0.000319136199063809 
0.0002690293811869372 
-0.0006013166510549959 
0.0007846358313776947 
-4.182507197310745e-005 
0.0004819968572312066 
-5.38805647112395e-005 
-7.236604556411718e-005 
-0.0003045134805904398 
-0.0004797519557265894 
0.0006498999466701886 
0.001793597073868867 
0.002168148276770084 
-0.001251170196623748 
-0.001264432310998575 
-0.003137128455036383 
0.0008272901047703912 
0.0004076535326056401 
0.002510314121578483 
0.0007762552993744413 
4.471457189382932e-005 
-0.000432515384630131 
0.000196566824902455 
-0.0003455039934270645 
-0.0004810989753220632 
-0.0003102944844195902 
0.000172429591444431 
-0.00100928211059066 
0.0004318201538452901 
-0.0005855699410769701 
9.374633079070484e-006 
0.0002622011558495985 
5.308833368380818e-005 
0.0005044752938760671 
-0.0005346471341037641 
0.0006658836812107142 
-0.0003027256161221367 
-0.0007979025283513004 
-0.002475896628243582 
-0.002053448392816812 
-0.004582991736707569 
0.00217915568248753 
-0.0005058360684363555 
0.001309657378324428 
0.0006973428350569548 
-3.917649705813782e-005 
-0.0006319844769911093 
0.0003340637683204463 
-0.0007225448398609741 
-0.0002809970307698318 
-0.0009131868945221216 
0.0003389669789562027 
-0.0002056613525584304 
0.000204652735748593 
-0.0002821438823625902 
4.554850813444184e-005 
0.0004125469746921494 
0.000144578357377883 
0.0006821913461735531 
-0.001713017458573277 
-0.000469335978092124 
-0.002974944114856701 
-0.0001759444002328425 
-0.003135564033744154 
-0.002176252346074996 
-0.0008983893860473446 
0.002967373193900028 
-0.001431718772062011 
0.002964759907910015 
0.001360845533604979 
-0.0001434354076849625 
-0.0003810346365028381 
-0.0002931377550562793 
-0.0009396740573507185 
-0.0001452376419690572 
-0.0008237951222503135 
0.0003077859447229828 
0.001390150411410474 
-0.0001017527032377127 
0.0003568840610112298 
0.0004083965874670392 
0.0002795058345008027 
0.0001543868245518058 
-0.0002986640069082092 
-0.001891099460608414 
0.0006572128243877703 
-0.002908462410964187 
0.001286436661569804 
-0.00396453889586711 
-0.0004357601734804875 
0.0007952528392291946 
0.001402261553754989 
-1.539599665309266e-005 
0.003938967676084403 
0.001828878476013281 
-0.0003479437055617582 
-0.0002983392168519409 
-0.0004469984276119798 
-9.832654080653572e-005 
0.000513262999921128 
-4.124012488748335e-005 
0.0008394832334016151 
0.0008884059734764751 
-0.0002924583043109904 
0.001396508268711167 
0.0003541601354999099 
0.0001373402989507788 
-3.908777569394673e-005 
-0.0006201180926096206 
-0.001706694062368044 
-0.0008114549600640107 
-0.001601894765189025 
0.0003997904673236123 
-0.00462584058933116 
-0.0005343470382694087 
0.001124506837653099 
0.0007069824145664386 
0.001946861344000819 
0.003237639266176065 
0.001608019937004638 
-0.0004045442985649703 
-1.80641251984833e-005 
-0.0003119332442500955 
0.0004314521101470732 
0.0003676102750798855 
0.000219168733208791 
0.001408670395522673 
-0.0002577468093580825 
-0.0003986330698254326 
0.001872258913511093 
-0.0002107384993882438 
-0.0002851203684897292 
-0.0001344880726842812 
-0.0005840823077594699 
-0.002029509247570371 
-0.001398056778206975 
-0.001480880815730778 
0.001480550063512203 
-0.001936953545692742 
0.001323015385138474 
-0.001152423884573721 
0.001847061314805773 
0.004787422218368363 
0.002944026780881529 
0.001260450743224756 
-0.0001690318386033553 
0.0004235599024264807 
-0.0004938070175916758 
0.0001568526641396468 
-0.0001767697326511391 
0.0006029769544125793 
0.001095414504699363 
-0.0004323484832237361 
-0.0001044846261911595 
0.0008437539627629088 
-0.0007884744337669612 
-0.0008868211404673311 
-0.0001389191598124309 
-0.001197813669569815 
-0.001734133987591459 
-0.001001375055171727 
-0.001531473836077453 
0.001565049911133486 
-0.003053502201227806 
0.003987718469654697 
-0.001213284118611363 
0.0007518136045490258 
0.005528168381990694 
0.002408554084981417 
0.0002194565347304958 
-8.099376602503467e-005 
0.0009974438772740277 
-4.066574342581448e-005 
0.0001171718345277116 
-0.0003040051938498799 
0.0005470785470734663 
0.0002035609126022682 
-0.000244033809420179 
1.778097911506265e-005 
0.0002579008943615242 
-0.0004555063677727434 
-0.0006231947000106535 
-9.511680451944884e-005 
-0.0008549763458680975 
0.0002404204798326662 
-0.001716859953018236 
-0.002159433871564044 
-0.0001800450398020347 
-0.001735805311409085 
0.002780279144358609 
-0.0001975952507578931 
0.0008574279980275008 
0.00241271274378799 
0.0004111414727337214 
-0.001910949098368406 
-0.0001218261363752031 
0.001078281070635566 
0.0002932484782129596 
8.955779086753057e-005 
-0.000357939951436318 
0.0007160629222679411 
-0.00103693855473841 
0.0002271714163510824 
-0.0001354428740092401 
-0.0004592958815895182 
-0.0004180933583268238 
1.292044758629665e-005 
2.822517508058184e-005 
-0.0008896414818361046 
0.002145556392063114 
-0.0008553833895076728 
-0.000676776992719092 
-0.0002899358197320292 
-0.001991020052788802 
-0.0002451688789953858 
-0.00057307097344805 
0.001290705224146738 
0.004423712288944459 
0.002226541856034646 
7.774351594834742e-005 
-5.362685875067475e-005 
0.0004244033420687979 
0.0003110330560532293 
2.430658508106095e-005 
-0.0005822450248817486 
0.0006847864236664237 
-0.002095770125281393 
0.0005899432637093538 
-1.552345315608194e-005 
-0.0005941175989107984 
-0.0004700847308748292 
0.0007909782302752884 
0.0001639890962794549 
-0.001347300800651981 
0.001422046625572303 
-4.805911674996805e-006 
-0.001460448628606007 
0.0006183466397050362 
0.001112129274065359 
-0.00174522743462253 
-0.0003366768621037945 
0.0009004165828814434 
0.003043170067036156 
0.0009445659211408977 
0.001395907415544416 
0.0003012914903041652 
-0.0004216519777161694 
0.000187855628002034 
4.138030978435527e-005 
-0.0004884764806769495 
9.325601764260634e-006 
-0.001787215718132071 
0.0002470538495856522 
0.0003567653576154173 
-0.0001636633489387568 
-0.000312438929002935 
0.0008135849192279897 
0.0002202279100097912 
-0.001219787671318145 
-0.0002029258987365627 
-0.000302237763905691 
-0.001759434599623312 
-0.001745361977379918 
-0.001053537494049124 
-0.00422838258627547 
0.001805968775931089 
0.0006526966486467317 
0.002242345219238972 
-0.0002085946765838877 
0.002520934934240967 
0.0005888096546277074 
-0.0007140113650447481 
0.0001590664140279191 
-0.0002014962133302434 
-0.000452870358789335 
0.0003439089584900595 
-0.0008191364750650217 
-8.453508597566946e-005 
0.0007447822276347094 
0.0001837875857887821 
-0.0003085466971145313 
-0.0002752386128293094 
0.0001849421361596237 
0.0008165513660712162 
-0.0006935975778366276 
-0.00105414410205032 
-0.001411193202714932 
-0.00189470991579343 
-0.00215791838086867 
-0.004164200257864926 
-0.0001518512195557185 
0.002960263340920109 
0.002685084686048761 
6.65070101923184e-005 
0.0009353781772227155 
0.0005585571736442981 
-0.0005795522605774844 
0.0002680008147092446 
9.203165454130023e-005 
-0.0003361377391450017 
0.0001120016819183142 
-0.0003591848827093069 
-0.0004307239380632022 
0.000348782347881024 
0.0006567569188666635 
0.0006169742724769213 
-0.0008154713738676 
6.425025539679925e-005 
0.0009724809101649825 
-0.0003666772403121377 
0.0004646061535343222 
-0.001708885707038602 
-0.001297764943484076 
0.001363548490258607 
-0.003131364944844032 
-0.001088163250649447 
0.003984692957756155 
0.005521696662592917 
0.001122834960541618 
-0.00106818074487592 
0.0001970048290818798 
-0.0001604524076169322 
0.0002394916185914089 
7.620094385809967e-006 
0.0001654674522556064 
0.0005203890927066284 
0.0004688413804969131 
-0.0004003387510251861 
0.0001868670064743488 
0.0002974761533429892 
0.0006745420464893091 
-0.0008402782448657131 
2.124112093240888e-005 
0.0003493519238975658 
-0.00139383872573481 
0.0009517765324201021 
-0.001025562729059046 
-0.001286147107601074 
0.0004635944610759337 
-0.004089661166209005 
-0.001043230552041547 
0.0009783228780462306 
0.004687284286699527 
0.003363725329511482 
-0.0008868969129300728 
-0.0002452745730154194 
8.936337332658875e-005 
0.0001025110793759568 
-0.0004820758796655936 
0.0004024991132145827 
0.0009809530403025873 
0.0007338817739289005 
6.427248881385197e-006 
-0.0006130775476510792 
-0.0006989056358252273 
-0.0001074427326084045 
-0.000624813157348989 
2.955654086241079e-005 
-1.15706313354189e-006 
-0.0006550624862879835 
-0.0001077350781694807 
-0.001914134130493738 
-0.00122230572946169 
0.0002376543660323079 
-0.001921443019699468 
0.0002499708178750095 
0.002577985818482848 
0.00272863683841994 
0.001515496989888623 
-0.0007693292682430607 
-0.0001178833356043993 
0.0002388197169814501 
0.0001304275168364178 
-0.0002956084243655265 
0.0002982590316966187 
0.0003899937321010626 
0.0003127126384696966 
-0.0003373150503077566 
-0.0002612818147791628 
-0.001138502100069452 
-0.0003969020071256042 
-0.0002267576289468175 
9.046098832501773e-006 
7.700255350680801e-005 
-0.0001025836125214377 
-0.0002554177167784043 
-0.003718948091503196 
8.005480539098211e-005 
0.003309790743422941 
-0.001099746218292276 
-0.0007887769866043849 
0.000598221698711887 
0.0005870902800357337 
-0.0006670444333746436 
-0.002338116912232626 
0.0001331018121083525 
0.0003146253689105419 
0.0001374474309691313 
-0.000442474627804086 
0.0001944994285781512 
0.0003670403175784993 
0.0008125890154614154 
-0.0005678388605264178 
-0.0001051607742433697 
-0.000953029587086401 
-0.0006050139835288273 
8.392036302031614e-005 
-5.010103769139206e-006 
0.0005192411900271492 
0.0001817915975384161 
0.001720340958034686 
-0.001840249457686659 
-0.0004895674821280699 
0.001890410769789236 
-0.00306275943770004 
-0.002901966558770286 
0.002868335562776111 
0.001879283123117037 
0.001153712935739811 
-0.001476357574218068 
0.0001939307173326634 
0.0006017187792793647 
0.0006816326373928977 
-0.0002709236123857917 
0.0004914953650928081 
0.0001220331264336576 
0.0008084238262734837 
-0.000726664120124373 
-0.0003563108020903838 
-0.0004354727963742526 
-0.0001658428076417623 
0.0001144208789172225 
-5.067169539527328e-005 
0.0007546606792068222 
-0.0002391357952479549 
0.0007249606002551135 
-0.003274895704496845 
-0.0006800242903959622 
0.001472409054055359 
0.000543952710842429 
-0.002306461195109901 
0.0003073503446415712 
0.0003468089715209774 
0.0005195513302337074 
-0.0001137801808952821 
0.0001070537492570381 
0.0005367723691981412 
0.0004858453389344447 
0.0003873324618144301 
0.0007730083169913767 
-0.0004212973177776737 
0.0003548372609716222 
-0.0001567752190709436 
-0.0001323816533669599 
-0.0003411035348615491 
-1.009524913722485e-005 
0.0001226072820637847 
-7.216269373791154e-005 
0.0006296697512638604 
0.002421800102453908 
0.002810234367769098 
-0.0034907771491179 
0.001615200788369649 
0.001766501271700348 
0.001298833074327667 
-0.002624506736105748 
0.000941873945450514 
0.0006714118878972358 
9.29895595804368e-005 
-0.001309393113134547 
0.000116556613103516 
0.0004689443604225031 
-0.0004050769323695339 
0.0003791908434814597 
0.001031116526695541 
-0.0002906649975877692 
-0.0003435093052596848 
0.0002425198267031584 
-0.0005422189789116874 
-0.0003937605914401091 
-0.0004842392884884104 
-0.0002392184322957891 
-0.0001372774645678079 
0.0005570558224595134 
0.001461268259700432 
0.001628869528615515 
-0.0009570037121858961 
0.002892719227107121 
0.001265257149844741 
-0.001506363221869573 
-0.001711371667154321 
0.0008995434009223818 
-0.0005144894908411442 
-0.0001871552429085125 
-0.00180856963901544 
7.340998571410294e-005 
0.0001258626264327549 
-0.0005680835345799656 
0.0008621125418072056 
0.0007550126346127325 
-0.000302503218207524 
-0.0008838672086861779 
0.0004466839782291145 
0.0001172405861024441 
-7.585686997181575e-005 
-0.0004700721174610067 
-0.0006220802115530237 
-0.0001750715631893164 
0.001200826214379792 
0.001676318114194428 
-0.0007570003567817846 
-0.001103224811281197 
0.002879655377732119 
0.0005406730502063268 
-0.00375514350408471 
-0.001986914363404009 
-0.0001388601072741666 
0.0003411297718608933 
-0.000914128554854844 
-0.001825057583040945 
-5.621068377087199e-005 
-0.0004716323824105155 
-0.001009321593878952 
0.0005500601211737066 
-0.0003601864719585095 
-0.0001383679961354347 
-0.00033232341874682 
0.00043592316067933 
0.0006275553398975424 
0.0002830141289803597 
-0.0007812457603996085 
-0.0003469491953975283 
-0.0001126004525336075 
0.0008361307318462661 
0.0007629188151684051 
-0.0003318450574595093 
-0.0001581008188475964 
0.002462823434682861 
0.0005728099720117292 
-0.001348398042673258 
-0.0003918405808503921 
0.001433924460717786 
0.0001326648813836541 
-0.00132724458083881 
-0.002966347543361006 
-6.793142879118318e-005 
-0.0004012819055383318 
-0.0002864971299171843 
0.0001776085002975836 
-0.0008111062881743647 
0.0003692789033260415 
0.001033885248102853 
0.0008222909064681336 
0.0009897071518567605 
0.0004479156083449022 
-0.0006059176556728299 
-0.0001166614808155635 
-4.096450584829441e-005 
0.0002090756699496931 
0.0004128145967699888 
-0.001256017296259675 
-0.001139929595570259 
2.92288011545518e-005 
0.001420880381778319 
-0.000441762339320151 
-0.001104664679437884 
0.003812465661413227 
0.00176290536345165 
-0.003243203793168826 
-0.002465252385339514 
6.438233356810735e-005 
-0.0002518242345272992 
0.0002917319350900794 
0.0005772371732276304 
-0.0007400256848991113 
0.000731944060534907 
0.001695797102321171 
0.0007541029020469424 
0.0004013686941563258 
0.000138723474019618 
-0.0008349927531958498 
0.0004064133072579813 
-3.607572227252372e-005 
0.0007132701681697312 
8.660871234349231e-005 
0.0004458855297486736 
-5.063350906417774e-005 
0.0002624010925003335 
0.002671538944063688 
0.002006373184833144 
0.00195895021498913 
0.003872414196070853 
0.00101420621461752 
-0.002052216039137181 
-0.002071774101889011 
0.0001393774437457694 
-4.698093333025644e-006 
0.0005439971430972339 
0.0005509028607975819 
-0.0007734776053081691 
0.0003140761840667181 
0.0009673139154569578 
0.0006986729676233765 
-0.0003354045011984946 
-0.000241880696739353 
-0.0007102140453283513 
0.0007478670339805477 
-2.414462103767191e-005 
0.001584170847999771 
0.0007553526531207672 
0.0003127896474066022 
0.001729212044889115 
0.0002797386433493676 
0.003151035256064067 
0.003046457346689957 
0.0006082046304995122 
0.0006487501853762499 
0.0005939741387763268 
-0.004726603451528606 
-0.0002402841250100214 
-0.0002184773979428487 
0.0002207703411934962 
0.0005813811685942008 
0.0004698063497164674 
-0.0004169226976954506 
-0.0002063078515979038 
0.0007166768347868371 
0.0009465518615785682 
-0.0005638601087403746 
-0.0004069593638258639 
0.0003147171203570282 
0.001123518784290984 
4.919105927230938e-005 
0.0008454622618339549 
0.0005681608418737376 
0.001603730558331119 
0.001161848539675742 
-0.00152983185868977 
0.001278126118430815 
0.00174406022018222 
0.002245106082607168 
0.001338754582624649 
-0.0004922723874791189 
-0.004136605888536118 
-0.0003394953918888848 
-0.0004747925559956533 
0.0002582061512279689 
0.0001650207981090368 
0.0003165652365588147 
-0.0006537609237073052 
-0.0007473235364847743 
0.000681855613701319 
0.0004381448059078455 
-0.0003931129753936099 
-0.0002428912966405552 
0.0006845131273023975 
0.001081852826339047 
0.0001157151633810867 
-0.0009494111915873179 
0.001275890290499546 
0.001071976618499509 
0.0006028811595196843 
-0.001159287003152061 
0.001086060844204704 
0.00327278304811944 
0.003485026731712951 
0.002259980421801353 
0.0004813436423305116 
-0.0006274228416522725 
0.00228620885593553 
-0.0002430079903250245 
0.0002120649732868989 
-0.0002748236728916158 
-0.0001242379203610742 
-0.0006653317353905189 
-0.0006191138705717566 
0.000144639878621594 
0.0002846902500835804 
-4.333784333478836e-005 
-0.0003074779000095114 
0.0006691145924341205 
0.0001725133836740279 
5.017366132227746e-005 
-0.0003939046549105372 
0.001117373910948173 
0.0008914205028590751 
0.002095354650964273 
-0.002286891350714533 
-3.259610185906254e-005 
0.005302494266000085 
0.002711260152062935 
0.001101242094997941 
-0.0001439399316740999 
-0.0006792446205815256 
0.002074247175266051 
7.874698835846798e-005 
0.0002205907773861602 
-0.0005690987634367315 
-0.0004917641518279066 
-0.0002425890860811917 
-0.0001382489446685705 
-0.0002906537832403806 
-0.0002546506273417662 
-6.65599591973607e-005 
-0.0003643153614035957 
1.328213124863394e-005 
-0.0003896148868839252 
4.836151024069643e-007 
0.0009888152594493666 
0.001541069146109075 
-0.0007051647522876528 
0.0006412615685243773 
-0.002668393917189975 
0.0007108239981239034 
0.001990441168199565 
0.001798567219536533 
0.0005508108306897643 
-0.001117578293818922 
-0.003109719983160749 
-0.0005845953964619382 
0.0002826294480400247 
0.0002197657134988375 
-0.0006546051383410745 
-0.0007361661006010146 
0.0001209806105283884 
9.188691399693336e-006 
-0.0011003961007644 
-0.0006069121049342979 
-0.0002889154153584936 
-6.518588972054741e-005 
0.000112779648805061 
-0.0007631465534578026 
1.94374383285683e-005 
0.0002700884852784292 
0.001538522679929472 
-0.0003531899272814352 
-0.001316177108663676 
-0.001988222931040696 
0.0007744934582738128 
0.0009319542813370874 
0.001815070754418125 
0.001860545961137243 
-0.001514382978088448 
-0.002829044371162837 
-0.0008521723829130356 
0.0001848698518497224 
0.0003247247495200855 
-0.000602694305345238 
-0.000678598352616629 
0.0006678819935590782 
-3.098436902120854e-006 
-0.001810670608316829 
-0.000114355974814745 
-0.0001966507226415008 
0.0001190755706618874 
0.0006851002309871508 
-0.0003840313773009821 
0.0001065260523179504 
0.0001317430628604334 
0.002164139735047733 
-0.001578752929387781 
-0.001372188166058803 
-0.0007037213860493213 
0.0007284573978831676 
-4.393039351717401e-005 
0.0008985661334578185 
0.0004357828283802863 
0.0008406392985617863 
0.001011379659173233 
-6.632138908663949e-005 
-0.0001368734552914996 
-0.0001029725569174379 
-0.0003311284104064587 
-4.558946594858043e-005 
0.0003827730462238192 
3.202389239386571e-005 
-0.000989683855810347 
-6.055988105797356e-005 
-0.0003710967952876333 
0.0001831683197254775 
0.001199455003146056 
0.0005135896078578366 
0.0001368144293501899 
0.0009589804352937367 
0.002429465020845559 
-0.00168525900338855 
-0.0002908970864021345 
7.017842648153514e-005 
-5.692060822731869e-005 
-0.002733678405154262 
0.002589482265853921 
0.0001755084248291817 
-0.0005276708755740256 
0.0006857075876132779 
-0.0001050445112632507 
-4.577417239808162e-005 
-0.0001689682993638167 
-1.007179516120064e-005 
0.0003737948301264805 
-1.937465934987095e-005 
4.941847647328273e-005 
-9.617119966221588e-005 
6.828758700038265e-005 
-0.0008204889013911739 
-5.776358115976984e-005 
0.0001729586168397343 
0.0006508074586266676 
6.09881575865593e-005 
-3.999731641787826e-005 
0.0005807331083712139 
-0.001694762065622068 
-9.933316101439175e-005 
-0.001783734193846247 
0.001286645812506222 
-0.00112516570090035 
0.001108556059443734 
-0.0004621571556911736 
-0.0006950948204126338 
0.001130180940425455 
0.001609779681204726 
7.008783489878545e-005 
-0.0003400699122687667 
0.0002238140986185611 
0.0003723077530778958 
-0.0002705788664660279 
0.0001350155968434458 
0.0003996722028991079 
-0.0001522762399917645 
-0.001001735181014694 
-0.0003743206093915686 
-0.0008679314856607667 
-0.0002093806389147781 
-3.930718540420425e-006 
0.0001270813633216188 
0.001485381820835495 
-0.0003455367690934283 
-8.363702223613314e-005 
-0.001545092564543846 
0.0007424961571133861 
0.0009917091906195075 
0.002051521018154183 
-0.001792948345595608 
-0.001035327913078643 
-0.002023658672386915 
0.001563815275942739 
0.0002182211508228829 
-0.0003722916204882305 
0.0002022851535730425 
8.625951642495938e-005 
-0.000737334062054244 
0.0004575488177926347 
0.0006819947306343613 
-0.0006575629748401694 
-0.0007976619672390452 
2.388049091492955e-005 
-0.0009189830201208418 
-0.0004067486420033958 
-2.408956800041585e-005 
0.0008981360129815919 
0.0009358345473626191 
-0.001129550219424498 
0.000385710525396326 
-0.001248978881786962 
0.001003824167660191 
9.173723806146599e-005 
0.0004061564569590915 
-0.003588676993268246 
-0.0007771353133687845 
-0.001973589411958833 
-0.001947645760327957 
0.0005731150239272258 
-0.0001958338672812628 
5.075457755300431e-006 
-5.977092756147328e-006 
-0.0005737226052645813 
0.0003092390459120239 
0.0002068362722421976 
-0.0005796437412397229 
-8.55604785563961e-005 
0.0002419521359992672 
-0.0008555465859140636 
-0.00063478999417521 
-1.027218878517078e-005 
0.001777597809130337 
9.337876829240996e-005 
-0.00152720647697143 
-0.001166415602731696 
-0.003306473559966139 
0.001316670549029422 
0.0001053841199779277 
-0.001276536134803427 
-0.000861506926482244 
0.0001667318263985054 
-0.0007354981876293453 
-0.001286009188284666 
0.0004454706508482584 
-0.0004934805828612735 
5.043739822258835e-005 
0.0002880220684199537 
-0.0003679671491033694 
0.0003961763855623083 
-0.0003135188228019503 
-0.0003890468535455168 
-3.724510149001021e-006 
0.0001194989634670389 
-0.0001149727635430205 
-0.0001752567848170312 
-5.684542182503341e-005 
0.002042028429183838 
0.0005821909974406426 
-0.002723216099897316 
-0.00158241709305477 
-0.002595782822750687 
0.001690964309004951 
0.001242388637405737 
-0.0008564153590585043 
0.001307901295068855 
0.0009756585701210914 
0.0001269761753627654 
-0.00180247341271991 
0.0002189040740324293 
-0.0001480452344691666 
0.0005573185892557792 
0.0007570624246477859 
-8.038907378340188e-005 
0.0002077823428375812 
-7.288282684565971e-005 
0.0004985445804121054 
-6.535564524919189e-006 
-0.0004155464048554156 
-5.260433317977235e-005 
0.000257110131271784 
-0.0001584268301239303 
0.0009989005771359368 
-0.0003536436588788028 
-0.0001289940890100418 
0.001019407844642077 
-0.002348580189176736 
0.0008621826407369673 
-0.0007849702574360197 
-9.772431331118088e-006 
-0.002299935351265893 
-0.001319617251255976 
-0.0001718150732513495 
-0.0008309205889736993 
4.631217466079223e-005 
6.407127098877239e-005 
0.0003523941087976394 
0.0006705342445803301 
0.0004925267151548881 
3.742076483596938e-005 
0.0001818390575897008 
0.0006444171003986343 
-0.0004780515763271712 
-0.0008057299436064487 
-0.0004828156333576179 
0.0001471081787664176 
-0.0002506575543260946 
0.001008271523912751 
0.000363730333451103 
9.047619591184928e-006 
0.002001974616481645 
-0.002372674445702048 
0.001410801993845774 
0.0004766815753557154 
0.0009772781478016984 
-0.001803502710236158 
-0.00281205485805369 
-0.0008648288184312693 
-0.001107257446715273 
-0.0002592596048761605 
0.0001195512790979152 
0.0001649563944675337 
0.0005491016965717717 
0.0005868550630092889 
0.000384010289788961 
0.0005540985406339924 
-3.993201821260772e-005 
-0.0002977407163248582 
-0.0004260654585806361 
-0.0002650095956788583 
0.0002570745496147242 
-0.0002227102561562466 
0.001223587570462798 
0.0008314044302824559 
-0.0003849201081580749 
0.001374192862962708 
-0.001651249780643553 
0.001112898363140007 
0.001666206315021134 
0.001070652399958607 
-0.002183507464008893 
-0.003288068556238468 
-0.002617633275610512 
-0.0008168799047513517 
-0.0005365290712033752 
0.0002137928120556323 
-0.0001347941995495867 
4.752311667060838e-005 
0.0006023649560733323 
0.0004977466574505073 
0.0007056868474270639 
-0.0006115123283252565 
0.0006483779205389194 
-6.644877438176875e-005 
-8.551547880733938e-006 
0.0003570860376883054 
-0.0001201392193869926 
0.0004451298543170355 
0.0003709293144993602 
-0.0004794331712925082 
0.002021670468113285 
-0.002205685299387169 
0.00218012868068654 
0.002379297311415907 
-0.002526152839330309 
-0.002314062906795211 
-0.002420015078861917 
-0.001290509475521898 
-0.0001383984354534543 
-0.0007267802215213968 
-0.0001272836478824855 
-7.033449510414843e-005 
-0.0003734795649467483 
0.0008601452961603479 
0.0004477023512401344 
0.0002583224629283334 
-0.0006628381675218718 
0.0006212826339532442 
0.0002214521131840269 
0.0006027175383875982 
0.0003783819502717249 
-1.170226428590812e-005 
-0.0006016596987637441 
0.0006322639101423114 
-0.0002730154442452714 
0.001527930771482571 
-0.001549153361592701 
0.002567059537517335 
0.001804515709651264 
-0.001980898524868545 
-0.0002020708045097084 
-0.003018916509484179 
-0.0001676428131840316 
0.0005309080746314876 
-0.000873402097947262 
-0.0004203221586480792 
9.387939270072802e-005 
-0.0004864980472638046 
0.0009282967620437498 
-0.0002137418754583936 
0.0001571108254482413 
-0.0003471761909455867 
0.0002052934831496993 
0.0002946947521423344 
0.0008525679849392106 
0.0004048342674089248 
5.051226763255375e-005 
-0.001483862361839622 
-0.0002115044552222446 
-6.33769485058995e-006 
0.0009309712396816472 
9.722149423399808e-005 
0.002300304374540579 
0.002286688710663009 
-0.000991764129563648 
-0.001371107833367082 
-0.002965832464566692 
-5.306310741297159e-005 
0.0001439965381239832 
-0.0005204500258765011 
-0.0002611607964659963 
5.795838559010287e-005 
-0.0003617725046732088 
0.0008337977150409422 
-0.0005622421345353135 
-2.686232237399298e-005 
0.0002063980743561885 
-0.000344833819874011 
0.0001140223789111292 
0.0003101948455180815 
0.0004519912427963727 
-1.420042554551855e-005 
-0.001668495678274062 
-0.0005926190606590995 
0.0003883943226660815 
-0.0005607697460060607 
0.001103956242539478 
0.0002549544833902041 
0.001953289448587971 
-0.001683512207938744 
-0.003017514547776568 
-0.002110787866919483 
0.001236929446382681 
0.0005343629759969484 
-0.0002299004411635945 
-0.0001073722329450205 
1.632075042539457e-006 
-0.0001225498539609418 
0.0004686314390066714 
-0.0005537448589153642 
-7.940485398440737e-005 
0.0001782826091003989 
-0.0008427946906514276 
0.0002887966109637704 
-0.0001003037686345441 
0.0003667144277600156 
-3.818395241399278e-005 
-0.001366227263718105 
0.0004369620196384413 
-0.0003778646168207461 
0.0007340858129118971 
0.001670814377183048 
0.001456742055931544 
0.001635861828733195 
-0.001292454206107847 
-0.002588801782956913 
-0.001753173751656403 
-0.0002417067770639394 
0.001092066968774687 
-5.945317972189478e-005 
-3.440786641656965e-005 
4.323763299934453e-007 
5.713518808521604e-005 
0.0001399030429487297 
-0.0002571279892790194 
0.0002533533808442753 
0.0003764836008418571 
-0.0002721409776851124 
0.000158382878960636 
-0.0003366737560911884 
0.0004649548738140949 
-0.0001127089782350628 
-0.001706768256088062 
0.0003856149705936375 
0.0008516924283459543 
0.0002784294309956543 
0.001458335741216655 
0.00130369643261742 
0.001000554191549059 
-0.0001239981077435181 
-0.002913284073399828 
-0.001734128606869238 
-0.0005407034280399824 
0.001019124558258091 
-2.603500248428104e-007 
-8.506646163491812e-005 
-1.339244297274919e-006 
0.0003541671377246943 
-0.0001670085491851386 
-0.000123796006536032 
0.0004466649619373139 
0.0002821165948155369 
6.446858367084587e-005 
-1.455248965975411e-005 
-0.0005244502106645964 
8.476778821197996e-005 
-0.0002024551322104388 
-0.001770709756684901 
-0.0009436574671569689 
0.0007331581666443696 
-0.0003821834784258384 
0.0009398266948139452 
0.001333716805480037 
0.00312762151290686 
0.001550941157965916 
-0.001542662833517339 
-0.003370593092775457 
-0.0002255089202835181 
0.001623686980708048 
0.0003501130296289793 
-4.302078377150495e-005 
0.000145286695786413 
0.000349435465359132 
-0.0004372107624235542 
-0.0004644216741380528 
0.0001672282659780487 
-4.135333832544229e-005 
-0.0001269903480337197 
0.0001161433997161788 
-0.0003914945765583111 
-6.250807559262083e-005 
-0.0002766518175479089 
-0.001356294243038593 
-0.0005026343112206316 
0.0005194404585295438 
0.001077471379796168 
4.909769133849333e-005 
0.0001902545486059588 
0.003147553410771411 
0.0001070694047454744 
-0.001693904976748022 
-0.002728522819506377 
-0.0006486733615079532 
0.001396015661064013 
0.000450361422565136 
-2.844744243244611e-006 
0.0001724706963430775 
0.0008929719124558742 
-4.13598723419128e-006 
-0.0003813430932223888 
-0.0002908714765501088 
-0.0001679399324035785 
-0.0004773030167977515 
0.0001326343302609107 
-0.0002499144508949286 
-0.0002777409926682942 
-0.0003234798581290254 
0.0005829272280571537 
-0.0001155971253583259 
0.0008186866729730073 
0.0008359209210173931 
-0.0001805483489483066 
-0.0007165219573972441 
0.00110726880444137 
-0.00192819792289895 
-0.001277913148295978 
-0.001734007612150415 
-0.0007679505162386873 
0.0002314017090512894 
0.0003310972101146801 
0.0001226897255422092 
0.0002853550379132388 
0.001160828447182349 
0.0003646198698994654 
-9.665615882338437e-005 
-0.00084070219614428 
-0.0002465197212779905 
-0.0008105994571466113 
0.0003173314469831305 
0.0001840074733584063 
-0.0004498011976647577 
-0.0002920666374006137 
-0.0001097758020076786 
-0.0003448001138381262 
0.0004463748254478605 
0.0027822870203883 
0.001973803758740929 
8.014057973890521e-005 
0.0009934025600626673 
-0.000785035644033426 
-0.002106728472366826 
-0.002100624291265877 
0.0001049884070327284 
-4.446629188966692e-005 
0.0001237743004362432 
0.0001860563268579909 
0.0003150516863318798 
0.001030223605849505 
0.0007177208916293467 
5.176627542345273e-005 
-0.0005556256722913853 
0.0001854377977958545 
-0.0008806156078418338 
0.0004432983171508132 
0.0003763400977294715 
-0.0002680332317068296 
-0.0002254126714762938 
-0.0004266215012937953 
1.604800576401088e-005 
0.0007191870446113456 
0.003608630528539346 
0.002777316098821878 
0.000988231547518727 
9.796680583526129e-005 
-0.0008781058481760667 
-0.002961115866026028 
-0.001508936074780851 
0.001048277064665481 
-0.0001193387625117899 
-0.0002481097835086539 
-0.0001264986787804025 
6.312147912437091e-005 
0.0007998482000929151 
0.0005111615787555287 
0.0002141585218195271 
-0.0001750546701965 
0.0005671836715811014 
-0.0004141173177682964 
0.0006990128306201923 
0.0002357127734558517 
-6.515111212519147e-005 
-6.662711052701599e-005 
-0.0004766787779043385 
0.0006116018402456214 
0.0008476245187406477 
0.003827703635834476 
0.003305804599940887 
0.0005027890518393366 
0.001360293395408884 
0.000425863303082728 
-0.003546341232265491 
-0.0007831487415408752 
0.0006205383964453349 
0.0002214704983598218 
-0.0001834754701610658 
-0.0002129043223901948 
-1.931088735950965e-005 
0.0005868949672654979 
-0.000150187481610009 
-0.000217412772266003 
-0.0001717218477738203 
0.0001174243334295324 
4.687361100739239e-005 
0.0007024578995949897 
-7.872245252470579e-005 
0.0002124547275540289 
4.555107591851799e-005 
-0.0006999906371288346 
-0.0008039715323353642 
-0.0001944048082543518 
0.003856237677028839 
0.002816270119610695 
0.001095957864835867 
0.0007344919243440108 
0.0009341904286543441 
-0.002055319873675695 
0.001085473241877047 
0.0001891213356627257 
0.0004166900217344694 
-9.881593435867261e-005 
-0.0003943576431794522 
1.738502891049345e-005 
0.000277860387730888 
-0.0006426621867775338 
-0.0004722948028211788 
-4.691661800588788e-005 
-0.0001629854005830388 
5.291094545684922e-005 
0.0002471916861443441 
-0.0002961696874094548 
0.000226765436995088 
0.0001527289268157051 
-0.0007322765711637235 
-0.001124369424828374 
-0.0001905783150817926 
0.004593858954114629 
0.001800176600285844 
-4.255377561055557e-005 
0.0007909101946862394 
-0.0008610637339702525 
-0.002332828049450728 
0.0001820269041473327 
0.0003056127024264996 
0.001223589979824535 
-8.452280424979433e-008 
-0.0004738510535911153 
0.0001668016913777768 
-3.477088130938085e-005 
-0.0007761975791818534 
-0.0004622252039954445 
-0.0004563887105733127 
-0.0003752140821596313 
0.0001158644066388808 
-0.0001663341616651133 
-0.0002163506357300109 
0.0001157003634084504 
9.646843646482403e-005 
0.0001160546512447036 
-0.0007709745689170192 
-0.0002731067843302684 
0.001641652800090387 
-5.52371752062023e-005 
-0.0002975473204718598 
0.0002854592280395809 
0.0001897429485142827 
-0.001073875477562083 
-0.001662459285072743 
1.045358509269335e-005 
0.0008352133634429585 
0.0002340756285323665 
-0.0002750545360764662 
0.0001904798490598197 
-1.088211461734854e-005 
-0.0004347926085597266 
-0.0002845440682842968 
-0.0003357553308102644 
-7.899054274646698e-005 
0.0001576891314832403 
-0.000357238044021037 
-0.0002310057572834834 
-0.0001738155762262655 
3.297243887192031e-005 
7.856110551683618e-005 
-0.0008029850974053348 
0.0004465563521722383 
0.001285541536634773 
-0.0001727381534059193 
-0.0007223480387033088 
-0.0010425507793614 
0.0007906523628825749 
-2.282077538515251e-005 
-0.00167541731364862 
0.0001169327933437657 
0.0004443275562412625 
0.0002040952789102239 
-0.0002090386637862627 
0.0003239964182730415 
-4.155914391805971e-005 
-0.0004226111934428263 
5.543169916827412e-007 
-0.0002158863172400913 
0.0001439430264488089 
3.56399950191216e-005 
-3.335598714093856e-005 
-0.0002326166222277687 
-0.0003798017726962509 
-4.58691801377536e-005 
-0.0001472639332856436 
-0.000991708824397043 
0.0004831878863370235 
0.00203639734523549 
0.000132760572753757 
-0.0006298583855583479 
-0.0007144692762472073 
0.001037095055453404 
0.0003138342185100461 
-0.0008105493353614863 
-0.000335582274212174 
-1.850347186287671e-005 
6.071596463802886e-005 
-0.0002184631172661144 
4.893513780262205e-005 
0.0001471980799861325 
-8.022606270887638e-005 
5.18784220736386e-005 
2.544046518309432e-005 
-3.860995342499207e-005 
-3.20898278517247e-005 
0.0001601128017578839 
-0.0004557825603366417 
-0.0002880646023933531 
-2.067458646045678e-005 
0.0007065350621138487 
-0.00112697457260497 
0.0004675789298403611 
0.001114233525939425 
-0.001474820672110614 
-0.0002639360734261299 
-0.001221636254173588 
0.000558102114566076 
-0.0004546932208563152 
-0.001556553842903895 
-0.0005617925189828665 
-0.0006742763758198913 
-7.564315876643318e-005 
-0.0002708996420233832 
-5.3947306426055e-005 
-6.804752954862721e-005 
-0.0002036666389710147 
8.784737016128174e-005 
0.0004177003216810692 
2.540500559698088e-005 
-0.0002530911953923829 
-4.221846951207703e-005 
-0.000637587439531941 
-6.29399817807217e-005 
1.988302309569945e-005 
-0.0001965669086254949 
-0.001418158565396361 
-0.0001403792861936542 
0.001406188128711864 
-0.0001849599428563833 
-0.0008508699119317714 
-0.000646048416190527 
-0.0002081096940637308 
-0.001160147254370313 
-0.001016348270503676 
-0.001547483783357974 
0.0002918530144982192 
-0.0001239476638753298 
-0.000320050795327882 
-8.44969874300677e-005 
-0.0001991968027253689 
-7.137032528479524e-005 
-8.800385212058586e-005 
0.0003940449408946996 
5.300446488426283e-005 
-5.152835081799475e-005 
0.000119123106090675 
-0.0005414674022436423 
7.41870127950167e-006 
0.0001048962109602888 
-0.0004784971916365014 
-0.001729238819078345 
-0.0001178131561711571 
0.000668763728217114 
-0.000883768829964843 
-0.000804654420527096 
0.0002628561882073825 
0.000659508934083798 
-0.001054910397951608 
-0.001111031054897537 
-0.001900664756879236 
-0.0002078065225246964 
-0.0001160120646715011 
-0.0003206122101439248 
-3.160947360046114e-005 
-0.0002192704719941772 
3.114555697188435e-005 
-0.0002912295357334656 
0.0003628238578866223 
0.0001875633379803625 
9.924560090192711e-005 
0.0001772664371221911 
-0.0002254161538812503 
8.368381831192067e-005 
3.347800295747808e-006 
0.0001943618051415669 
-0.001064291135629598 
0.0002354723997803263 
0.0007555296608465174 
-0.0006714906013758285 
-0.0002936782128395912 
0.0002839096618085901 
0.0005311442427344924 
-0.0004953064527680437 
-0.0003615522235848402 
-0.001643768505334418 
0.000231401210383573 
5.849071118885586e-005 
-0.0002408274138433591 
7.562019116957294e-005 
-8.518007488309748e-005 
-7.472583955001096e-005 
-1.987378494273575e-005 
0.0001409801182094065 
0.0001642096678258013 
0.0001100314354860437 
0.0003097736771951541 
7.367651163077403e-005 
8.35537616386589e-005 
-3.522216268353506e-005 
0.0002230850884346973 
-0.001013303622626907 
0.000583740550730237 
0.0006831266656412198 
7.358896900228796e-005 
-0.0005850842029753143 
0.0007353310828275673 
0.0003798477746360964 
-7.736322869854641e-005 
-3.738131586497919e-006 
-0.0003697098421094802 
7.301781641625808e-005 
0.0001056649338155869 
-0.0001138575050030449 
1.796583654563173e-005 
-3.989034759827616e-005 
-2.746400664144479e-005 
-0.0001127711645763303 
-9.403302297318409e-005 
-0.00014382099009077 
-1.528673842103227e-005 
0.0001884658382401161 
0.0001706560905093005 
5.715054603244765e-005 
-1.855126839545876e-005 
0.0002916208631752123 
-0.001146982200533094 
0.0004791215935188467 
0.0007189680202173454 
-9.944782193270789e-005 
-0.0004258747621554436 
1.35831102511501e-005 
-0.0005136373882219278 
9.149422127961841e-006 
0.0006516025462489643 
-0.0003311980562794972 
0.0002608517243297351 
9.831492229091273e-005 
3.739061474289214e-005 
-7.170642382405853e-005 
-2.059280509083982e-005 
-0.0001243521670295446 
-0.0001601679196738368 
-0.0001745081126730047 
-0.0001356024937012809 
-0.0001501650147433858 
9.563070888510316e-005 
4.633422819676647e-005 
-0.0001372484626149904 
-8.885149755283416e-006 
5.539328756108236e-006 
-0.0008505945562469052 
-0.0003212068783674685 
0.0006081405433609905 
-7.081104222668322e-005 
-0.0005768521657300224 
0.0006231929006763742 
-0.0001298203470573949 
0.0003517700066659803 
0.0005792434967212088 
-4.009833223744678e-005 
-8.946290585246004e-005 
-6.981489911944882e-005 
0.0001621178886789839 
-0.0001565577755920698 
-5.003423042879742e-005 
1.287761937944336e-005 
-0.0001019447490424017 
-8.295503513387738e-005 
3.838590550349768e-005 
5.08996017622503e-006 
0.0002279661518111234 
1.141386628393955e-005 
-0.0001796721051446783 
-1.568431542911636e-005 
5.432816541612937e-005 
-0.0004445196384519339 
-0.0001587544788160546 
0.0002752102178862493 
9.577998908482261e-005 
-0.0001799147381456923 
0.0002483212552981419 
3.969214628855005e-005 
-0.000576891867137522 
2.433916332000796e-005 
-7.564631173134252e-006 
-4.463159259220554e-005 
-7.567663442783695e-005 
0.0002045573709864173 
7.179452462166332e-005 
9.669308933580388e-005 
0.0001129626875813464 
-1.659085662462675e-005 
3.719562672802108e-006 
0.0002558343515165999 
-5.618330288398607e-005 
0.0001439844201544688 
-0.000103468271758847 
-0.0001079993360848839 
-2.273226618639632e-005 
-0.0004002481896456702 
-0.0002215416156563177 
-0.000169543834718249 
0.0003284935873819438 
0.0006507615878152583 
-9.70353048378086e-005 
0.0005817818546603748 
0.0004078589391218002 
3.062570949714474e-005 
0.0008152316999417398 
0.0002513826897908948 
2.039384522641924e-005 
-5.829941212242892e-005 
0.00014414215614819 
0.0001384848368316763 
0.0001164670315725273 
0.0001679985713678549 
0.0001194775572013537 
-4.054561026750516e-005 
0.0001481157953938786 
-2.392932589711881e-005 
8.941624793628117e-005 
-7.825051340321082e-005 
-3.901658867771034e-005 
-3.065671606025357e-005 
1.124097037610214e-005 
-1.982482465280826e-005 
6.895363911661751e-005 
0.0003357012956503376 
0.001052436726984591 
0.0002482648179163977 
5.336774474522123e-005 
0.0005317213608979596 
-4.80906194984655e-005 
0.0004791092520828008 
-0.0003727979523697201 
-9.521905945502943e-005 
-1.388901662049556e-005 
2.628837223798397e-005 
0.0001143294228518399 
0.0001441408710725772 
5.574841004687816e-005 
0.00010925261455004 
1.331123517931606e-005 
6.362070801666148e-005 
1.566949119361808e-005 
3.310551772652104e-005 
-2.082409035808443e-005 
1.4905198839153e-005 
-3.35796109277212e-005 
8.305450096607689e-005 
-0.0002083058514526029 
-0.0004774284629159434 
-0.0003513518620803716 
0.0005597672083506943 
0.0001770179719367756 
3.059817611570265e-005 
6.004495308285831e-005 
0.0004937738498123033 
9.971570806253984e-005 
4.904253353858636e-005 
-0.000423139932216386 
-4.241181345442007e-005 
-1.008089581900731e-005 
7.629951310792619e-005 
5.26421295775123e-005 
-9.244394573249322e-005 
-5.005047490004431e-005 
7.276687467897445e-006 
5.962276563765295e-005 
-9.354000541768411e-005 
1.417889693777409e-005 
0.0001076851191915013 
5.159570188106107e-005 
-2.836992759754822e-005 
4.273077852273732e-005 
-0.0002388313552081583 
-0.000440988104947789 
-0.0003086174888100465 
0.0001836053246678549 
8.192398019908888e-005 
-9.876462124337168e-005 
0.0001994067305359797 
0.0004987818932674584 
0.0003140557983379372 
-2.747008764905226e-005 
-0.0001944485776667606 
-4.759294527671673e-005 
1.892537625007214e-005 
4.596552327696981e-005 
1.474138437022897e-005 
-0.0001015586289985242 
3.173117589255264e-005 
3.342620460670204e-006 
-2.317519493229691e-005 
-7.867251119820704e-005 
2.26402236452071e-006 
0.000125036549113382 
6.252422986966566e-005 
-1.304188939619894e-005 
4.395750820990007e-005 
-5.069997916335001e-005 
-4.922347206621739e-005 
-0.0002451608297198012 
5.005912214512907e-005 
-8.371135364059478e-005 
-0.0001762795309031636 
0.0001610696111195197 
0.0001095157546990808 
0.0002258109630319706 
-9.880821208714146e-006 
-0.000107739529393839 
-1.731064169283618e-005 
5.10655793748988e-005 
4.875791295289795e-005 
-3.617202000552554e-005 
-9.891282024015717e-005 
8.806527176685872e-006 
-2.728856885369295e-005 
-2.332233488239234e-005 
-7.603797579010873e-005 
1.478435479751325e-005 
4.737412671866555e-005 
4.437636348116595e-005 
-4.523547114590531e-006 
0.000103481237912503 
0.000151032511670088 
-4.725900491794802e-005 
-0.0002240791169431586 
0.0001331233845442423 
0.0003141044707690447 
-9.387525085125674e-005 
0.0001151841429501044 
0.0002915001282096209 
0.0001868962017862205 
-5.81922475448781e-005 
-0.0001509088838528879 
-3.656488173573916e-006 
4.747952735768873e-005 
1.16425704362156e-005 
-5.683815311973396e-005 
1.547006652376954e-005 
1.664923287081582e-005 
1.582499459041533e-006 
-7.016089955705905e-006 
-4.612495744093969e-005 
-3.333835420401875e-005 
6.374704613479928e-005 
-6.316113481311146e-006 
8.726274760306893e-007 
0.0001127417010743953 
0.0001280250578947522 
-0.0001328539393016266 
-0.0003783127437603202 
6.389656182825044e-005 
4.166114792160906e-005 
-0.0002051756840396617 
3.983346385826747e-005 
0.000119862452015517 
0.000192674481430311 
-9.838766617905931e-005 
-0.0001333495072184376 
-8.776254211192012e-006 
-1.151085926173712e-005 
-6.920040651573539e-006 
-7.651082577469837e-005 
2.151456863404413e-005 
2.427580121444768e-005 
1.034035742837493e-005 
3.930799280276675e-005 
-4.572549166066205e-005 
-2.03788305202194e-005 
3.445871808929428e-005 
-1.306333935080716e-005 
1.799534960348279e-006 
0.0001078906300593054 
0.0001283510338059165 
-0.0001166481287683154 
-0.0004847541810735595 
0.000269069075923881 
0.0001938563422297835 
-0.0001305340685951076 
0.0002416258138014871 
0.0002194488853622127 
8.548810726984193e-005 
1.762335667147168e-005 
-0.0002002585725239302 
-4.2378559088173e-005 
-6.522952329318947e-005 
1.825016027115621e-005 
-2.507874803744195e-005 
1.454306922437107e-005 
-7.418831344815356e-005 
1.061978799468737e-005 
9.259036687078417e-005 
-5.302946536676248e-005 
5.094115907169109e-005 
9.058484894731652e-005 
5.22039062763485e-005 
6.061883970043246e-007 
-2.128432503260954e-006 
-9.69136422047508e-005 
-4.912916623130176e-005 
-0.0004973779548521 
8.965869696632615e-005 
9.779171670127426e-005 
-0.0001062480707273607 
0.0002943884755456588 
-8.308581801852256e-005 
0.0001746205935270599 
0.0001245048350485814 
-0.0001483813818123533 
-7.258432176858341e-005 
-9.456946859399554e-005 
3.555926982437755e-005 
1.493862540701076e-005 
-3.526441219711527e-005 
-8.200433878002454e-005 
-9.481989417242621e-006 
7.714956949689878e-005 
-2.159719850844622e-005 
7.725946088996543e-005 
9.411722324560566e-005 
7.918520188865881e-005 
3.398518128349775e-006 
-5.097660961243498e-005 
-6.264496226010102e-005 
2.129441602110813e-006 
-0.0002899405157464825 
0.000192957134773055 
-8.490113930014399e-005 
-9.023985337196756e-005 
0.0004508574412285192 
0.000127825351420814 
0.0004506286769342994 
0.0002832857465778834 
0.0001176265848258133 
-4.695046369895306e-005 
-9.72052770555816e-006 
8.355761135510243e-005 
6.329902737845018e-005 
-7.603480584607772e-005 
-9.410929838552862e-005 
-1.108830572243533e-005 
-8.332356382083015e-006 
-7.685317973002174e-005 
2.49129599646327e-005 
4.10083507808723e-005 
7.908165038365359e-005 
1.381392926489327e-005 
-0.0001707453369494424 
-0.0002493256078522291 
-1.44460689370296e-005 
-0.0004010264493888052 
-7.436952858191263e-005 
-0.0002289809070627414 
-0.0002727330028994474 
0.0003209663429476533 
5.768769811998042e-005 
0.0003964004443998997 
0.0002393677570035674 
0.0001036344518739905 
-1.792767129842574e-005 
7.244273093520914e-005 
9.968205999162405e-005 
6.013859317977154e-005 
2.924167703585195e-005 
-1.436169559341045e-005 
-5.184358930485104e-005 
-0.0001086160189183467 
-6.470701085211763e-005 
-9.353870845998994e-005 
-8.862899348033086e-005 
-9.450237144534435e-006 
2.124470073222453e-005 
-4.255317017186795e-005 
0.0001559543781018651 
0.0002837987491868641 
-0.0002164358535609653 
-2.909163301839542e-005 
-0.0001133033094918469 
-0.0001027331311212412 
0.0001866753623520774 
-0.0002352045638431548 
9.916324581858784e-005 
0.0001652333326039371 
6.914176255116615e-005 
-2.749133960686125e-005 
9.791534451847439e-005 
0.0001002008741646603 
8.393272139874353e-005 
0.0001087903658400393 
6.241778293789575e-005 
-6.114082381750029e-005 
-0.0001640726047646698 
-0.0001583529690851487 
-0.0001516089131596833 
-9.120245970931177e-005 
-5.884419936720664e-005 
1.591972308453443e-005 
-9.597850871567337e-005 
0.0001559998139663059 
0.0003084471773221287 
-0.0002334383766940108 
0.0003468917302033137 
4.018432383007343e-005 
-0.0003592196425389826 
-0.0001165995229598436 
-0.0002251056504851236 
-0.0001173391765670235 
-0.0002596141895281018 
-0.0001713904205597045 
-3.451884136107795e-005 
5.998749251430474e-005 
3.872334945869151e-005 
0.0001347617172841457 
0.0002165151021617343 
0.0001006002871125376 
3.713599998528297e-005 
-6.735814070985244e-005 
-7.345130146099934e-005 
-0.0001537116427000948 
-0.00011411851343176 
-5.575139064118443e-005 
1.681216799399739e-006 
-0.0002258162462720215 
0.0002242677286129898 
0.0003416872104287932 
4.592773408982523e-005 
0.0005262783345806381 
9.26062165909381e-005 
-0.0003527017092877124 
-0.0001507229138030827 
-0.0005225430838643784 
-5.054591988345439e-005 
7.676336464914959e-005 
-3.908245128497739e-005 
-7.25943599246808e-005 
-5.632303721473341e-005 
-5.929327477156594e-005 
4.863386247649399e-005 
0.0001236832912206065 
6.907836367055089e-005 
9.760363335544861e-005 
7.526609441861567e-005 
4.337371018423306e-005 
-7.161431889516761e-005 
-7.871922011613535e-005 
-8.918267703770552e-006 
-9.907395906172101e-006 
-0.0002517078207913537 
1.645586628493876e-005 
0.0001502262892382622 
0.0001415987582345137 
0.0007305188851312218 
0.0001710655012965504 
3.793123327780238e-005 
0.0001528737208279606 
-0.0001658995491744041 
-0.0002973042957299632 
-0.0002869887695298293 
-0.0001210115567266717 
-7.400023010232768e-005 
-5.78155525292216e-005 
-5.839248234282189e-005 
3.058673712050874e-006 
1.624628015210431e-005 
1.494544078667695e-005 
0.0001734852252400388 
0.0001419934162663447 
3.535010635074711e-005 
-4.20025508937231e-005 
9.299083646667192e-006 
8.465705360977481e-006 
-1.139637144982573e-005 
-0.0003276602080926315 
-5.588928320652294e-005 
6.644308353296986e-005 
-0.0001607848444807547 
0.00039751098145868 
0.0001666476559656661 
0.0001867086467644005 
0.0004282700050372616 
-4.793943340415304e-005 
-0.0001689247324277695 
-0.0002146744213278667 
-6.391875143646515e-007 
-4.74444994761486e-005 
-3.797603515343737e-005 
-2.722913240311605e-005 
-4.263764918028801e-005 
-1.603864881808883e-005 
1.969248480515692e-005 
0.0001145871368243091 
0.0001142004036525552 
4.789109175768375e-005 
-8.374569470092792e-006 
1.374149604379009e-005 
-2.732116644480935e-006 
-7.960786109276166e-006 
-0.0004150582066410125 
7.001191218761282e-006 
0.0001541078857039413 
-0.000114788428270263 
0.000492506807524814 
7.789080807609427e-005 
0.0002385013056351568 
0.0003038708347897054 
-0.0002856573930369063 
-0.0002681619436070752 
-6.73998783062575e-005 
-0.0001482831135473995 
-3.415535444554944e-005 
-3.373105743703088e-006 
-2.530893880647644e-005 
-4.888856747936633e-005 
-2.717249606976624e-005 
2.047546098075739e-005 
8.562916977921119e-006 
1.720180694777967e-005 
-1.20186842954666e-005 
0.0001010726087731223 
4.931788356593376e-005 
1.333738101226737e-005 
-6.059559344420769e-006 
-0.0003813638148899382 
3.911504887609379e-005 
0.0002036007501803733 
-3.906670722962458e-005 
0.0005650900726453877 
0.0002376559872269513 
0.0001199490971523583 
0.0003447816041268312 
-0.0002232089673067126 
-0.0001069898376305613 
3.567671625071753e-005 
-3.910722968081801e-005 
-2.107738051980031e-005 
-2.931347626814893e-005 
-3.374754114599085e-005 
-1.585399957829643e-005 
9.775737564094102e-006 
2.227878930746258e-005 
-2.263223806689343e-005 
-1.865232050386002e-005 
5.181273518295159e-006 
6.967589812035119e-005 
4.379002950027438e-006 
2.67647356026081e-005 
-1.218885745751849e-005 
-0.0003956327896204483 
-4.791180205868486e-005 
-4.489739661502377e-005 
-0.0001637027779610798 
0.0005108671233510406 
0.0002379386405696947 
0.0001141253816438268 
0.0002806272201840777 
-0.0001383580187870558 
0.0001770905082510356 
-0.00016557462991125 
-3.509075209662971e-005 
-4.757557666182099e-005 
-4.17677108734434e-005 
1.372147256399575e-005 
4.494188149625553e-006 
-3.150903233626141e-005 
3.057749145041884e-005 
1.44703718412654e-005 
1.34926026049741e-005 
1.416811767793133e-006 
3.233332344906291e-005 
-7.565863915442614e-005 
7.849045582191486e-005 
4.290492829448254e-006 
-0.0004427598192019146 
-0.0001750004584867473 
-2.791965187781978e-006 
-0.0002155979316888316 
0.0004372092472040357 
0.000198017422094175 
0.0001357354184255978 
0.0003466302098207751 
-9.568264727280131e-005 
-4.3172418738279e-005 
-0.0001436919779428328 
7.658848940345258e-005 
-6.091258784728484e-005 
-2.674967836846183e-006 
2.355791455627918e-005 
3.99829795517189e-005 
-3.847630515389343e-005 
-3.727236041100657e-005 
4.793879941534684e-005 
4.919737286036391e-005 
7.838848928892507e-005 
-1.306365634521025e-005 
-3.649862990549592e-005 
5.349174887124994e-005 
1.786458941221339e-005 
-0.0006222388802801373 
-9.477974154803676e-005 
0.0003259114556356555 
-4.051912275212349e-006 
0.0003989025868881884 
0.0002505978120565788 
0.0003029600042048647 
0.000370409544967604 
-0.0003423365206310961 
-0.0001384045112995069 
-0.0003560090175598161 
0.000186321913592646 
-5.74372725415496e-005 
3.251469708002348e-005 
3.776930197023047e-005 
7.361983681863514e-005 
-6.610601281769788e-006 
-1.542325701691515e-005 
9.163462874550671e-005 
4.612051951929661e-005 
7.232385803405507e-005 
-9.408499548129282e-005 
8.386086933404613e-006 
2.936028577500328e-005 
2.882567471421377e-005 
-0.0005726239729585187 
4.91742322689393e-005 
0.0001359858440040287 
8.102271277849569e-005 
0.0004286926642413647 
4.496491642287909e-005 
0.0002652260471105764 
0.0005458749285788646 
0.0002707211450879175 
-1.456071524614238e-005 
-5.159929228487976e-005 
0.0001176450761659931 
-3.459053492857374e-005 
4.52503170504496e-005 
-9.664683858216063e-006 
6.035045110582797e-005 
1.728961439743212e-005 
6.541285172296921e-006 
9.482253579245199e-005 
1.711484481653554e-005 
6.53880204947283e-005 
-6.981748895372565e-005 
1.343205667398634e-005 
-6.595227053220548e-006 
2.706123103428616e-005 
-0.0006178854904778777 
2.574364379789658e-006 
7.456025354776417e-005 
5.608634806043592e-005 
0.0004820724084235266 
0.000237348502655966 
0.0005075524185428648 
0.0004116061375915033 
4.006016768886826e-005 
-0.0003076404265662973 
-0.0001696908022352061 
9.118185507311163e-005 
-3.656176462410878e-006 
1.481087666257072e-005 
-5.641285229560547e-005 
9.534029331747803e-006 
2.197193872528389e-005 
1.658858127502702e-005 
6.515133134043073e-005 
-5.187793036518429e-006 
5.341302859448569e-005 
-6.315532324905509e-005 
2.545454490228987e-005 
-2.167433381319495e-005 
3.085383684822793e-021 
2.65293366058007e-020 
1.613002194478404e-020 
6.003676885909875e-021 
-4.536258479240804e-021 
1.800937629650452e-020 
-1.647743780205631e-021 
-2.241328587773684e-020 
-6.315689412964877e-020 
1.070785302949894e-021 
-3.348427119614656e-021 
9.725576052092223e-022 
1.250118059751391e-020 
-7.932662074383535e-022 
2.576460812949543e-021 
-3.309549630824664e-021 
3.358353286965292e-022 
2.269783600845508e-021 
1.098495853470421e-021 
1.24308702454469e-020 
2.138055088296438e-021 
6.959897674021175e-021 
-2.299562102897417e-021 
5.135033845152627e-021 
1.557167503131075e-021 
6.557474306014127e-022 
-1.029012682015966e-020 
4.40953440939768e-020 
-4.901872309989242e-021 
3.63628597278311e-021 
-7.643148859989976e-022 
-1.080297879994254e-021 
1.889942263561158e-020 
-8.040195554015429e-021 
2.374339230272211e-020 
3.494010907423989e-021 
-1.656181022453672e-020 
-7.639840137539764e-021 
-1.219760531270695e-020 
1.538555939348632e-022 
-2.059679725257039e-021 
-2.725560118362226e-021 
-1.126123685929692e-020 
1.060776417538003e-020 
-3.005974346017703e-021 
-1.10097739530808e-021 
1.691584352670942e-021 
4.118842462631232e-021 
-4.883415842571653e-021 
-1.758585982287737e-021 
-2.59341801550688e-021 
-3.556876633978019e-021 
-1.338378231110799e-020 
7.370179257847477e-021 
-8.154346478547747e-021 
-2.421674640825558e-021 
-1.268895059656345e-020 
-3.147918539131802e-020 
1.262939359245963e-020 
9.14696321361138e-021 
-9.668086999519788e-021 
3.096964213398536e-020 
-3.313685533887429e-021 
-4.403909581232319e-021 
-1.875218448657714e-021 
-1.749486995549654e-021 
-2.519592145836522e-021 
-7.070739876103281e-021 
-1.634508890404783e-021 
-6.511565782017434e-021 
1.241515381380839e-020 
-1.00957393762097e-021 
-8.098098196894141e-022 
7.301109676699299e-021 
2.685855448959681e-021 
6.268478079503413e-022 
1.051346558554898e-021 
2.263331592067594e-020 
-2.383024626704017e-020 
-9.965872020038877e-021 
-2.035856923615512e-020 
-1.795312801485091e-020 
-4.05715546845009e-020 
4.128954745619693e-020 
2.670469889566195e-020 
1.947514034194848e-020 
6.346129659506828e-021 
-4.090739001319743e-020 
2.656076946907772e-021 
-1.25276503771156e-021 
-4.982936010019439e-021 
-3.379859982891671e-021 
-3.580037691129504e-021 
3.814129804482011e-021 
3.610643373793966e-022 
-3.025826680718975e-021 
-9.029917156935127e-021 
1.689929991445836e-021 
5.161607022330893e-022 
-1.457078649012158e-021 
2.632502299450011e-022 
-1.845812177881454e-020 
-2.815350573854857e-020 
-7.975675466236293e-021 
3.948133063715601e-021 
-5.834932040949057e-021 
-2.477571370718829e-020 
-7.240146465554141e-020 
-3.356698925740186e-020 
1.043074752429368e-021 
1.861156378244312e-021 
-6.299807545203859e-021 
-8.546016498591605e-021 
-3.672681919735443e-022 
4.066006301004408e-021 
7.348672561921098e-021 
3.016314103674615e-021 
1.334118250956151e-020 
-1.213473958615292e-021 
9.752459422000196e-022 
3.604025928893542e-021 
-8.264775090323576e-021 
-9.55393607498747e-023 
-1.719708493497745e-021 
2.571290934121087e-021 
1.625823493972976e-021 
1.03124606966986e-020 
-1.724671577173063e-020 
4.764229456060418e-020 
-1.124758837918979e-021 
-1.701179647776557e-020 
-9.178396076888395e-021 
-5.006758811660966e-020 
-8.746607797135715e-021 
2.488159282559507e-021 
-2.600655845866719e-021 
-1.04973355636042e-020 
-1.187169615136105e-020 
-2.457967190201322e-021 
2.148188050800213e-021 
9.730125545461265e-021 
-9.534290535439335e-022 
-2.577081198408958e-021 
-5.820869970535656e-021 
-2.24103907455929e-021 
-5.553690632681028e-021 
-4.223584207695759e-021 
-4.675224822149712e-021 
-1.02983986262852e-021 
-7.419810094600658e-022 
1.654361225106055e-024 
-1.093367333672592e-020 
-8.407050155682697e-021 
-2.348696631283067e-020 
-2.899268046998362e-021 
9.975798187389514e-021 
-6.140327123103635e-020 
-2.733004743875203e-020 
4.230201652596184e-021 
1.273858143331663e-020 
-1.442933860537502e-020 
3.089519587885558e-022 
3.898161014959741e-020 
-9.477215073173176e-021 
-1.567093670481711e-021 
3.926626367789222e-021 
2.448454613156962e-022 
1.60638474957798e-021 
8.933964205878975e-021 
-2.149015231412766e-021 
-4.332772048552759e-021 
5.542937284717838e-021 
5.988270647001075e-022 
-7.552262390185712e-021 
-7.38222507551778e-021 
1.189072130544977e-022 
5.954666434616108e-021 
-3.37055420100045e-021 
-1.306449059466252e-020 
4.681842267050137e-021 
3.002665623567491e-021 
7.547195908933825e-021 
1.038938849366603e-020 
-2.47301153759213e-021 
1.301651411913444e-020 
-1.254667553120432e-020 
2.588909881168466e-020 
-4.990876943899948e-020 
5.266038574665712e-022 
3.027481041944081e-021 
-6.158359660457291e-022 
3.209460776705747e-021 
-7.336264852732802e-021 
2.189960671734141e-021 
3.836463681020942e-021 
1.882249483864415e-021 
-7.361907451721946e-023 
6.228670012524298e-022 
-1.139668768460248e-020 
-1.635336071017336e-021 
-1.292262911960968e-021 
2.896786505160703e-021 
-8.255262513279216e-021 
-1.743489936108644e-020 
-4.575963148643349e-021 
2.767746329602431e-021 
-1.323488980084844e-021 
-1.249869905567625e-020 
5.092123850876438e-021 
9.529120656610879e-021 
1.152469388439506e-020 
-2.345057036587834e-020 
-6.724151199443562e-021 
4.369581585811369e-021 
3.364970731865717e-021 
3.836463681020942e-021 
2.415367388654841e-022 
3.166938523341693e-021 
-6.452008777913616e-021 
-8.424007358240034e-021 
-2.487538897100093e-021 
9.396771758602394e-022 
2.469961309083341e-021 
-2.9232562847624e-021 
4.127631256639608e-022 
1.535505710839842e-021 
1.23498065454167e-021 
-1.324150724574887e-020 
-2.788922153283788e-020 
-1.146141456753475e-020 
3.436894086127202e-020 
1.782739656174285e-020 
8.476946917443428e-021 
1.503566199437638e-020 
4.642137597647591e-021 
-3.649520862583958e-021 
7.136914325107523e-021 
5.247799242158918e-020 
2.42136444809585e-021 
2.311969812085712e-021 
-1.720949264416574e-021 
3.953923328003472e-021 
4.931650812041151e-021 
-1.131996668278818e-020 
5.085919996282291e-021 
1.225964385864842e-020 
-2.470788489695894e-021 
-1.045556294267027e-021 
1.755773568205057e-020 
6.220398206398768e-022 
1.92071338234813e-021 
2.544407564213113e-021 
1.766857788413267e-021 
-1.654030352861034e-020 
4.920070283465409e-021 
2.001280774010795e-020 
4.949848785517318e-020 
-8.377685243937064e-021 
8.084501415575301e-021 
-9.995650522090786e-021 
-6.8027333576361e-021 
3.603198748280989e-020 
1.55319703619082e-020 
-2.000122721153221e-021 
-6.56781406367104e-022 
-4.732713874722148e-021 
1.023387853850606e-020 
3.029135403169187e-021 
-4.708105251498695e-021 
3.494010907423989e-021 
8.776386299187624e-021 
1.249999152538336e-021 
3.342636855326785e-021 
1.750479612284717e-020 
-2.154805495700637e-021 
3.57342024622908e-022 
-8.609295815451912e-021 
-1.346650037236329e-020 
3.010275685202978e-020 
2.637051792819052e-021 
5.923274930369721e-020 
5.427628307327946e-020 
2.520584762571586e-020 
8.06501097239202e-020 
3.936056226772327e-020 
4.314574075076592e-021 
-2.173830649789357e-020 
-1.416464080935805e-020 
3.340155313489126e-021 
3.99693671985623e-021 
5.012714512071348e-022 
1.241101791074563e-020 
5.89159391290894e-022 
-5.575197328607407e-022 
-5.456083320399771e-021 
1.732943383298593e-022 
-4.229374471983631e-021 
3.253301349171058e-021 
-1.118348188171693e-021 
-4.416317290420615e-021 
5.957768361913182e-022 
7.438008068076825e-021 
1.074838487951404e-020 
4.738752293193785e-020 
-3.952599839023387e-020 
-1.591578216613281e-020 
-1.107760276331015e-020 
-1.727153119010722e-021 
5.294121356461888e-020 
-1.837664448847806e-020 
-1.586366978754197e-020 
-6.394437007279925e-020 
1.04092408283673e-020 
7.12781533836944e-021 
3.262400335909141e-021 
-4.418385241951997e-021 
7.299041725167916e-021 
-2.650286682619901e-021 
1.938745919701786e-020 
1.77843831698901e-021 
2.356430770010438e-022 
-2.632295504296872e-021 
1.368156733162708e-021 
-2.394687873341015e-021 
-5.223231977966093e-021 
-3.315443292689104e-022 
-2.104347478334902e-021 
-9.289238278970501e-022 
2.216347733274582e-020 
-6.131724444733084e-020 
-8.404155023538761e-021 
-3.062925731191979e-020 
2.186403795100163e-020 
-3.920836103501351e-022 
8.495641199287126e-020 
-1.80854769128594e-020 
-3.839772403471155e-020 
1.571643163850753e-021 
-1.919472611429301e-021 
-3.395576414530179e-022 
1.348717988767712e-021 
-1.927951212707969e-021 
4.010171609657078e-021 
-7.709323308994218e-022 
7.763090048810165e-021 
-2.153978315088084e-021 
-3.257437252233823e-021 
4.315401255689145e-021 
1.299500742320807e-020 
1.697374616958813e-021 
2.095868877056234e-021 
-9.845103650606135e-021 
-4.243436542397032e-021 
-2.275573865133379e-021 
-3.012922663163148e-020 
-9.678013166870424e-022 
6.318998135415089e-020 
2.564259898914386e-020 
-9.970835103714196e-021 
1.547158617719183e-020 
-1.495749342649012e-021 
-6.99133053729819e-021 
-7.599721877830942e-023 
-7.721731018182513e-022 
1.887626157846009e-021 
-1.235228808725436e-020 
-6.041727194087314e-021 
-1.26465575901701e-021 
2.830942928401482e-020 
-8.993107619676517e-021 
3.277703177241372e-021 
3.698738109030863e-021 
-6.693959107085377e-022 
2.345884217200387e-021 
4.212003679120017e-021 
2.84136540411965e-021 
2.16655146039889e-020 
-4.426088361406397e-021 
3.773184364160636e-021 
-5.773720675620133e-020 
-3.219386944056384e-021 
-2.924910645987506e-020 
-1.398596979704659e-020 
4.962256494705613e-021 
2.294433583099588e-020 
-2.341644916561052e-021 
-9.86826470775762e-021 
9.278484931007311e-021 
2.679548196788964e-022 
1.314389993346761e-021 
-5.836586402174163e-021 
1.697374616958813e-021 
-8.494317710307041e-021 
7.514935865044256e-021 
1.364848010712496e-022 
2.283018490646356e-021 
-1.590668317939472e-021 
-3.972741686939054e-021 
-5.115284908027923e-021 
4.826598874246917e-021 
9.971662284326749e-022 
-1.224227306578481e-022 
9.413315370853455e-022 
-4.245090903622138e-021 
-2.522652714102969e-020 
-4.81667270689628e-021 
-1.660647797761458e-020 
1.302147720280976e-020 
5.623173804135482e-021 
-4.361645821809688e-021 
-4.190496983193638e-021 
3.141321773746692e-021 
-5.385721269544479e-021 
-1.537108373276664e-021 
2.303698005960182e-022 
-1.518290014341082e-021 
-1.599767304677556e-021 
-1.033975765691285e-023 
-1.394626512764405e-021 
5.430440721410627e-022 
-3.937379715752412e-022 
4.505652796576342e-021 
1.881008712945585e-021 
-5.973898383857966e-021 
-1.754036488918695e-021 
-8.770182444593476e-022 
1.386354706638874e-020 
1.670904837357116e-021 
5.741460631730565e-021 
-1.250697086180178e-021 
1.75395377085744e-020 
1.350289631931562e-020 
-3.780215399367337e-021 
-8.428970441915352e-021 
-1.477840882387239e-020 
-3.735547646289473e-021 
-3.269017780809565e-021 
1.970013346856291e-020 
-9.967526381263984e-023 
4.071796565292279e-022 
-5.885390058314792e-022 
-1.102466320410675e-020 
-1.154020352088043e-021 
4.342698215903395e-022 
-5.541903308952147e-021 
-6.648877763701237e-021 
-3.224763618037978e-021 
-1.495542547495874e-021 
5.840618907660359e-021 
-8.087758439237228e-022 
-5.506954928071782e-022 
-1.563371357725222e-021 
8.23706453980305e-021 
-7.580283133435946e-021 
2.344643446281557e-021 
-9.000138654883218e-021 
3.279771128772755e-021 
-2.34687683393545e-020 
-2.240005098793599e-021 
-1.794320184750028e-020 
3.801722095293715e-021 
1.437639904617162e-021 
-1.739726264321528e-020 
-1.698201797571366e-021 
2.810966516608326e-021 
-1.882663074170691e-021 
2.022456597692153e-021 
-6.223293338542704e-021 
-9.27269466671944e-022 
5.641164982458511e-021 
-6.128581158405382e-021 
-1.622514771522764e-021 
-2.167213204888933e-021 
-1.558821864356181e-021 
3.815163780247702e-021 
-7.230592529479153e-022 
8.402500662313655e-021 
-2.005912985441092e-021 
-1.128605227767351e-020 
-7.371833619072583e-021 
1.346153728868797e-020 
5.492479267352104e-022 
-4.910557706421049e-021 
-1.118017315926672e-020 
3.661101391159701e-021 
-3.823228791220094e-021 
1.051511994677409e-020 
-1.110407254291184e-020 
5.306363629527673e-022 
-2.698263158147976e-021 
8.629561740459461e-022 
-5.560721667887729e-022 
1.909766163928874e-021 
1.699028978183919e-021 
9.098986738083304e-024 
4.623939624171425e-022 
1.712263867984767e-022 
2.481541837659083e-024 
-1.592322679164578e-021 
-5.738979089892906e-021 
4.685978170112902e-022 
7.922735907032899e-021 
-1.554479166140277e-020 
3.230967472632126e-021 
4.674811231843436e-021 
9.247879248342849e-022 
6.400723579935328e-021 
-4.153067060475614e-021 
-1.235146090664181e-020 
4.538326430772186e-021 
2.01087606911641e-021 
1.584381745284069e-020 
-5.385152582873348e-021 
1.351199530605371e-021 
2.749548356126264e-021 
-1.365209902230488e-021 
1.094938976836443e-020 
-2.885826362044375e-022 
2.061747676788422e-021 
-6.744830714757388e-021 
7.025865327872279e-022 
-7.692779696743157e-022 
-2.773536593890302e-021 
3.806271588662757e-021 
-2.130817257936599e-021 
1.023636008034372e-022 
7.833400400877172e-022 
3.310170016284079e-021 
-7.173310272059856e-021 
-2.906712672511339e-021 
-2.622162541793098e-021 
1.881670457435627e-020 
-5.629791249035906e-021 
-2.720100726319376e-020 
-1.460304653401115e-020 
-1.21860247841312e-020 
-3.379859982891671e-021 
-1.164670302474663e-021 
4.025474450989309e-021 
2.265647697782743e-021 
-1.425232195428867e-021 
1.644435057755419e-021 
-8.036059650952664e-022 
3.663996523303636e-021 
3.162311481790225e-021 
4.903113080908072e-022 
2.600655845866719e-021 
-1.198171117283061e-021 
2.289222345240504e-022 
-5.525566491854225e-022 
-2.230078931442963e-021 
-2.871143906171559e-021 
-1.658828000413842e-020 
-3.846389848371579e-021 
-2.715137642644058e-020 
1.952559835931422e-021 
2.127508535486387e-021 
1.783401400664328e-021 
3.209460776705747e-022 
4.466775307786349e-021 
1.045928525542676e-020 
-4.154101036241305e-021 
-3.869550905523064e-021 
4.586716496606539e-022 
-2.481541837659083e-023 
-9.313226516734539e-021 
-5.889525961377557e-022 
1.470727129119283e-021 
1.01908651466533e-020 
-2.815722805130506e-021 
-7.510799961981491e-022 
1.3524403015242e-021 
1.442809783445619e-021 
4.284795573024683e-022 
-9.479489819857697e-021 
2.38228016415272e-021 
5.717472393966527e-021 
6.319659879905131e-022 
1.307720849658052e-022 
5.381967937515019e-020 
-6.677001904528039e-021 
-5.968935300182648e-021 
3.507245797224837e-021 
1.653368608370992e-020 
9.330597309598152e-022 
-7.610061635487855e-023 
-3.519653506413133e-021 
-2.272265142683167e-021 
-5.693070565896213e-022 
-5.806807900122254e-021 
-2.654836175988942e-021 
-5.838240763399269e-021 
1.251007278909885e-021 
-1.095683439387741e-020 
1.510266362399318e-020 
-1.289367779817032e-022 
3.970466940254533e-022 
-2.365736551901659e-022 
-1.766857788413267e-021 
-4.408872664907638e-021 
4.975491384506462e-022 
-3.487807052829841e-021 
-7.22624983126325e-021 
5.940811159355845e-021 
-5.368071303224128e-020 
8.902117752295684e-021 
7.263969267195668e-020 
-4.369498867750113e-020 
5.80019045522183e-021 
-9.340523476948789e-021 
-1.253426782201603e-020 
1.749486995549654e-021 
-3.602537003790946e-020 
-1.329692834678992e-022 
-1.955454968075357e-021 
-3.897054660890452e-022 
3.682608087086079e-021 
4.61980372110866e-022 
9.14696321361138e-021 
1.498851269946086e-021 
2.864526461271135e-021 
1.406207041340147e-023 
6.840783665813539e-022 
-1.483962018920132e-021 
1.615070146009787e-021 
1.251524266792731e-021 
6.72911428311888e-022 
-1.609362599783171e-020 
1.257314531080602e-022 
5.605637575149358e-020 
-4.963083675318166e-024 
-5.814087089512721e-020 
-2.030893839940194e-020 
-2.458380780507598e-021 
3.842750253676345e-020 
2.896786505160703e-021 
9.343832199399001e-021 
-9.228026913641577e-021 
8.954230130886525e-023 
-6.852364194389281e-021 
-2.12006390997341e-021 
-2.816549985743059e-022 
-2.5032553287386e-022 
3.327540809147692e-021 
1.029426272322243e-021 
-2.244761387315779e-022 
-4.235164736271502e-022 
-4.35758746692935e-021 
2.776018135727961e-021 
-9.413315370853455e-022 
-1.954214197156528e-022 
-1.575344797091927e-020 
-3.865249566337788e-020 
2.872798267396665e-021 
-1.054820717127621e-020 
2.362427829451447e-021 
-2.537790119312689e-020 
-2.567899493609619e-020 
3.001011262342384e-021 
-7.517417406881916e-021 
2.339266772299962e-021 
-3.123433993000233e-021 
-3.255782891008717e-021 
5.997059441009451e-024 
2.194510165103182e-021 
-1.727773504470137e-022 
-8.372450741623252e-021 
2.452176925913451e-021 
-1.348635270706456e-020 
-9.917895544510802e-022 
4.16899028726726e-022 
1.737079286361358e-022 
3.353596998443113e-021 
-1.055068871311387e-021 
-2.20366085062955e-023 
5.378354192213928e-022 
1.857020475181547e-022 
-5.497111478782401e-020 
-2.018320694629388e-021 
3.480776017623141e-021 
-5.56527116125677e-021 
-1.776783955763903e-021 
1.95892912664808e-020 
2.281695001666272e-020 
-7.557122076284461e-021 
-4.542875924141228e-021 
1.626567956524274e-020 
-1.828400025987212e-020 
-9.785546646502317e-022 
4.162786432673112e-022 
1.091878408569997e-022 
-4.961842904399337e-021 
-1.378082900513344e-021 
-2.580803511165446e-022 
6.667075737177403e-022 
1.888453338458562e-021 
8.178748306618061e-021 
-1.258555301999432e-021 
-3.790141566717973e-021 
-1.356989794893242e-021 
-5.754075136071999e-022 
-6.27830084927748e-021 
5.694973081305085e-020 
-6.416853601880112e-021 
-1.411500997260486e-020 
7.757920169981708e-022 
3.775252315692018e-021 
1.133237439197648e-021 
1.181089837633841e-020 
-1.929646932963703e-020 
3.297969102248921e-021 
1.523335816077656e-020 
1.48892510259545e-022 
-2.477405934596318e-022 
8.997140125162713e-022 
1.005851624864482e-021 
5.398180677521059e-021 
9.301645988158796e-022 
-4.637174513972273e-021 
2.575840427490128e-021 
-1.78406314515437e-020 
-3.953923328003472e-021 
-6.600901288173161e-022 
-1.017432153440224e-021 
1.716399771047532e-022 
-1.271273203917434e-022 
-1.875880193147756e-020 
-4.881027358552906e-020 
6.498330892216585e-021 
-1.281799077212172e-020 
2.878588531684536e-021 
-6.281609571727692e-021 
1.56270961323518e-020 
-3.35504456451508e-021 
2.557642454013962e-021 
4.541635153222398e-021 
-7.130296880207099e-022 
7.768880313098036e-021 
1.19114008207636e-022 
3.281011899691584e-021 
-6.688582433103782e-021 
-6.189792523734306e-021 
3.470022669659951e-022 
2.104347478334902e-021 
-1.158052857574239e-022 
5.171533189681529e-021 
-1.765203427188161e-021 
-1.797877061384006e-021 
3.609816193181413e-021 
-3.528959288304354e-022 
5.374993770975432e-022 
-4.463466585336137e-021 
1.494880803005832e-020 
-9.965872020038877e-021 
-1.954131479095273e-020 
-2.375662719252296e-021 
5.437885346923604e-021 
4.215312401570229e-021 
3.601875259300904e-020 
6.536381200394025e-021 
3.159829939952566e-021 
-6.857327278064599e-022 
1.807224202305855e-020 
2.096075672209372e-021 
5.659983341394092e-021 
-4.665298654799076e-021 
-1.190312901463807e-020 
1.141509245323178e-022 
-2.521246507061628e-021 
-8.168408548961148e-022 
-2.527863951962053e-021 
4.215312401570229e-021 
-2.685855448959681e-021 
7.205570315949424e-021 
2.407922763141864e-021 
-4.961015723786784e-022 
-3.023345138881316e-021 
-2.447131124176877e-020 
9.866610346532514e-021 
-1.500836503416213e-020 
9.32728858714794e-021 
-3.323611701238065e-021 
8.586134758300427e-022 
1.311908451509102e-021 
2.762783245927112e-021 
-2.207745054904031e-021 
-1.199742760446911e-020 
-2.785944303078597e-021 
-2.851911956929701e-021 
2.161009350294785e-021 
7.457860402778098e-021 
4.598297025182281e-021 
1.847921488443464e-021 
-2.014598381872899e-021 
1.319353077022079e-021 
-3.656138307484382e-021 
-4.534604118015698e-021 
-2.204436332453819e-021 
-8.561319339923836e-022 
-4.020924957620268e-021 
1.108422020821057e-021 
2.278055406971038e-021 
1.429368098491632e-021 
-1.943543567254594e-020 
-9.657333651556598e-022 
-6.170767369645587e-022 
-5.750559618468648e-021 
-1.569988802625647e-021 
-1.750314176162207e-021 
5.123556714153453e-021 
-1.179559553500618e-020 
3.04898773787046e-021 
-1.259961509040772e-020 
9.655265700025216e-022 
4.698385879301197e-022 
-1.863637920081971e-021 
1.181213914725724e-021 
-2.936491174563248e-022 
5.382490095276693e-022 
-3.44520725128336e-022 
1.069958122337341e-021 
1.02735832079086e-021 
7.641080908458593e-022 
-3.293833199186156e-021 
2.704880603048401e-022 
3.57342024622908e-022 
2.578321969327787e-021 
-5.624828165360588e-021 
-3.039392442764845e-020 
5.634754332711225e-021 
3.813302623869458e-021 
2.22925175083041e-022 
1.864878691000801e-021 
1.343341314786117e-020 
-6.905303753592675e-021 
-6.857327278064599e-021 
-2.355810384551023e-021 
7.841672207002702e-021 
-5.192626295301631e-022 
9.165161187087547e-022 
3.561012537040784e-022 
-6.390487219854984e-022 
-6.857327278064599e-022 
1.022188441962404e-021 
-5.025122221259643e-022 
-2.637878973431605e-021 
4.337528337074939e-023 
1.085157566093003e-022 
-6.579394592246782e-021 
2.786357893384874e-021 
-1.323488980084844e-023 
-8.437242248040882e-022 
-4.135903062765138e-023 
-8.470329472543003e-022 
1.588186776101813e-021 
1.667596114906904e-021 
4.102815838263017e-022 
3.044024654195142e-022 
7.47771273747937e-022 
1.111730743271269e-021 
4.632211430296955e-022 
-1.085260963669572e-021 
4.896909226313924e-022 
-3.970466940254533e-022 
1.720535674110298e-022 
-2.283018490646356e-022 
3.176373552203626e-022 
1.435985543392056e-021 
-8.404155023538761e-022 
1.654361225106055e-022 
0 
-5.161607022330893e-022 
-4.632211430296955e-022 
-2.117582368135751e-022 
8.602678370551488e-023 
-3.639594695233322e-023 
-6.915229920943311e-022 
2.646977960169689e-023 
-9.926167350636332e-023 
-1.641126335305207e-021 
-7.411538288475128e-022 
7.77549775799846e-023 
1.287299828285649e-023 
2.38228016415272e-022 
-1.435985543392056e-021 
6.617444900424221e-022 
-5.293955920339377e-023 
-1.005851624864482e-021 
0 
-9.26442286059391e-023 
2.895132143935597e-022 
-2.646977960169689e-023 
-1.406207041340147e-021 
-3.507245797224837e-022 
5.161607022330893e-022 
-5.293955920339377e-023 
-4.499862532288471e-022 
-2.514629062161204e-022 
2.812414082680294e-023 
1.414478847465677e-022 
-1.985233470127266e-023 
3.176373552203626e-022 
3.705769144237564e-022 
-2.117582368135751e-022 
6.617444900424221e-022 
-2.514629062161204e-022 
2.646977960169689e-023 
6.352747104407253e-022 
-1.058791184067875e-022 
1.402898318889935e-021 
1.164670302474663e-021 
7.146840492458159e-022 
2.567568621364598e-021 
2.9778502051909e-023 
1.158052857574239e-022 
-1.985233470127266e-022 
7.676236084492097e-022 
4.226892930145971e-022 
4.135903062765138e-023 
-5.293955920339377e-023 
5.293955920339377e-023 
2.646977960169689e-023 
1.389663429089087e-022 
9.26442286059391e-023 
-7.940933880509066e-023 
-1.257314531080602e-022 
-9.529120656610879e-022 
1.641126335305207e-021 
-5.293955920339377e-022 
-9.769132281221968e-022 
1.799945012915388e-021 
-1.058791184067875e-021 
3.705769144237564e-022 
0 
1.747005453711994e-021 
1.799945012915388e-021 
-1.167979024924875e-021 
-1.747005453711994e-021 
9.26442286059391e-023 
-9.926167350636332e-023 
-1.19114008207636e-022 
-3.970466940254533e-022 
-1.058791184067875e-022 
9.926167350636332e-024 
1.654361225106055e-022 
2.38228016415272e-022 
7.940933880509066e-023 
-5.293955920339377e-023 
1.237462196379329e-021 
-1.19114008207636e-022 
1.985233470127266e-023 
-1.59811294345245e-021 
-3.970466940254533e-023 
-9.289238278970501e-022 
1.482307657695026e-021 
-3.206152054255535e-021 
1.058791184067875e-022 
1.058791184067875e-022 
4.499862532288471e-022 
-2.858736196983264e-021 
9.529120656610879e-022 
-2.646977960169689e-022 
9.793818452627848e-022 
3.57342024622908e-022 
9.26442286059391e-023 
4.499862532288471e-022 
2.38228016415272e-022 
-3.970466940254533e-023 
1.985233470127266e-022 
-3.441071348220595e-022 
1.588186776101813e-022 
2.117582368135751e-022 
3.176373552203626e-022 
7.940933880509066e-023 
7.279189390466644e-023 
9.926167350636332e-024 
-3.176373552203626e-022 
2.646977960169689e-023 
5.293955920339377e-023 
-9.529120656610879e-022 
1.654361225106055e-023 
-6.617444900424221e-024 
1.058791184067875e-022 
-7.940933880509066e-023 
1.376428539288238e-021 
1.058791184067875e-022 
7.411538288475128e-022 
-9.926167350636332e-024 
-2.646977960169689e-023 
-9.26442286059391e-023 
-1.058791184067875e-022 
3.308722450212111e-022 
1.124965633072118e-022 
-3.970466940254533e-022 
-1.323488980084844e-023 
2.646977960169689e-022 
5.029258124322408e-022 
-7.279189390466644e-023 
-3.308722450212111e-024 
-1.654361225106055e-024 
1.654361225106055e-024 
7.940933880509066e-023 
1.819797347616661e-023 
-1.058791184067875e-021 
-3.705769144237564e-022 
-1.985233470127266e-023 
-2.117582368135751e-022 
-6.352747104407253e-022 
-8.602678370551488e-023 
-8.470329472543003e-022 
2.646977960169689e-022 
-4.632211430296955e-023 
-3.308722450212111e-022 
0 
-1.654361225106055e-023 
-1.323488980084844e-023 
1.654361225106055e-023 
6.617444900424221e-023 
-9.26442286059391e-023 
0 
7.940933880509066e-023 
-9.26442286059391e-023 
-9.926167350636332e-024 
1.124965633072118e-022 
-2.117582368135751e-022 
2.067951531382569e-025 
3.970466940254533e-023 
-6.948317145445433e-023 
-5.823351512373315e-022 
6.88214269644119e-022 
0 
7.940933880509066e-022 
-1.323488980084844e-022 
-2.117582368135751e-022 
7.411538288475128e-022 
3.705769144237564e-022 
-2.646977960169689e-022 
1.985233470127266e-022 
4.963083675318166e-023 
-9.926167350636332e-024 
8.271806125530277e-024 
-1.158052857574239e-022 
-3.970466940254533e-023 
4.632211430296955e-023 
5.293955920339377e-023 
-1.323488980084844e-023 
1.323488980084844e-023 
-3.970466940254533e-023 
-1.720535674110298e-022 
3.970466940254533e-023 
-3.970466940254533e-023 
-3.705769144237564e-022 
9.926167350636332e-023 
6.88214269644119e-022 
2.223461486542538e-021 
-1.323488980084844e-023 
-5.293955920339377e-023 
2.646977960169689e-023 
3.705769144237564e-022 
0 
-2.646977960169689e-023 
-1.654361225106055e-024 
-3.970466940254533e-022 
-3.308722450212111e-023 
-9.926167350636332e-024 
-9.26442286059391e-023 
-1.085674553975849e-024 
3.308722450212111e-023 
1.919059021123024e-022 
-9.26442286059391e-023 
2.646977960169689e-022 
1.19114008207636e-022 
9.26442286059391e-023 
-6.617444900424221e-024 
-1.058791184067875e-022 
2.316105715148478e-023 
2.911675756186657e-022 
-1.323488980084844e-023 
4.499862532288471e-022 
-5.823351512373315e-022 
5.823351512373315e-022 
1.058791184067875e-022 
2.38228016415272e-022 
5.823351512373315e-022 
-1.588186776101813e-022 
-5.029258124322408e-022 
-1.257314531080602e-022 
-4.764560328305439e-022 
3.308722450212111e-023 
-1.323488980084844e-023 
7.940933880509066e-023 
-9.926167350636332e-024 
5.624828165360588e-023 
3.705769144237564e-022 
-1.654361225106055e-024 
-6.617444900424221e-023 
3.970466940254533e-023 
2.448454613156962e-022 
-5.955700410381799e-023 
3.970466940254533e-023 
3.143286327701505e-023 
-5.293955920339377e-022 
-3.308722450212111e-023 
-9.098986738083304e-024 
1.058791184067875e-021 
5.293955920339377e-022 
3.970466940254533e-023 
-1.455837878093329e-022 
-2.117582368135751e-022 
-1.164670302474663e-021 
-1.588186776101813e-022 
4.632211430296955e-023 
-1.588186776101813e-021 
5.624828165360588e-023 
-5.293955920339377e-023 
-1.323488980084844e-022 
1.323488980084844e-023 
-1.406207041340147e-023 
-1.058791184067875e-022 
-2.117582368135751e-022 
-2.646977960169689e-023 
-3.970466940254533e-023 
1.389663429089087e-022 
4.963083675318166e-024 
-3.970466940254533e-023 
6.617444900424221e-024 
-6.88214269644119e-022 
-1.323488980084844e-022 
-5.293955920339377e-022 
5.293955920339377e-022 
-7.940933880509066e-022 
-2.646977960169689e-023 
3.176373552203626e-022 
-1.058791184067875e-022 
5.823351512373315e-022 
5.293955920339377e-023 
6.617444900424221e-023 
8.470329472543003e-022 
3.308722450212111e-024 
3.970466940254533e-023 
1.323488980084844e-022 
-1.455837878093329e-022 
1.985233470127266e-022 
-5.293955920339377e-023 
1.985233470127266e-022 
3.970466940254533e-023 
0 
-7.279189390466644e-023 
5.293955920339377e-023 
4.632211430296955e-023 
-6.617444900424221e-024 
-6.352747104407253e-022 
-1.058791184067875e-022 
3.970466940254533e-023 
-4.764560328305439e-022 
-3.044024654195142e-022 
3.705769144237564e-022 
5.029258124322408e-022 
-7.411538288475128e-022 
-2.646977960169689e-023 
-2.646977960169689e-023 
2.514629062161204e-022 
-3.705769144237564e-022 
-5.293955920339377e-023 
-6.617444900424221e-024 
2.051407919131509e-022 
2.38228016415272e-022 
-7.940933880509066e-023 
4.963083675318166e-024 
3.639594695233322e-023 
0 
4.764560328305439e-022 
6.617444900424221e-023 
3.308722450212111e-023 
-9.926167350636332e-024 
-4.963083675318166e-023 
2.117582368135751e-022 
-7.940933880509066e-023 
2.646977960169689e-023 
0 
-6.088049308390284e-022 
-5.293955920339377e-022 
-3.441071348220595e-022 
3.176373552203626e-022 
1.588186776101813e-022 
-5.293955920339377e-023 
-1.058791184067875e-022 
-2.117582368135751e-022 
-4.632211430296955e-023 
-1.654361225106055e-024 
1.654361225106055e-022 
5.293955920339377e-023 
-1.720535674110298e-022 
5.955700410381799e-023 
2.646977960169689e-023 
1.19114008207636e-022 
1.588186776101813e-022 
-7.279189390466644e-023 
-2.481541837659083e-023 
1.985233470127266e-023 
4.632211430296955e-023 
2.646977960169689e-023 
3.176373552203626e-022 
7.676236084492097e-022 
-1.852884572118782e-022 
2.646977960169689e-023 
-1.323488980084844e-023 
1.861156378244312e-024 
2.646977960169689e-023 
-9.26442286059391e-023 
-1.164670302474663e-021 
9.926167350636332e-024 
-1.217609861678057e-021 
5.955700410381799e-023 
2.9778502051909e-023 
-1.058791184067875e-022 
7.940933880509066e-023 
-9.26442286059391e-023 
-6.617444900424221e-024 
-4.632211430296955e-023 
-8.602678370551488e-023 
-6.617444900424221e-023 
4.963083675318166e-024 
-3.044024654195142e-022 
-2.38228016415272e-022 
-1.985233470127266e-023 
-2.646977960169689e-023 
-1.588186776101813e-022 
1.005851624864482e-021 
2.646977960169689e-022 
2.38228016415272e-022 
0 
6.617444900424221e-023 
2.117582368135751e-022 
-5.293955920339377e-022 
1.588186776101813e-022 
-9.26442286059391e-023 
-7.940933880509066e-023 
-8.685396431806791e-024 
3.474158572722716e-023 
3.904292491250291e-022 
-7.279189390466644e-023 
-4.632211430296955e-023 
-1.323488980084844e-023 
-1.985233470127266e-023 
-6.617444900424221e-023 
4.135903062765138e-024 
2.117582368135751e-022 
3.970466940254533e-023 
-1.058791184067875e-022 
1.654361225106055e-023 
1.588186776101813e-022 
0 
5.293955920339377e-023 
-4.764560328305439e-022 
-1.058791184067875e-022 
6.617444900424221e-023 
-1.985233470127266e-022 
-3.441071348220595e-022 
5.955700410381799e-023 
4.235164736271502e-022 
1.323488980084844e-022 
3.57342024622908e-022 
1.240770918829542e-024 
-1.323488980084844e-023 
-7.940933880509066e-023 
-6.617444900424221e-023 
2.150669592637872e-023 
-4.632211430296955e-023 
1.654361225106055e-024 
0 
-6.617444900424221e-023 
-1.058791184067875e-022 
3.970466940254533e-023 
6.617444900424221e-023 
-5.790264287871194e-024 
3.176373552203626e-022 
5.293955920339377e-022 
5.823351512373315e-022 
-9.793818452627848e-022 
3.970466940254533e-023 
6.617444900424221e-024 
-1.852884572118782e-022 
-2.249931266144235e-022 
4.235164736271502e-022 
-2.646977960169689e-023 
-5.293955920339377e-023 
-2.117582368135751e-022 
3.474158572722716e-023 
-2.646977960169689e-023 
8.271806125530277e-024 
-1.323488980084844e-023 
-5.293955920339377e-023 
-6.617444900424221e-023 
2.895132143935597e-024 
-3.474158572722716e-023 
3.308722450212111e-023 
-1.124965633072118e-022 
0 
-2.812414082680294e-023 
-6.617444900424221e-024 
2.38228016415272e-022 
-9.926167350636332e-023 
-5.293955920339377e-023 
7.940933880509066e-023 
3.705769144237564e-022 
0 
-3.308722450212111e-023 
5.293955920339377e-023 
-8.999725064576941e-022 
-1.588186776101813e-022 
-5.029258124322408e-022 
7.146840492458159e-022 
-4.301339185275744e-023 
2.9778502051909e-023 
2.895132143935597e-024 
1.257314531080602e-022 
-1.323488980084844e-023 
1.19114008207636e-022 
5.624828165360588e-023 
-1.48892510259545e-023 
3.970466940254533e-023 
-9.26442286059391e-023 
-3.308722450212111e-024 
4.963083675318166e-024 
1.571643163850753e-023 
3.044024654195142e-022 
-1.720535674110298e-022 
-1.058791184067875e-021 
-2.646977960169689e-022 
1.058791184067875e-022 
1.19114008207636e-022 
1.985233470127266e-023 
2.646977960169689e-022 
8.470329472543003e-022 
6.617444900424221e-023 
5.293955920339377e-023 
1.455837878093329e-022 
-6.617444900424221e-023 
-6.948317145445433e-023 
-1.522012327097571e-022 
6.617444900424221e-023 
-6.617444900424221e-024 
-2.117582368135751e-022 
9.926167350636332e-024 
1.48892510259545e-023 
-7.940933880509066e-023 
3.308722450212111e-024 
8.271806125530277e-024 
-6.617444900424221e-023 
6.617444900424221e-024 
1.323488980084844e-022 
9.26442286059391e-023 
7.940933880509066e-022 
-8.470329472543003e-022 
-1.005851624864482e-021 
3.970466940254533e-022 
-1.240770918829542e-024 
5.955700410381799e-023 
1.323488980084844e-022 
4.499862532288471e-022 
1.588186776101813e-022 
1.720535674110298e-022 
9.26442286059391e-023 
5.459392042849983e-023 
2.117582368135751e-022 
-5.624828165360588e-023 
4.632211430296955e-023 
1.588186776101813e-022 
3.308722450212111e-024 
-1.852884572118782e-022 
-2.249931266144235e-022 
1.852884572118782e-022 
0 
4.632211430296955e-023 
-1.075334796318936e-023 
2.646977960169689e-023 
1.323488980084844e-023 
5.823351512373315e-022 
3.705769144237564e-022 
-2.117582368135751e-022 
6.88214269644119e-022 
-1.124965633072118e-022 
3.308722450212111e-023 
-2.646977960169689e-022 
1.588186776101813e-022 
-2.117582368135751e-022 
-1.323488980084844e-022 
4.135903062765138e-024 
-8.602678370551488e-023 
1.058791184067875e-022 
1.588186776101813e-022 
-1.852884572118782e-022 
1.19114008207636e-022 
1.058791184067875e-022 
3.441071348220595e-022 
1.058791184067875e-022 
3.639594695233322e-023 
-9.926167350636332e-024 
1.985233470127266e-023 
1.323488980084844e-023 
9.926167350636332e-024 
-3.639594695233322e-023 
-1.720535674110298e-022 
5.293955920339377e-022 
3.176373552203626e-022 
-1.588186776101813e-022 
5.293955920339377e-023 
1.270549420881451e-021 
1.323488980084844e-023 
-4.764560328305439e-022 
-2.646977960169689e-023 
-2.646977960169689e-022 
-1.075334796318936e-023 
-7.610061635487855e-023 
-3.705769144237564e-022 
1.985233470127266e-022 
6.617444900424221e-023 
-1.323488980084844e-023 
2.38228016415272e-022 
2.117582368135751e-022 
7.940933880509066e-023 
8.602678370551488e-023 
-9.926167350636332e-024 
-1.058791184067875e-022 
3.308722450212111e-024 
-1.058791184067875e-022 
3.970466940254533e-023 
2.38228016415272e-022 
1.033975765691285e-024 
-1.720535674110298e-022 
-6.617444900424221e-022 
-4.764560328305439e-022 
-4.764560328305439e-022 
-3.441071348220595e-022 
1.985233470127266e-022 
1.852884572118782e-022 
-5.823351512373315e-022 
7.940933880509066e-023 
2.646977960169689e-023 
7.279189390466644e-023 
4.632211430296955e-023 
-2.646977960169689e-023 
1.985233470127266e-023 
6.617444900424221e-023 
-1.919059021123024e-022 
3.805030817743927e-023 
3.308722450212111e-024 
-1.058791184067875e-022 
6.617444900424221e-024 
4.963083675318166e-024 
-3.705769144237564e-022 
2.316105715148478e-023 
1.48892510259545e-023 
-6.617444900424221e-024 
0 
1.058791184067875e-022 
3.176373552203626e-022 
2.117582368135751e-022 
2.646977960169689e-023 
-4.632211430296955e-023 
-2.249931266144235e-022 
3.176373552203626e-022 
8.271806125530277e-025 
-2.646977960169689e-023 
4.963083675318166e-023 
1.852884572118782e-022 
1.323488980084844e-023 
3.970466940254533e-023 
-4.135903062765138e-025 
3.970466940254533e-023 
-1.257314531080602e-022 
-3.970466940254533e-023 
2.646977960169689e-023 
1.654361225106055e-023 
-1.323488980084844e-023 
-7.940933880509066e-023 
3.970466940254533e-023 
1.323488980084844e-022 
2.38228016415272e-022 
0 
-7.676236084492097e-022 
-1.058791184067875e-022 
0 
-6.352747104407253e-022 
2.117582368135751e-022 
3.970466940254533e-023 
9.529120656610879e-022 
6.617444900424221e-024 
1.323488980084844e-023 
1.323488980084844e-023 
4.896909226313924e-022 
-3.970466940254533e-023 
6.617444900424221e-024 
-2.911675756186657e-022 
-1.323488980084844e-022 
-1.48892510259545e-023 
1.455837878093329e-022 
-1.323488980084844e-023 
-6.617444900424221e-023 
-2.812414082680294e-023 
6.948317145445433e-023 
9.793818452627848e-022 
1.588186776101813e-022 
2.488159282559507e-021 
3.970466940254533e-022 
-4.632211430296955e-023 
6.617444900424221e-024 
8.602678370551488e-023 
-2.117582368135751e-022 
-2.117582368135751e-022 
1.852884572118782e-022 
1.058791184067875e-022 
7.279189390466644e-023 
-2.316105715148478e-023 
-1.852884572118782e-022 
0 
-6.617444900424221e-023 
7.279189390466644e-023 
2.646977960169689e-022 
1.455837878093329e-022 
0 
7.279189390466644e-023 
-1.654361225106055e-023 
9.926167350636332e-024 
-1.48892510259545e-023 
3.308722450212111e-024 
2.38228016415272e-022 
7.146840492458159e-022 
-1.111730743271269e-021 
-1.058791184067875e-021 
-7.940933880509066e-023 
-1.720535674110298e-022 
1.323488980084844e-022 
-7.940933880509066e-023 
-3.176373552203626e-022 
1.058791184067875e-022 
2.646977960169689e-022 
9.926167350636332e-024 
1.615587133892632e-026 
-2.9778502051909e-023 
3.308722450212111e-023 
-2.117582368135751e-022 
-8.685396431806791e-024 
1.389663429089087e-022 
2.646977960169689e-023 
-1.455837878093329e-022 
1.654361225106055e-023 
7.940933880509066e-023 
-9.26442286059391e-023 
-3.877409121342317e-026 
-3.308722450212111e-023 
-2.249931266144235e-022 
1.588186776101813e-022 
-1.588186776101813e-022 
3.441071348220595e-022 
-1.323488980084844e-022 
1.588186776101813e-022 
4.764560328305439e-022 
3.970466940254533e-023 
1.720535674110298e-022 
2.117582368135751e-022 
-1.376428539288238e-021 
5.790264287871194e-024 
-2.646977960169689e-023 
6.121136532892405e-023 
-6.617444900424221e-024 
-1.985233470127266e-023 
2.729696021424991e-023 
-4.632211430296955e-023 
-6.617444900424221e-024 
-5.955700410381799e-023 
-1.058791184067875e-022 
1.852884572118782e-022 
-1.588186776101813e-022 
-1.654361225106055e-024 
-1.654361225106055e-024 
-7.940933880509066e-023 
-3.176373552203626e-022 
4.764560328305439e-022 
1.588186776101813e-022 
1.19114008207636e-022 
0 
-2.646977960169689e-022 
-1.985233470127266e-022 
-1.588186776101813e-022 
1.005851624864482e-021 
-6.88214269644119e-022 
7.858215819253763e-024 
-1.323488980084844e-023 
6.617444900424221e-024 
-2.9778502051909e-023 
4.632211430296955e-023 
-1.323488980084844e-023 
6.617444900424221e-024 
1.654361225106055e-022 
0 
-7.444625512977249e-024 
6.617444900424221e-024 
4.301339185275744e-023 
9.305781891221561e-025 
1.48892510259545e-023 
-2.911675756186657e-022 
-1.455837878093329e-022 
2.38228016415272e-022 
1.323488980084844e-022 
1.058791184067875e-022 
6.352747104407253e-022 
5.293955920339377e-023 
-2.117582368135751e-022 
3.705769144237564e-022 
6.617444900424221e-023 
-9.529120656610879e-022 
2.646977960169689e-023 
1.323488980084844e-023 
2.646977960169689e-023 
3.308722450212111e-023 
-7.279189390466644e-023 
2.38228016415272e-022 
2.646977960169689e-023 
3.970466940254533e-023 
1.654361225106055e-023 
-1.323488980084844e-022 
9.26442286059391e-023 
1.323488980084844e-022 
-1.985233470127266e-023 
-2.067951531382569e-024 
2.646977960169689e-023 
-1.985233470127266e-022 
8.205631676526035e-022 
-7.411538288475128e-022 
2.646977960169689e-022 
4.764560328305439e-022 
-1.323488980084844e-023 
-2.117582368135751e-022 
-4.235164736271502e-022 
-3.176373552203626e-022 
2.911675756186657e-022 
1.058791184067875e-022 
-3.970466940254533e-023 
2.646977960169689e-022 
-1.588186776101813e-022 
-9.26442286059391e-023 
-9.26442286059391e-023 
1.257314531080602e-022 
-2.779326858178173e-022 
3.722312756488625e-024 
-3.176373552203626e-022 
-1.522012327097571e-022 
2.249931266144235e-022 
6.617444900424221e-023 
-3.970466940254533e-022 
6.617444900424221e-023 
1.323488980084844e-022 
-1.985233470127266e-023 
5.293955920339377e-023 
-5.293955920339377e-023 
6.352747104407253e-022 
1.985233470127266e-022 
-5.624828165360588e-023 
2.646977960169689e-022 
1.720535674110298e-022 
-3.970466940254533e-023 
3.805030817743927e-023 
-1.058791184067875e-022 
-1.588186776101813e-022 
-5.293955920339377e-023 
2.514629062161204e-022 
-1.852884572118782e-022 
1.323488980084844e-023 
1.455837878093329e-022 
-1.588186776101813e-022 
-3.970466940254533e-023 
1.819797347616661e-023 
3.639594695233322e-023 
-9.26442286059391e-023 
-4.764560328305439e-022 
1.985233470127266e-023 
-1.588186776101813e-021 
-1.588186776101813e-022 
1.323488980084844e-023 
-1.058791184067875e-022 
-1.852884572118782e-022 
-1.588186776101813e-022 
-2.117582368135751e-022 
5.293955920339377e-022 
-2.150669592637872e-023 
-5.558653716356346e-022 
-1.323488980084844e-022 
0 
2.646977960169689e-023 
-1.852884572118782e-022 
2.911675756186657e-022 
-4.549493369041652e-024 
-1.19114008207636e-022 
1.124965633072118e-022 
4.235164736271502e-022 
-9.926167350636332e-023 
1.323488980084844e-023 
-1.654361225106055e-023 
-1.058791184067875e-022 
-7.940933880509066e-023 
2.646977960169689e-022 
-6.88214269644119e-022 
2.646977960169689e-022 
-6.352747104407253e-022 
-4.235164736271502e-022 
3.441071348220595e-022 
1.058791184067875e-022 
5.293955920339377e-023 
-1.852884572118782e-022 
-3.970466940254533e-023 
7.940933880509066e-022 
-2.646977960169689e-022 
3.970466940254533e-023 
4.632211430296955e-023 
-2.646977960169689e-022 
5.293955920339377e-023 
7.610061635487855e-023 
1.455837878093329e-022 
-2.646977960169689e-023 
1.19114008207636e-022 
2.117582368135751e-022 
1.588186776101813e-022 
7.279189390466644e-023 
-1.257314531080602e-022 
-1.588186776101813e-022 
-3.308722450212111e-023 
3.176373552203626e-022 
5.293955920339377e-022 
-1.588186776101813e-022 
-4.235164736271502e-022 
2.911675756186657e-022 
1.323488980084844e-022 
5.823351512373315e-022 
2.646977960169689e-023 
2.646977960169689e-022 
1.852884572118782e-022 
6.617444900424221e-023 
6.948317145445433e-023 
-6.352747104407253e-022 
0 
2.9778502051909e-023 
-2.39882377640378e-023 
-1.19114008207636e-022 
2.38228016415272e-022 
1.323488980084844e-022 
2.117582368135751e-022 
-5.293955920339377e-022 
3.838118042246048e-022 
-6.203854594147708e-025 
1.588186776101813e-022 
-2.646977960169689e-023 
-1.588186776101813e-022 
-2.223461486542538e-021 
-2.646977960169689e-022 
3.176373552203626e-022 
8.271806125530277e-024 
-1.164670302474663e-021 
-6.352747104407253e-022 
2.646977960169689e-022 
-8.470329472543003e-022 
2.911675756186657e-022 
2.779326858178173e-022 
-4.135903062765138e-025 
-6.617444900424221e-023 
1.058791184067875e-022 
-6.617444900424221e-023 
-6.617444900424221e-024 
-3.970466940254533e-023 
1.19114008207636e-022 
3.970466940254533e-023 
-2.150669592637872e-023 
-8.602678370551488e-023 
-1.985233470127266e-022 
-8.271806125530277e-025 
-1.19114008207636e-022 
-2.9778502051909e-023 
5.293955920339377e-023 
-8.470329472543003e-022 
-1.058791184067875e-022 
-1.588186776101813e-022 
-3.176373552203626e-022 
-7.411538288475128e-022 
-2.117582368135751e-021 
1.720535674110298e-022 
2.117582368135751e-022 
1.323488980084844e-023 
0 
3.308722450212111e-022 
-1.323488980084844e-022 
1.588186776101813e-022 
-4.499862532288471e-022 
-1.985233470127266e-023 
-7.279189390466644e-023 
-5.823351512373315e-022 
3.308722450212111e-022 
-2.38228016415272e-022 
3.970466940254533e-023 
-6.948317145445433e-023 
9.926167350636332e-024 
-3.705769144237564e-022 
4.235164736271502e-022 
-4.301339185275744e-023 
-2.646977960169689e-022 
-1.323488980084844e-022 
-1.588186776101813e-022 
2.911675756186657e-022 
-2.117582368135751e-022 
-9.529120656610879e-022 
-3.970466940254533e-023 
4.235164736271502e-022 
-9.926167350636332e-024 
0 
-1.455837878093329e-022 
-7.279189390466644e-023 
-5.293955920339377e-023 
-2.646977960169689e-023 
-3.970466940254533e-023 
-2.38228016415272e-022 
0 
-1.588186776101813e-022 
1.124965633072118e-022 
1.323488980084844e-022 
-3.57342024622908e-022 
6.617444900424221e-024 
1.376428539288238e-021 
-6.352747104407253e-022 
3.101927297073854e-024 
0 
-1.005851624864482e-021 
-7.411538288475128e-022 
-1.588186776101813e-022 
3.176373552203626e-022 
5.293955920339377e-023 
1.588186776101813e-022 
-1.058791184067875e-022 
1.852884572118782e-022 
-7.940933880509066e-023 
1.058791184067875e-022 
-8.933550615572699e-023 
-3.970466940254533e-023 
4.102815838263017e-022 
9.926167350636332e-024 
5.955700410381799e-023 
-2.117582368135751e-022 
-1.323488980084844e-022 
-1.654361225106055e-023 
-1.323488980084844e-023 
-3.176373552203626e-022 
-6.617444900424221e-024 
-2.858736196983264e-021 
-2.646977960169689e-022 
-9.26442286059391e-023 
-1.323488980084844e-023 
-2.646977960169689e-022 
-2.117582368135751e-022 
6.352747104407253e-022 
-3.705769144237564e-022 
9.26442286059391e-023 
2.117582368135751e-022 
2.38228016415272e-022 
-7.940933880509066e-023 
2.38228016415272e-022 
6.28657265540301e-023 
2.316105715148478e-023 
3.308722450212111e-024 
5.955700410381799e-023 
-3.308722450212111e-024 
4.764560328305439e-022 
-1.323488980084844e-023 
-5.955700410381799e-023 
-1.058791184067875e-022 
1.19114008207636e-022 
1.19114008207636e-022 
-2.646977960169689e-023 
-2.541098841762901e-021 
5.823351512373315e-022 
